Time_ms,step_count,theo_angle,ax,ay,az,gx,gy,gz,mx,my,mz
4,1,39.824047,-1.242591,-0.787692,10.714053,-0.013057,0.024115,0.015455,-23.545454,35.727272,11.326531
26,2,39.648094,-1.163582,-0.749385,10.90559,-0.021051,0.025181,0.081937,-32.727272,38.909088,9.693878
47,3,39.472141,-1.278504,-0.588974,10.42196,-0.006262,0.041968,-0.062352,-32.727272,38.909088,9.693878
69,4,39.296188,-1.161188,-0.794875,10.840946,0.044632,0.019052,-0.256737,-32.727272,38.909088,9.693878
90,5,39.120235,-1.101333,-1.314417,10.472239,0.015188,-0.005063,-0.163741,-42.545455,40.727272,10
111,6,38.944282,-1.273715,-0.509965,10.802639,0.038637,0.011724,-0.03464,-42.545455,40.727272,10
132,7,38.768329,-1.199495,-0.80924,10.307039,0.003864,0.043567,-0.155348,-42.545455,40.727272,10
154,8,38.592376,-1.103727,-0.890643,10.553642,0.024381,0.03877,-0.201979,-42.545455,40.727272,10
175,9,38.416423,-1.118092,-0.984017,10.237607,0.018119,0.020118,-0.094328,-42.636363,40.181819,9.693878
197,10,38.24047,-1.268927,-0.490811,10.898406,0.032508,0.015721,-0.082204,-42.636363,40.181819,9.693878
218,11,38.064517,-1.108515,-0.936133,10.350134,0.015055,0.031443,-0.195184,-42.636363,40.181819,9.693878
240,12,37.888565,-1.18513,-0.866701,10.96305,0.032375,0.017853,-0.1744,-29.909091,35.909088,12.040817
261,13,37.712608,-1.122881,-0.90022,10.40999,0.014389,0.018386,-0.084735,-29.909091,35.909088,12.040817
282,14,37.536655,-1.247379,-0.581791,10.939108,0.02638,0.02558,-0.107784,-29.909091,35.909088,12.040817
303,15,37.360702,-1.11091,-0.909797,10.287885,0.020118,0.039303,-0.208107,-18.181818,32.818183,12.34694
325,16,37.184749,-1.173159,-0.869095,10.903195,0.027179,0.021317,-0.168005,-18.181818,32.818183,12.34694
346,17,37.008796,-1.067814,-0.811634,10.352529,0.022116,0.022516,-0.09566,-18.181818,32.818183,12.34694
368,18,36.832843,-1.175553,-0.59855,10.965444,0.023982,0.024781,-0.125237,-32.818183,37.363636,10
389,19,36.65689,-1.120486,-0.955286,10.314222,0.024648,0.035173,-0.211038,-32.818183,37.363636,10
411,20,36.480937,-1.108515,-0.97444,10.93432,0.028245,0.018386,-0.166273,-32.818183,37.363636,10
432,21,36.304985,-1.11091,-0.840365,10.517728,0.018652,0.018786,-0.095527,-44,39.727272,9.591837
454,22,36.129032,-1.187524,-0.634463,10.941502,0.027712,0.027579,-0.136695,-44,39.727272,9.591837
475,23,35.953079,-1.177947,-1.051055,10.733206,0.020384,0.032642,-0.19585,-44,39.727272,9.591837
496,24,35.777126,-1.240196,-0.756568,10.84334,0.03051,0.023315,-0.108317,-35,36.272727,10.714286
517,25,35.601173,-1.221043,-0.744597,10.788273,0.017986,0.028245,-0.111914,-35,36.272727,10.714286
539,26,35.42522,-1.18513,-0.775721,10.93432,0.024381,0.032375,-0.158678,-35,36.272727,10.714286
560,27,35.249267,-1.13964,-1.029507,10.922348,0.013989,0.025047,-0.128302,-35,36.272727,10.714286
582,28,35.073314,-1.225831,-0.641646,10.840946,0.023848,0.02598,-0.083802,-30.363637,34.454544,11.428572
603,29,34.897361,-1.144428,-0.830788,10.812215,0.014256,0.033175,-0.158945,-30.363637,34.454544,11.428572
625,30,34.721408,-1.180341,-0.849942,10.891224,0.031709,0.028112,-0.167605,-30.363637,34.454544,11.428572
646,31,34.545455,-1.156399,-0.938527,10.90559,0.015721,0.021717,-0.102455,-20.454545,31.818181,11.734695
668,32,34.369503,-1.151611,-0.61531,10.93432,0.018119,0.026113,-0.094861,-20.454545,31.818181,11.734695
689,33,34.19355,-1.144428,-0.835576,10.716447,0.018386,0.032642,-0.173867,-20.454545,31.818181,11.734695
711,34,34.017593,-1.177947,-0.871489,10.867282,0.02598,0.02598,-0.14389,-33.454547,35.636363,9.897959
732,35,33.841644,-1.127669,-0.835576,10.90559,0.016254,0.022916,-0.092862,-33.454547,35.636363,9.897959
754,36,33.665687,-1.146823,-0.667982,10.879253,0.017054,0.029711,-0.120308,-33.454547,35.636363,9.897959
774,37,33.489734,-1.132457,-0.940921,10.817004,0.02225,0.031576,-0.181061,-44.181816,38.363636,9.285715
796,38,33.313781,-1.254562,-0.785298,10.896013,0.027845,0.02558,-0.133897,-44.181816,38.363636,9.285715
817,39,33.137828,-1.158794,-0.871489,10.90559,0.014922,0.025714,-0.094194,-44.181816,38.363636,9.285715
839,40,32.961875,-1.175553,-0.629675,10.891224,0.01772,0.033974,-0.131899,-31.363636,33.181819,11.530612
860,41,32.785923,-1.091756,-0.991199,10.793062,0.016254,0.031309,-0.16947,-31.363636,33.181819,11.530612
882,42,32.60997,-1.209072,-0.723049,10.884041,0.024648,0.028245,-0.112047,-31.363636,33.181819,11.530612
903,43,32.434017,-1.096544,-0.806846,10.855311,0.015188,0.02638,-0.116977,-27.000001,31.727272,12.448981
925,44,32.258064,-1.182736,-0.701501,10.927137,0.026913,0.029977,-0.151351,-27.000001,31.727272,12.448981
946,45,32.082111,-1.082179,-0.962469,10.876859,0.018253,0.026913,-0.150018,-27.000001,31.727272,12.448981
968,46,31.906158,-1.173159,-0.653617,10.886436,0.021983,0.027579,-0.111515,-27.000001,31.727272,12.448981
989,47,31.730205,-1.103727,-0.847547,10.76912,0.018519,0.028911,-0.153349,-21.818181,30.545455,12.142858
1011,48,31.554252,-1.201889,-0.76375,10.88883,0.026513,0.030377,-0.154015,-21.818181,30.545455,12.142858
1032,49,31.378299,-1.154005,-0.921768,10.757148,0.014655,0.026513,-0.118309,-21.818181,30.545455,12.142858
1054,50,31.202346,-1.103727,-0.665588,10.876859,0.020651,0.03091,-0.116044,-36.272727,35.363636,9.183674
1075,51,31.026393,-1.122881,-0.90022,10.795456,0.019185,0.028511,-0.167871,-36.272727,35.363636,9.183674
1097,52,30.85044,-1.125275,-0.876278,10.776302,0.016254,0.024248,-0.10885,-36.272727,35.363636,9.183674
1118,53,30.674488,-1.189918,-0.785298,10.728418,0.004663,0.027979,-0.064084,-45.545455,36.636363,8.77551
1140,54,30.498535,-1.120486,-0.603339,10.824187,0.01319,0.033041,-0.110848,-45.545455,36.636363,8.77551
1161,55,30.322582,-1.089362,-0.873884,10.802639,0.021983,0.032642,-0.171735,-45.545455,36.636363,8.77551
1182,56,30.146627,-1.173159,-0.833182,10.776302,0.018786,0.026513,-0.116444,-31.363636,31.636363,11.428572
1203,57,29.970674,-1.237802,-0.766144,10.848129,0.014123,0.029577,-0.086067,-31.363636,31.636363,11.428572
1226,58,29.794721,-1.134852,-0.658405,10.927137,0.017853,0.030643,-0.126436,-31.363636,31.636363,11.428572
1247,59,29.618768,-1.175553,-0.909797,10.800245,0.019851,0.030377,-0.165473,-22.363636,29.090908,11.632654
1269,60,29.442815,-1.197101,-0.78051,10.860099,0.021583,0.024648,-0.11338,-22.363636,29.090908,11.632654
1290,61,29.266862,-1.151611,-0.768539,10.812215,0.011591,0.027979,-0.108051,-22.363636,29.090908,11.632654
1312,62,29.090908,-1.21386,-0.665588,10.84334,0.019718,0.030377,-0.135629,-31.545454,31.90909,10.510205
1333,63,28.914955,-1.16837,-0.902614,10.795456,0.015988,0.029444,-0.153216,-31.545454,31.90909,10.510205
1355,64,28.739002,-1.21386,-0.730232,10.862494,0.019851,0.027312,-0.116977,-31.545454,31.90909,10.510205
1376,65,28.563049,-1.177947,-0.782904,10.864888,0.013723,0.027312,-0.122173,-31.545454,31.90909,10.510205
1398,66,28.387096,-1.194707,-0.679953,10.848129,0.015855,0.029844,-0.136296,-36.454547,33.363636,9.795919
1419,67,28.211143,-1.154005,-0.814029,10.75236,0.018786,0.03091,-0.144156,-36.454547,33.363636,9.795919
1441,68,28.03519,-1.161188,-0.708684,10.78109,0.017054,0.029311,-0.127369,-36.454547,33.363636,9.795919
1462,69,27.859237,-1.154005,-0.785298,10.809822,0.017853,0.028378,-0.136962,-45.090908,35.181816,8.77551
1483,70,27.683284,-1.125275,-0.732626,10.785879,0.019185,0.028245,-0.134697,-45.090908,35.181816,8.77551
1504,71,27.507331,-1.163582,-0.80924,10.766725,0.017453,0.028511,-0.135629,-45.090908,35.181816,8.77551
1526,72,27.331378,-1.120486,-0.744597,10.817004,0.017853,0.029044,-0.132832,-33,30.454545,11.020408
1547,73,27.155426,-1.137246,-0.811634,10.776302,0.01732,0.030243,-0.14309,-33,30.454545,11.020408
1569,74,26.979473,-1.170765,-0.742202,10.749966,0.020384,0.028778,-0.132698,-33,30.454545,11.020408
1590,75,26.80352,-1.165976,-0.758962,10.764331,0.014123,0.028911,-0.136562,-24.090908,28.272727,11.22449
1612,76,26.627567,-1.187524,-0.646434,10.726024,0.022783,0.028911,-0.13976,-24.090908,28.272727,11.22449
1633,77,26.451614,-1.13964,-0.837971,10.795456,0.018652,0.029844,-0.146155,-24.090908,28.272727,11.22449
1655,78,26.275661,-1.170765,-0.687136,10.754755,0.014522,0.030243,-0.11711,-36.363636,32.272727,8.877552
1676,79,26.099706,-1.163582,-0.746991,10.75236,0.012391,0.028511,-0.107917,-36.363636,32.272727,8.877552
1698,80,25.923753,-1.146823,-0.672771,10.773908,0.012391,0.028112,-0.114579,-36.363636,32.272727,8.877552
1719,81,25.7478,-1.130063,-0.725443,10.714053,0.015988,0.028378,-0.135763,-44,34,8.57143
1741,82,25.571847,-1.113304,-0.749385,10.776302,0.015455,0.028911,-0.134697,-44,34,8.57143
1762,83,25.395895,-1.18513,-0.778116,10.740389,0.015455,0.03011,-0.130167,-44,34,8.57143
1784,84,25.219942,-1.134852,-0.70629,10.690111,0.012657,0.028511,-0.11258,-44,34,8.57143
1804,85,25.043987,-1.173159,-0.730232,10.749966,0.014256,0.026913,-0.119109,-46.181819,33.818183,8.265307
1826,86,24.868034,-1.173159,-0.658405,10.642227,0.018119,0.025047,-0.139493,-46.181819,33.818183,8.265307
1847,87,24.692081,-1.151611,-0.773327,10.745178,0.024781,0.025714,-0.154681,-46.181819,33.818183,8.265307
1869,88,24.516128,-1.122881,-0.684742,10.625468,0.012923,0.029178,-0.127902,-34.81818,29.090908,11.020408
1890,89,24.340175,-1.194707,-0.744597,10.690111,0.013856,0.03051,-0.117377,-34.81818,29.090908,11.020408
1912,90,24.164222,-1.194707,-0.629675,10.800245,0.017853,0.025447,-0.130034,-34.81818,29.090908,11.020408
1933,91,23.988269,-1.127669,-0.761356,10.709264,0.024115,0.023049,-0.156946,-25.181818,26.636365,11.428572
1955,92,23.812316,-1.137246,-0.691924,10.656592,0.019718,0.026247,-0.140559,-25.181818,26.636365,11.428572
1976,93,23.636363,-1.163582,-0.756568,10.742783,0.011058,0.028911,-0.1303,-25.181818,26.636365,11.428572
1998,94,23.460411,-1.154005,-0.634463,10.805033,0.015188,0.030776,-0.130167,-37.636363,30.545455,8.469388
2019,95,23.284458,-1.115698,-0.723049,10.718841,0.022383,0.027046,-0.148553,-37.636363,30.545455,8.469388
2041,96,23.108505,-1.060631,-0.653617,10.759543,0.019985,0.026247,-0.138427,-37.636363,30.545455,8.469388
2062,97,22.932552,-1.115698,-0.713472,10.721236,0.019452,0.026513,-0.142557,-47.272727,32.636363,8.061224
2084,98,22.756599,-1.082179,-0.658405,10.742783,0.016521,0.028245,-0.132299,-47.272727,32.636363,8.061224
2105,99,22.580644,-1.180341,-0.70629,10.766725,0.01732,0.027579,-0.134697,-47.272727,32.636363,8.061224
2127,100,22.404691,-1.084573,-0.622492,10.802639,0.019985,0.024914,-0.136962,-37.363636,28.727272,10
2148,101,22.228738,-1.170765,-0.684742,10.76912,0.023449,0.025047,-0.153482,-37.363636,28.727272,10
2170,102,22.052785,-1.060631,-0.620098,10.785879,0.022783,0.027312,-0.154149,-37.363636,28.727272,10
2191,103,21.876832,-1.142034,-0.718261,10.793062,0.015988,0.031842,-0.141358,-37.363636,28.727272,10
2213,104,21.70088,-1.074997,-0.608127,10.716447,0.015455,0.03051,-0.132965,-32.818183,26.636365,11.020408
2235,105,21.524927,-1.11091,-0.670376,10.761937,0.023182,0.024248,-0.148819,-32.818183,26.636365,11.020408
2257,106,21.348974,-1.101333,-0.608127,10.749966,0.021717,0.027312,-0.145355,-32.818183,26.636365,11.020408
2278,107,21.173021,-1.115698,-0.663194,10.778697,0.018652,0.029311,-0.138161,-26.545452,24.909091,10.816328
2300,108,20.997068,-1.09415,-0.605733,10.802639,0.014123,0.029844,-0.128968,-26.545452,24.909091,10.816328
2321,109,20.821115,-1.149217,-0.667982,10.850522,0.021583,0.026113,-0.145355,-26.545452,24.909091,10.816328
2343,110,20.645162,-1.041478,-0.509965,10.773908,0.024781,0.023715,-0.146954,-40.545455,29.636362,7.959183
2364,111,20.469207,-1.082179,-0.730232,10.757148,0.01772,0.025847,-0.146954,-40.545455,29.636362,7.959183
2386,112,20.293254,-1.055843,-0.538695,10.84334,0.018119,0.027712,-0.122972,-40.545455,29.636362,7.959183
2407,113,20.117301,-1.086968,-0.699107,10.850522,0.015721,0.023715,-0.12164,-47.636363,30.818181,7.551021
2429,114,19.941349,-1.051055,-0.488417,10.771513,0.020784,0.025047,-0.114179,-47.636363,30.818181,7.551021
2450,115,19.765396,-1.058237,-0.620098,10.836157,0.020784,0.021583,-0.1311,-47.636363,30.818181,7.551021
2472,116,19.589443,-1.055843,-0.529119,10.836157,0.019319,0.023315,-0.12617,-35.454544,26.090908,10.306122
2493,117,19.41349,-1.070208,-0.629675,10.740389,0.018119,0.023582,-0.121507,-35.454544,26.090908,10.306122
2515,118,19.237537,-1.058237,-0.488417,10.838552,0.024515,0.023182,-0.11258,-35.454544,26.090908,10.306122
2536,119,19.061584,-0.943315,-0.658405,10.828975,0.025314,0.016521,-0.131766,-27.363637,24.090908,10.510205
2558,120,18.885631,-0.988805,-0.435745,10.81461,0.026779,0.019452,-0.1311,-27.363637,24.090908,10.510205
2580,121,18.709678,-0.787692,-0.47884,10.838552,0.037172,0.017853,-0.1299,-27.363637,24.090908,10.510205
2602,122,18.533725,-1.015141,-0.483629,10.783485,0.049562,0.007461,-0.122972,-32.272727,25.636363,9.693878
2624,123,18.35777,-0.821211,-0.438139,10.824187,0.06475,-0.004263,-0.142158,-32.272727,25.636363,9.693878
2645,124,18.181818,-1.01993,-0.497994,10.735601,0.077141,-0.012923,-0.142424,-32.272727,25.636363,9.693878
2667,125,18.005865,-0.888249,-0.577003,10.81461,0.076475,-0.00866,-0.15175,-32.272727,25.636363,9.693878
2688,126,17.829912,-0.921768,-0.423774,10.788273,0.062885,0.005196,-0.135363,-39,27.272727,8.061224
2710,127,17.653959,-0.94571,-0.632069,10.824187,0.025847,0.02185,-0.127502,-39,27.272727,8.061224
2731,128,17.478006,-0.979228,-0.378284,10.845734,0.018919,0.029844,-0.106052,-39,27.272727,8.061224
2753,129,17.302053,-0.919373,-0.56982,10.910378,0.015455,0.02598,-0.125904,-47.81818,28.727272,7.346939
2774,130,17.1261,-1.007959,-0.409408,10.759543,0.023982,0.023582,-0.12617,-47.81818,28.727272,7.346939
2796,131,16.950147,-0.866701,-0.538695,10.872071,0.025847,0.022916,-0.117377,-47.81818,28.727272,7.346939
2817,132,16.774194,-0.955286,-0.407014,10.826581,0.023582,0.023715,-0.098325,-36.818183,24.727272,9.693878
2839,133,16.598241,-0.905008,-0.423774,10.886436,0.02145,0.021184,-0.112714,-36.818183,24.727272,9.693878
2860,134,16.422286,-0.969652,-0.371101,10.881648,0.029844,0.019452,-0.122706,-36.818183,24.727272,9.693878
2882,135,16.246334,-0.80924,-0.397438,10.886436,0.028778,0.020917,-0.131899,-28.90909,22.454544,10.510205
2903,136,16.070381,-0.914585,-0.390255,10.845734,0.028911,0.022916,-0.119508,-28.90909,22.454544,10.510205
2925,137,15.894429,-0.859518,-0.409408,10.90559,0.020784,0.023848,-0.124838,-28.90909,22.454544,10.510205
2946,138,15.718476,-0.967257,-0.378284,10.936714,0.025047,0.023182,-0.115645,-40,26,7.755102
2968,139,15.542523,-0.902614,-0.471658,10.857706,0.017587,0.021983,-0.119508,-40,26,7.755102
2989,140,15.36657,-0.948104,-0.418985,10.931925,0.014789,0.020518,-0.113247,-40,26,7.755102
3011,141,15.190617,-0.914585,-0.411803,10.893618,0.018519,0.022516,-0.117377,-46.909091,27.181819,6.938776
3032,142,15.014664,-1.010353,-0.423774,10.874464,0.019585,0.021983,-0.116977,-46.909091,27.181819,6.938776
3054,143,14.838711,-0.909797,-0.423774,10.876859,0.019319,0.020251,-0.120841,-46.909091,27.181819,6.938776
3075,144,14.662758,-0.981623,-0.385467,10.881648,0.019452,0.023315,-0.113913,-46.909091,27.181819,6.938776
3097,145,14.486805,-0.902614,-0.466869,10.864888,0.009992,0.025314,-0.111381,-48.636363,27.000001,7.142858
3118,146,14.310851,-1.007959,-0.428562,10.876859,0.01279,0.026513,-0.10059,-48.636363,27.000001,7.142858
3140,147,14.134898,-0.950498,-0.418985,10.805033,0.006795,0.02598,-0.097126,-48.636363,27.000001,7.142858
3161,148,13.958945,-0.950498,-0.438139,10.850522,0.008127,0.025847,-0.094861,-40.363636,23.545454,9.591837
3183,149,13.782992,-0.981623,-0.454898,10.884041,0.005063,0.024248,-0.096992,-40.363636,23.545454,9.591837
3204,150,13.607039,-1.01993,-0.457293,10.848129,0.009593,0.02558,-0.092729,-40.363636,23.545454,9.591837
3226,151,13.431086,-0.926556,-0.447716,10.850522,0.005995,0.027046,-0.093129,-29.272726,21,10.714286
3247,152,13.255133,-0.995988,-0.414197,10.773908,0.008527,0.026113,-0.090597,-29.272726,21,10.714286
3269,153,13.07918,-0.957681,-0.428562,10.819398,0.006928,0.027046,-0.093129,-29.272726,21,10.714286
3290,154,12.903227,-1.031901,-0.438139,10.81461,0.00826,0.025181,-0.093262,-39.363636,24.181818,7.755102
3312,155,12.727274,-0.988805,-0.426168,10.872071,0.008394,0.027446,-0.09113,-39.363636,24.181818,7.755102
3333,156,12.551321,-1.012747,-0.474052,10.805033,0.008926,0.02558,-0.088732,-39.363636,24.181818,7.755102
3355,157,12.375369,-0.967257,-0.423774,10.862494,0.008127,0.027179,-0.085135,-49.272727,26,6.530612
3376,158,12.199414,-1.022324,-0.445322,10.776302,0.007994,0.026779,-0.080338,-49.272727,26,6.530612
3398,159,12.023461,-0.964863,-0.411803,10.819398,0.005862,0.02558,-0.078207,-49.272727,26,6.530612
3419,160,11.847508,-0.995988,-0.416591,10.800245,0.00413,0.025314,-0.072877,-38.363636,22,9.591837
3441,161,11.671555,-0.964863,-0.40462,10.826581,0.001199,0.025847,-0.066216,-38.363636,22,9.591837
3462,162,11.495602,-0.986411,-0.481235,10.838552,0.000533,0.025047,-0.062086,-38.363636,22,9.591837
3484,163,11.319649,-0.950498,-0.383072,10.802639,-0.001865,0.025847,-0.055424,-35.272727,20.727272,10.612245
3505,164,11.143696,-0.943315,-0.418985,10.824187,-0.002531,0.025314,-0.047697,-35.272727,20.727272,10.612245
3527,165,10.967743,-0.938527,-0.390255,10.771513,-0.003464,0.025181,-0.042501,-35.272727,20.727272,10.612245
3548,166,10.79179,-1.007959,-0.428562,10.783485,-0.005063,0.026247,-0.035839,-35.272727,20.727272,10.612245
3570,167,10.615838,-0.960075,-0.397438,10.249578,-0.005063,0.027046,-0.045698,-29.727273,19.545455,10.714286
3591,168,10.439885,-0.979228,-0.380678,10.663775,-0.003331,0.02145,-0.08247,-29.727273,19.545455,10.714286
3613,169,10.26393,-0.924162,-0.474052,10.211271,0.012391,0.018253,-0.104453,-29.727273,19.545455,10.714286
3634,170,10.087977,-0.924162,-0.452504,10.486604,0.007861,0.025181,-0.120708,-41.909088,23.727272,7.142858
3656,171,9.912024,-0.893037,-0.385467,10.235213,0.011991,0.027845,-0.121773,-41.909088,23.727272,7.142858
3677,172,9.736071,-0.943315,-0.469264,10.582372,0.004663,0.027712,-0.116711,-41.909088,23.727272,7.142858
3699,173,9.560118,-0.881066,-0.430956,10.436326,0.007061,0.028645,-0.108983,-49.272727,24.818181,6.428572
3720,174,9.384165,-0.924162,-0.416591,10.647015,0.003464,0.028645,-0.100856,-49.272727,24.818181,6.428572
3742,175,9.208212,-0.916979,-0.402226,10.455479,0.003464,0.026913,-0.091796,-49.272727,24.818181,6.428572
3763,176,9.032259,-0.943315,-0.442927,10.670957,-0.001865,0.025447,-0.086867,-37.81818,20.90909,9.693878
3785,177,8.856307,-0.873884,-0.426168,10.515335,-0.000133,0.026113,-0.082337,-37.81818,20.90909,9.693878
3806,178,8.680354,-0.912191,-0.385467,10.524911,-0.001332,0.026247,-0.083802,-37.81818,20.90909,9.693878
3828,179,8.504401,-0.857124,-0.337582,10.323799,-0.000133,0.023182,-0.087266,-30.272727,18.545454,10.204082
3849,180,8.328448,-0.914585,-0.356736,10.424355,0.004796,0.023582,-0.096459,-30.272727,18.545454,10.204082
3871,181,8.152493,-0.790087,-0.351948,10.357317,0.000799,0.021983,-0.102588,-30.272727,18.545454,10.204082
3892,182,7.97654,-0.890643,-0.292093,10.517728,0.007994,0.025447,-0.105253,-35.636363,20.636363,8.67347
3914,183,7.800587,-0.790087,-0.392649,10.488998,-0.001466,0.025714,-0.103787,-35.636363,20.636363,8.67347
3935,184,7.624634,-0.885855,-0.323217,10.556035,0.014389,0.029844,-0.108051,-35.636363,20.636363,8.67347
3957,185,7.448681,-0.85473,-0.371101,9.933544,0.001732,0.026779,-0.116178,-35.636363,20.636363,8.67347
3978,186,7.272728,-0.871489,-0.292093,10.469844,0.011991,0.024115,-0.128035,-40.81818,21.90909,7.244898
4000,187,7.096775,-0.80924,-0.421379,10.510546,-0.004663,0.023582,-0.126836,-40.81818,21.90909,7.244898
4021,188,6.920822,-0.859518,-0.323217,10.491393,0.00906,0.024781,-0.124172,-40.81818,21.90909,7.244898
4043,189,6.744869,-0.864307,-0.383072,10.565612,0.005596,0.027979,-0.117643,-48.818183,23.181818,6.22449
4064,190,6.568916,-0.907402,-0.380678,10.503363,0.003331,0.027579,-0.115511,-48.818183,23.181818,6.22449
4086,191,6.392963,-0.80924,-0.445322,9.923967,0.003597,0.028245,-0.108717,-48.818183,23.181818,6.22449
4107,192,6.21701,-0.849942,-0.339977,10.474633,0.007994,0.027046,-0.112047,-39.363636,19.181818,9.081633
4129,193,6.041058,-0.811634,-0.395043,9.928755,0.005329,0.027312,-0.115511,-39.363636,19.181818,9.081633
4149,194,5.865105,-0.85473,-0.426168,10.450691,0.001599,0.024914,-0.118842,-39.363636,19.181818,9.081633
4171,195,5.689152,-0.802058,-0.296881,10.491393,0.006395,0.024914,-0.116178,-30.727273,17.181818,9.795919
4192,196,5.513199,-0.857124,-0.363919,10.488998,0.005462,0.026247,-0.115511,-30.727273,17.181818,9.795919
4214,197,5.337246,-0.754173,-0.392649,10.079589,0.002531,0.030643,-0.10885,-30.727273,17.181818,9.795919
4235,198,5.161289,-0.861913,-0.409408,10.670957,0.007328,0.027712,-0.112047,-40.727272,20.454545,6.734694
4257,199,4.985336,-0.739808,-0.411803,10.065224,0.00493,0.028511,-0.112847,-40.727272,20.454545,6.734694
4278,200,4.809383,-0.936133,-0.418985,10.79785,0.003997,0.026247,-0.121107,-40.727272,20.454545,6.734694
4300,201,4.63343,-0.770933,-0.445322,10.120291,0.006129,0.024115,-0.112847,-46,20.90909,5.816327
4321,202,4.457478,-0.926556,-0.399832,10.807427,0.005729,0.029044,-0.116977,-46,20.90909,5.816327
4343,203,4.281525,-0.694318,-0.435745,10.031705,0.007461,0.027046,-0.112714,-46,20.90909,5.816327
4364,204,4.105572,-0.878672,-0.445322,10.742783,0.002265,0.026513,-0.115378,-46,20.90909,5.816327
4386,205,3.929619,-0.699107,-0.440533,9.976639,0.006928,0.03011,-0.107917,-48.727272,21.363636,5.612245
4407,206,3.753666,-0.933739,-0.383072,10.711659,0.002531,0.028778,-0.109649,-48.727272,21.363636,5.612245
4429,207,3.577713,-0.814029,-0.416591,10.577584,0.00413,0.026247,-0.098325,-48.727272,21.363636,5.612245
4450,208,3.40176,-0.902614,-0.378284,10.66138,-0.001466,0.026113,-0.089665,-38.454544,17.272727,8.877552
4472,209,3.225807,-0.675165,-0.445322,9.832987,0.009459,0.030776,-0.096593,-38.454544,17.272727,8.877552
4493,210,3.049854,-0.912191,-0.428562,10.563219,0.00373,0.026646,-0.124038,-38.454544,17.272727,8.877552
4514,211,2.873901,-0.703895,-0.435745,9.995793,0.011591,0.023715,-0.127236,-31.181818,15.545455,9.591837
4535,212,2.697948,-0.876278,-0.371101,10.759543,0.009459,0.020784,-0.12124,-31.181818,15.545455,9.591837
4557,213,2.521996,-0.80924,-0.45011,9.866506,0.014123,0.027845,-0.111914,-31.181818,15.545455,9.591837
4578,214,2.346043,-0.871489,-0.342371,10.63265,0.012124,0.021983,-0.122972,-41.909088,18.727272,6.122449
4600,215,2.17009,-0.811634,-0.442927,10.522517,0.00826,0.01732,-0.125237,-41.909088,18.727272,6.122449
4621,216,1.994137,-0.849942,-0.347159,10.637438,0.012391,0.016387,-0.130966,-41.909088,18.727272,6.122449
4643,217,1.818184,-0.85473,-0.435745,10.477027,0.013456,0.018519,-0.124838,-49.363636,19.636363,5.408164
4664,218,1.642231,-0.840365,-0.390255,10.651803,0.01359,0.024115,-0.131499,-49.363636,19.636363,5.408164
4686,219,1.466278,-0.723049,-0.438139,9.89763,0.007061,0.022383,-0.122573,-49.363636,19.636363,5.408164
4707,220,1.290325,-0.732626,-0.354342,10.642227,0.016654,0.015988,-0.127769,-45.636363,17.90909,6.938776
4729,221,1.114372,-0.720655,-0.35913,9.89763,0.016121,0.018386,-0.125371,-45.636363,17.90909,6.938776
4750,222,0.938416,-0.770933,-0.363919,10.75236,0.013456,0.014123,-0.133364,-45.636363,17.90909,6.938776
4772,223,0.762463,-0.720655,-0.418985,9.907207,0.011191,0.019319,-0.12204,-45.636363,17.90909,6.938776
4793,224,0.58651,-0.713472,-0.311246,10.704476,0.015588,0.019185,-0.12617,-40.454544,15.818182,8.265307
4815,225,0.410557,-0.751779,-0.411803,10.563219,0.011458,0.022649,-0.122706,-40.454544,15.818182,8.265307
4835,226,0.234604,-0.744597,-0.390255,10.776302,0.007861,0.022916,-0.122839,-40.454544,15.818182,8.265307
4857,227,0.058651,-0.737414,-0.416591,10.608708,0.00906,0.029178,-0.116044,-32.272727,13.909091,9.183674
4878,228,-0.117302,-0.746991,-0.423774,10.78109,0.005063,0.031975,-0.118576,-32.272727,13.909091,9.183674
4900,229,-0.293255,-0.639252,-0.392649,10.134656,0.004397,0.032908,-0.109916,-32.272727,13.909091,9.183674
4921,230,-0.469208,-0.749385,-0.447716,10.675745,0.002132,0.033574,-0.116444,-40.81818,16.363636,6.836735
4943,231,-0.645161,-0.588974,-0.37589,10.041282,0.002132,0.032375,-0.106319,-40.81818,16.363636,6.836735
4964,232,-0.821114,-0.756568,-0.373495,10.726024,0.002798,0.033841,-0.107917,-40.81818,16.363636,6.836735
4986,233,-0.997066,-0.553061,-0.493206,10.110714,-0.006928,0.030377,-0.093795,-49.181819,17.818181,5.510204
5007,234,-1.173019,-0.701501,-0.258574,10.654198,0.024248,0.022916,-0.10845,-49.181819,17.818181,5.510204
5029,235,-1.348972,-0.696713,-0.414197,10.290279,0.019718,0.022383,-0.115778,-49.181819,17.818181,5.510204
5050,236,-1.524925,-0.806846,-0.387861,11.001358,0.008926,0.018786,-0.121907,-40,14.454545,8.57143
5072,237,-1.700878,-0.677559,-0.361524,10.275914,0.014256,0.018786,-0.11711,-40,14.454545,8.57143
5093,238,-1.876831,-0.794875,-0.31364,10.975021,0.014789,0.021717,-0.130833,-40,14.454545,8.57143
5115,239,-2.052784,-0.701501,-0.378284,10.235213,0.02185,0.028112,-0.13523,-35.363636,13.181818,9.591837
5136,240,-2.228737,-0.778116,-0.363919,10.469844,0.012124,0.031842,-0.130433,-35.363636,13.181818,9.591837
5158,241,-2.40469,-0.675165,-0.349553,10.25676,0.017587,0.030377,-0.125504,-35.363636,13.181818,9.591837
5179,242,-2.580643,-0.739808,-0.289698,10.383653,0.026913,0.029311,-0.136429,-35.363636,13.181818,9.591837
5201,243,-2.756596,-0.778116,-0.349553,10.433932,0.023182,0.024248,-0.132299,-31.90909,12,9.897959
5222,244,-2.932548,-0.737414,-0.347159,10.685322,0.016121,0.020518,-0.125904,-31.90909,12,9.897959
5244,245,-3.108505,-0.713472,-0.277727,10.54167,0.021717,0.020784,-0.123505,-31.90909,12,9.897959
5265,246,-3.284458,-0.790087,-0.356736,10.584766,0.029178,0.018386,-0.132299,-41.545452,14.818181,6.326531
5287,247,-3.460411,-0.770933,-0.335188,10.66138,0.020251,0.016787,-0.118443,-41.545452,14.818181,6.326531
5308,248,-3.636364,-0.787692,-0.282516,10.718841,0.019851,0.020917,-0.118975,-41.545452,14.818181,6.326531
5330,249,-3.812317,-0.754173,-0.301669,10.658987,0.024914,0.021184,-0.119109,-49.727272,15.727273,5.306122
5351,250,-3.98827,-0.821211,-0.316035,10.673352,0.033041,0.019985,-0.128968,-49.727272,15.727273,5.306122
5373,251,-4.164223,-0.802058,-0.349553,10.398018,0.018652,0.016254,-0.10845,-49.727272,15.727273,5.306122
5394,252,-4.340176,-0.756568,-0.28491,10.860099,0.024115,0.01692,-0.115511,-39.818183,12,8.67347
5416,253,-4.516129,-0.758962,-0.308852,10.450691,0.02185,0.019718,-0.117243,-39.818183,12,8.67347
5437,254,-4.692081,-0.761356,-0.3304,10.919955,0.01692,0.020251,-0.122306,-39.818183,12,8.67347
5459,255,-4.868034,-0.672771,-0.366313,10.40999,0.009326,0.024914,-0.108317,-32.090908,10.727273,9.591837
5480,256,-5.043987,-0.691924,-0.287304,10.833764,0.008926,0.03091,-0.115511,-32.090908,10.727273,9.591837
5502,257,-5.21994,-0.687136,-0.270545,10.544065,0.004263,0.028645,-0.102855,-32.090908,10.727273,9.591837
5524,258,-5.395893,-0.713472,-0.282516,10.936714,0.000933,0.024515,-0.091796,-39.454547,12.363636,7.142858
5545,259,-5.571846,-0.627281,-0.253785,10.596737,0.003064,0.021184,-0.090597,-39.454547,12.363636,7.142858
5567,260,-5.747799,-0.727837,-0.1652,10.867282,0.028245,0.017054,-0.118309,-39.454547,12.363636,7.142858
5588,261,-5.923752,-0.768539,-0.270545,10.745178,0.019851,0.013723,-0.1303,-39.454547,12.363636,7.142858
5610,262,-6.099705,-0.739808,-0.253785,10.785879,0.013723,0.019985,-0.141758,-43.454544,13,6.122449
5631,263,-6.275658,-0.730232,-0.308852,10.828975,0.012524,0.024248,-0.139893,-43.454544,13,6.122449
5653,264,-6.451611,-0.746991,-0.196325,10.761937,0.01279,0.037038,-0.143224,-43.454544,13,6.122449
5674,265,-6.627563,-0.73502,-0.251391,10.874464,0.011724,0.040769,-0.139626,-49.363636,13.454546,5.306122
5696,266,-6.803516,-0.711078,-0.246603,10.848129,0.006928,0.039836,-0.149352,-49.363636,13.454546,5.306122
5717,267,-6.979469,-0.778116,-0.253785,10.850522,0.014522,0.039037,-0.14802,-49.363636,13.454546,5.306122
5739,268,-7.155426,-0.792481,-0.25618,10.759543,0.014256,0.030243,-0.134031,-38.909088,10.363636,8.163266
5760,269,-7.331379,-0.871489,-0.263362,10.685322,0.006395,0.022116,-0.120041,-38.909088,10.363636,8.163266
5782,270,-7.507332,-0.833182,-0.208296,10.850522,0.018119,0.025447,-0.140026,-38.909088,10.363636,8.163266
5803,271,-7.683285,-0.864307,-0.301669,10.642227,0.016254,0.023848,-0.150152,-32.727272,8.636364,9.285715
5825,272,-7.859238,-0.799663,-0.215478,10.840946,0.014922,0.027046,-0.132032,-32.727272,8.636364,9.285715
5846,273,-8.035191,-0.806846,-0.272939,10.601526,0.012923,0.027712,-0.124438,-32.727272,8.636364,9.285715
5868,274,-8.211144,-0.790087,-0.215478,10.680534,0.029178,0.02558,-0.143623,-42.090908,11,5.918367
5889,275,-8.387097,-0.845153,-0.294487,10.630256,0.02145,0.020384,-0.140959,-42.090908,11,5.918367
5911,276,-8.56305,-0.814029,-0.196325,10.766725,0.015721,0.02185,-0.124038,-42.090908,11,5.918367
5932,277,-8.739003,-0.816423,-0.229843,10.579977,0.011858,0.025714,-0.122839,-49.454544,11.909091,5
5954,278,-8.914956,-0.773327,-0.217872,10.836157,0.017453,0.029044,-0.142025,-49.454544,11.909091,5
5974,279,-9.090909,-0.782904,-0.282516,10.611103,0.010259,0.027446,-0.126436,-49.454544,11.909091,5
5996,280,-9.266861,-0.787692,-0.215478,10.84334,0.010525,0.028645,-0.118176,-49.454544,11.909091,5
6017,281,-9.442814,-0.806846,-0.258574,10.563219,0.014789,0.029178,-0.129234,-49.454544,11.909091,5
6039,282,-9.618767,-0.837971,-0.201113,10.826581,0.017853,0.023315,-0.137095,-49.454544,11.909091,5
6060,283,-9.79472,-0.792481,-0.272939,10.630256,0.010525,0.022916,-0.106319,-49.454544,11.909091,5
6082,284,-9.970673,-0.821211,-0.169988,10.680534,0.010525,0.023582,-0.098058,-42.090908,8.909091,7.959183
6103,285,-10.146626,-0.926556,-0.21069,10.381259,0.027179,0.018519,-0.118443,-42.090908,8.909091,7.959183
6125,286,-10.322579,-0.897826,-0.201113,10.498575,0.030377,0.014123,-0.144423,-42.090908,8.909091,7.959183
6146,287,-10.498532,-0.797269,-0.301669,10.556035,0.015188,0.013456,-0.127369,-32.545452,6.818182,9.489796
6168,288,-10.674485,-0.885855,-0.169988,10.618285,0.015322,0.027179,-0.120574,-32.545452,6.818182,9.489796
6189,289,-10.850438,-0.766144,-0.268151,10.510546,0.01692,0.033708,-0.128701,-32.545452,6.818182,9.489796
6211,290,-11.026391,-0.840365,-0.167594,10.656592,0.019452,0.028911,-0.133098,-40.81818,8.818182,6.22449
6232,291,-11.202347,-0.73502,-0.263362,10.548853,0.012923,0.02225,-0.124704,-40.81818,8.818182,6.22449
6254,292,-11.3783,-0.840365,-0.181959,10.536882,0.018652,0.020784,-0.125904,-40.81818,8.818182,6.22449
6275,293,-11.554253,-0.718261,-0.253785,10.486604,0.016254,0.020384,-0.127502,-49.181819,10,4.489796
6297,294,-11.730206,-0.804452,-0.146046,10.623073,0.022383,0.023182,-0.132032,-49.181819,10,4.489796
6318,295,-11.906159,-0.830788,-0.196325,10.462662,0.017853,0.027179,-0.124172,-49.181819,10,4.489796
6340,296,-12.082112,-0.778116,-0.186748,10.785879,0.016121,0.029577,-0.1311,-40.090908,6.818182,8.061224
6361,297,-12.258065,-0.794875,-0.208296,10.465056,0.014123,0.028911,-0.122839,-40.090908,6.818182,8.061224
6383,298,-12.434018,-0.778116,-0.124498,10.721236,0.020118,0.027845,-0.134297,-40.090908,6.818182,8.061224
6404,299,-12.609971,-0.766144,-0.263362,10.400413,0.017853,0.026113,-0.140426,-37.454544,5.818182,8.77551
6426,300,-12.785923,-0.804452,-0.167594,10.699687,0.017453,0.027712,-0.139227,-37.454544,5.818182,8.77551
6447,301,-12.961876,-0.699107,-0.217872,10.477027,0.012257,0.026247,-0.121907,-37.454544,5.818182,8.77551
6469,302,-13.137829,-0.785298,-0.160412,10.635045,0.019585,0.030643,-0.140559,-37.454544,5.818182,8.77551
6490,303,-13.313782,-0.749385,-0.227449,10.457874,0.018519,0.028645,-0.139626,-32.545452,4.909091,8.877552
6512,304,-13.489735,-0.794875,-0.146046,10.824187,0.012657,0.021051,-0.118709,-32.545452,4.909091,8.877552
6533,305,-13.665688,-0.61531,-0.186748,10.426749,0.012124,0.028645,-0.128302,-32.545452,4.909091,8.877552
6555,306,-13.841641,-0.76375,-0.122104,10.742783,0.019851,0.03091,-0.150685,-43.090908,7.363636,4.693878
6576,307,-14.017594,-0.814029,-0.275333,10.579977,0.011591,0.026113,-0.122706,-43.090908,7.363636,4.693878
6598,308,-14.193547,-0.782904,-0.112527,10.848129,0.011058,0.025047,-0.101256,-43.090908,7.363636,4.693878
6619,309,-14.3695,-0.720655,-0.196325,10.5297,0.012923,0.030377,-0.116977,-49.090911,8.090909,4.285715
6641,310,-14.545453,-0.768539,-0.177171,10.817004,0.015988,0.032242,-0.143623,-49.090911,8.090909,4.285715
6662,311,-14.721405,-0.720655,-0.248997,10.48421,0.010792,0.027312,-0.119642,-49.090911,8.090909,4.285715
6684,312,-14.897358,-0.778116,-0.158017,10.836157,0.014789,0.027845,-0.1307,-39.272727,5.090909,7.551021
6705,313,-15.073311,-0.73502,-0.244209,10.579977,0.018519,0.031842,-0.146821,-39.272727,5.090909,7.551021
6727,314,-15.249264,-0.835576,-0.167594,10.874464,0.019052,0.031443,-0.146821,-39.272727,5.090909,7.551021
6748,315,-15.425221,-0.68953,-0.179565,10.55843,0.01279,0.027312,-0.116844,-32.818183,3.545454,8.77551
6770,316,-15.601174,-0.754173,-0.107739,10.702082,0.018519,0.03011,-0.137095,-32.818183,3.545454,8.77551
6791,317,-15.777127,-0.667982,-0.23942,10.496181,0.017187,0.032109,-0.145622,-32.818183,3.545454,8.77551
6813,318,-15.95308,-0.804452,-0.13647,10.802639,0.017986,0.029311,-0.134164,-35.727272,4.272727,6.938776
6834,319,-16.129032,-0.663194,-0.205901,10.54167,0.013989,0.029044,-0.119375,-35.727272,4.272727,6.938776
6856,320,-16.304985,-0.756568,-0.110133,10.809822,0.018786,0.034907,-0.140293,-35.727272,4.272727,6.938776
6877,321,-16.480937,-0.61531,-0.227449,10.465056,0.015988,0.03544,-0.132432,-35.727272,4.272727,6.938776
6899,322,-16.65689,-0.744597,-0.064643,10.845734,0.018919,0.031842,-0.133231,-41.090908,5.272727,5.204082
6920,323,-16.832843,-0.603339,-0.217872,10.486604,0.016787,0.036106,-0.14842,-41.090908,5.272727,5.204082
6942,324,-17.008796,-0.792481,-0.100556,10.879253,0.021184,0.031309,-0.149219,-41.090908,5.272727,5.204082
6963,325,-17.184749,-0.653617,-0.270545,10.433932,0.015455,0.024648,-0.133231,-48.181816,5.454545,3.77551
6985,326,-17.360702,-0.694318,-0.057461,11.243171,0.020384,0.023982,-0.140692,-48.181816,5.454545,3.77551
7006,327,-17.536655,-0.572214,-0.205901,10.307039,0.015988,0.031176,-0.136429,-48.181816,5.454545,3.77551
7028,328,-17.712608,-0.667982,-0.052672,11.147403,0.017986,0.027312,-0.135096,-40,2.909091,7.244898
7049,329,-17.888561,-0.548272,-0.215478,10.345346,0.010392,0.029311,-0.121107,-40,2.909091,7.244898
7071,330,-18.064514,-0.68953,-0.079009,11.140221,0.01772,0.02598,-0.132965,-40,2.909091,7.244898
7092,331,-18.240467,-0.536301,-0.217872,10.321404,0.015455,0.028245,-0.125637,-32.454544,1.545454,8.163266
7114,332,-18.416419,-0.715866,-0.055067,11.111491,0.016254,0.023582,-0.123239,-32.454544,1.545454,8.163266
7135,333,-18.592372,-0.517148,-0.198719,10.311827,0.009459,0.029311,-0.120841,-32.454544,1.545454,8.163266
7157,334,-18.768325,-0.727837,-0.071826,11.109096,0.015322,0.027845,-0.126303,-40.909091,3.363636,4.591837
7178,335,-18.944278,-0.533907,-0.179565,10.280702,0.011191,0.025447,-0.112447,-40.909091,3.363636,4.591837
7200,336,-19.120231,-0.591368,-0.050278,10.546459,0.01319,0.027712,-0.115511,-40.909091,3.363636,4.591837
7221,337,-19.296184,-0.471658,-0.222661,10.328587,0.015588,0.035706,-0.142557,-46.454544,4,3.77551
7243,338,-19.472141,-0.588974,-0.102951,10.587161,0.019052,0.031842,-0.14309,-46.454544,4,3.77551
7264,339,-19.648094,-0.555455,-0.186748,10.3645,0.011191,0.023715,-0.112447,-46.454544,4,3.77551
7286,340,-19.824047,-0.61531,-0.038307,10.714053,0.012923,0.025314,-0.115778,-46.454544,4,3.77551
7307,341,-20,-0.500388,-0.158017,10.398018,0.016387,0.033708,-0.13976,-48.727272,4,3.673469
7329,342,-20.175952,-0.603339,-0.102951,10.611103,0.016521,0.034507,-0.140959,-48.727272,4,3.673469
7350,343,-20.351905,-0.567426,-0.189142,10.390836,0.010925,0.030377,-0.120041,-48.727272,4,3.673469
7372,344,-20.527858,-0.636858,-0.035913,10.623073,0.016121,0.027312,-0.135763,-40.363636,1.545454,6.836735
7393,345,-20.703811,-0.545878,-0.227449,10.460268,0.021583,0.028511,-0.151617,-40.363636,1.545454,6.836735
7415,346,-20.879764,-0.636858,-0.093374,10.805033,0.020384,0.023848,-0.143757,-40.363636,1.545454,6.836735
7436,347,-21.055717,-0.605733,-0.141258,10.556035,0.011724,0.020118,-0.120974,-32.090908,-0.272727,8.061224
7458,348,-21.23167,-0.696713,-0.098162,10.943897,0.01279,0.027979,-0.138028,-32.090908,-0.272727,8.061224
7479,349,-21.407623,-0.612916,-0.179565,10.426749,0.007194,0.034107,-0.133498,-32.090908,-0.272727,8.061224
7501,350,-21.583576,-0.799663,-0.04549,11.070789,0.010925,0.032375,-0.124704,-40.727272,1.909091,4.285715
7522,351,-21.759529,-0.691924,-0.158017,10.608708,0.005329,0.031576,-0.122573,-40.727272,1.909091,4.285715
7544,352,-21.935482,-0.85473,-0.057461,11.159375,0.012124,0.035972,-0.147887,-40.727272,1.909091,4.285715
7565,353,-22.111434,-0.751779,-0.141258,10.726024,0.013323,0.040902,-0.153616,-47.727272,2.181818,2.755102
7587,354,-22.287387,-0.878672,-0.098162,10.931925,0.013456,0.038371,-0.142158,-47.727272,2.181818,2.755102
7608,355,-22.46334,-0.778116,-0.100556,10.668563,0.011325,0.033441,-0.137095,-47.727272,2.181818,2.755102
7630,356,-22.639293,-0.758962,-0.035913,10.795456,0.013989,0.03544,-0.149485,-39.181819,-0.363636,6.326531
7651,357,-22.815246,-0.78051,-0.112527,10.64941,0.012257,0.034773,-0.140026,-39.181819,-0.363636,6.326531
7673,358,-22.991199,-0.816423,-0.047884,10.817004,0.014522,0.036372,-0.131766,-39.181819,-0.363636,6.326531
7694,359,-23.167152,-0.742202,-0.11971,10.654198,0.010525,0.03091,-0.124838,-39.181819,-0.909091,8.163266
7716,360,-23.343105,-0.785298,-0.026336,10.795456,0.012524,0.031975,-0.129634,-36.636363,-0.909091,8.163266
7737,361,-23.519062,-0.78051,-0.174777,10.55843,0.009726,0.030643,-0.118709,-36.636363,-0.909091,8.163266
7759,362,-23.695014,-0.823605,-0.038307,10.896013,0.015588,0.034773,-0.149885,-36.636363,-0.909091,8.163266
7780,363,-23.870967,-0.739808,-0.220267,10.505758,0.015988,0.032242,-0.155614,-31.818181,-2.090909,7.551021
7802,364,-24.04692,-0.826,-0.100556,10.860099,0.014256,0.027979,-0.137628,-31.818181,-2.090909,7.551021
7823,365,-24.222869,-0.70629,-0.196325,10.445902,0.010126,0.030377,-0.132965,-31.818181,-2.090909,7.551021
7845,366,-24.398826,-0.806846,-0.033519,10.953474,0.024781,0.033175,-0.16121,-42.181816,-0.090909,3.265306
7866,367,-24.574775,-0.70629,-0.287304,10.39323,0.014522,0.027712,-0.146288,-42.181816,-0.090909,3.265306
7888,368,-24.750732,-0.730232,-0.067038,10.534488,0.013989,0.028778,-0.121107,-42.181816,-0.090909,3.265306
7909,369,-24.926681,-0.667982,-0.201113,10.314222,0.016787,0.033175,-0.146288,-47.090908,0.363636,1.938776
7931,370,-25.102638,-0.732626,-0.167594,10.599131,0.021184,0.031975,-0.162809,-47.090908,0.363636,1.938776
7952,371,-25.278587,-0.663194,-0.258574,10.275914,0.011325,0.026247,-0.130034,-47.090908,0.363636,1.938776
7974,372,-25.454544,-0.682347,-0.038307,10.527305,0.012124,0.033308,-0.123106,-38.272727,-2.363636,6.122449
7995,373,-25.6305,-0.6608,-0.179565,10.354923,0.016654,0.03464,-0.157746,-38.272727,-2.363636,6.122449
8017,374,-25.806449,-0.756568,-0.126893,10.534488,0.019985,0.032242,-0.156014,-38.272727,-2.363636,6.122449
8038,375,-25.982406,-0.667982,-0.189142,10.323799,0.012923,0.024781,-0.124438,-31.818181,-3.363636,7.653061
8060,376,-26.158355,-0.730232,-0.033519,10.5297,0.018386,0.035173,-0.145755,-31.818181,-3.363636,7.653061
8081,377,-26.334312,-0.687136,-0.304064,10.000581,0.015988,0.037704,-0.158678,-31.818181,-3.363636,7.653061
8103,378,-26.510261,-0.754173,-0.131681,10.656592,0.019452,0.028645,-0.143623,-33.090911,-3,6.428572
8124,379,-26.686218,-0.663194,-0.232238,10.014946,0.010259,0.032242,-0.124172,-33.090911,-3,6.428572
8146,380,-26.862167,-0.76375,-0.067038,10.577584,0.019985,0.036639,-0.152017,-33.090911,-3,6.428572
8167,381,-27.038124,-0.663194,-0.306458,10.010158,0.016787,0.036106,-0.151884,-33.090911,-3,6.428572
8189,382,-27.214073,-0.756568,-0.07422,10.560824,0.015588,0.026513,-0.125637,-38.454544,-2.545454,4.081633
8210,383,-27.390029,-0.64404,-0.227449,10.014946,0.009593,0.033441,-0.123905,-38.454544,-2.545454,4.081633
8232,384,-27.565979,-0.830788,-0.102951,10.618285,0.017453,0.03424,-0.142557,-38.454544,-2.545454,4.081633
8253,385,-27.741935,-0.629675,-0.217872,10.096349,0.012657,0.030243,-0.129634,-46.181819,-1.818182,1.836735
8275,386,-27.917884,-0.802058,-0.102951,10.747571,0.010792,0.022783,-0.114712,-46.181819,-1.818182,1.836735
8296,387,-28.093841,-0.567426,-0.253785,10.000581,0.016521,0.037305,-0.145622,-46.181819,-1.818182,1.836735
8318,388,-28.26979,-0.656011,-0.196325,10.338164,0.019585,0.03917,-0.161876,-38.454544,-3.909091,6.020408
8340,389,-28.445747,-0.567426,-0.268151,10.10832,0.016387,0.028911,-0.128568,-38.454544,-3.909091,6.020408
8361,390,-28.621696,-0.682347,-0.129287,10.388442,0.012524,0.031176,-0.135363,-38.454544,-3.909091,6.020408
8383,391,-28.797653,-0.584185,-0.205901,10.050859,0.020784,0.037172,-0.146554,-31,-5.181818,7.346939
8404,392,-28.973602,-0.68953,-0.141258,10.297462,0.007727,0.032775,-0.128035,-31,-5.181818,7.346939
8426,393,-29.149559,-0.64404,-0.143652,10.091561,0.014522,0.02638,-0.111781,-31,-5.181818,7.346939
8447,394,-29.325508,-0.737414,-0.1652,10.431537,0.014256,0.035706,-0.14802,-39.090911,-3.727273,3.061224
8469,395,-29.501464,-0.56982,-0.189142,10.038888,0.027179,0.035173,-0.149219,-39.090911,-3.727273,3.061224
8490,396,-29.677421,-0.73502,-0.160412,10.326192,0.006395,0.029977,-0.127236,-39.090911,-3.727273,3.061224
8511,397,-29.85337,-0.560243,-0.146046,9.981428,0.019052,0.033574,-0.130966,-42.363636,-3.818182,2.55102
8532,398,-30.029327,-0.751779,-0.13647,10.347741,0.015988,0.037438,-0.154149,-42.363636,-3.818182,2.55102
8554,399,-30.205276,-0.562637,-0.177171,10.012552,0.023182,0.034907,-0.134564,-42.363636,-3.818182,2.55102
8575,400,-30.381233,-0.723049,-0.150835,10.299857,0.006129,0.031842,-0.12204,-42.363636,-3.818182,2.55102
8597,401,-30.557182,-0.59855,-0.153229,10.007763,0.020518,0.037571,-0.143224,-46,-3.727273,1.530612
8618,402,-30.733139,-0.751779,-0.150835,10.424355,0.015588,0.036639,-0.146421,-46,-3.727273,1.530612
8640,403,-30.909088,-0.679953,-0.213084,9.993398,0.014655,0.03544,-0.119242,-46,-3.727273,1.530612
8661,404,-31.085044,-0.770933,-0.079009,10.412384,0.009459,0.032908,-0.124038,-37.090908,-5.909091,6.020408
8683,405,-31.260993,-0.632069,-0.13647,10.120291,0.02145,0.038904,-0.150152,-37.090908,-5.909091,6.020408
8704,406,-31.43695,-0.770933,-0.146046,10.347741,0.01732,0.038104,-0.146821,-37.090908,-5.909091,6.020408
8726,407,-31.612899,-0.675165,-0.186748,9.933544,0.01279,0.034507,-0.12244,-30.272727,-7,7.448979
8747,408,-31.788856,-0.837971,-0.11971,10.424355,0.010392,0.031975,-0.133498,-30.272727,-7,7.448979
8769,409,-31.964805,-0.682347,-0.208296,10.024523,0.020384,0.040236,-0.136828,-30.272727,-7,7.448979
8790,410,-32.140762,-0.814029,-0.09098,10.532094,0.011991,0.033841,-0.127236,-39,-5.636363,3.163265
8812,411,-32.316711,-0.708684,-0.177171,10.041282,0.012124,0.036505,-0.113913,-39,-5.636363,3.163265
8833,412,-32.492668,-0.847547,-0.112527,10.472239,0.013989,0.036505,-0.146288,-39,-5.636363,3.163265
8855,413,-32.668617,-0.663194,-0.21069,9.983821,0.023449,0.039969,-0.151084,-45.545455,-5.454545,1.428571
8876,414,-32.844573,-0.849942,-0.071826,10.5297,0.011724,0.031975,-0.129634,-45.545455,-5.454545,1.428571
8898,415,-33.020523,-0.696713,-0.220267,10.002975,0.016387,0.037172,-0.120841,-45.545455,-5.454545,1.428571
8919,416,-33.196479,-0.857124,-0.088585,10.635045,0.014389,0.036505,-0.149219,-41.181816,-6.909091,3.77551
8941,417,-33.372428,-0.667982,-0.203507,9.931149,0.029977,0.041835,-0.14309,-41.181816,-6.909091,3.77551
8962,418,-33.548385,-0.737414,-0.148441,10.297462,0.006795,0.036505,-0.127636,-41.181816,-6.909091,3.77551
8984,419,-33.724342,-0.665588,-0.148441,9.902419,0.020518,0.036905,-0.135763,-41.181816,-6.909091,3.77551
9005,420,-33.900291,-0.742202,-0.122104,10.357317,0.016787,0.038237,-0.144156,-36.636363,-8,6.122449
9027,421,-34.076248,-0.639252,-0.158017,10.01734,0.027046,0.037305,-0.123772,-36.636363,-8,6.122449
9048,422,-34.252197,-0.797269,-0.098162,10.347741,0.005862,0.039436,-0.125237,-36.636363,-8,6.122449
9070,423,-34.428153,-0.672771,-0.184354,9.916784,0.028378,0.041568,-0.1303,-30.272727,-8.727273,7.244898
9091,424,-34.604103,-0.828394,-0.105345,10.328587,0.009859,0.039836,-0.127769,-30.272727,-8.727273,7.244898
9113,425,-34.780059,-0.727837,-0.131681,10.038888,0.019985,0.035173,-0.120175,-30.272727,-8.727273,7.244898
9134,426,-34.956008,-0.864307,-0.071826,10.383653,0.01359,0.037438,-0.145489,-38.090908,-7.272727,3.367347
9156,427,-35.131965,-0.792481,-0.208296,10.043677,0.033441,0.043167,-0.134963,-38.090908,-7.272727,3.367347
9177,428,-35.307914,-0.869095,0,10.39323,0.008926,0.03957,-0.126436,-38.090908,-7.272727,3.367347
9199,429,-35.483871,-0.751779,-0.167594,10.038888,0.025714,0.041835,-0.124172,-44.727272,-7.090909,1.734694
9220,430,-35.65982,-0.933739,-0.07422,10.560824,0.013456,0.036372,-0.138827,-44.727272,-7.090909,1.734694
9242,431,-35.835777,-0.775721,-0.131681,10.144233,0.019985,0.037704,-0.118709,-44.727272,-7.090909,1.734694
9263,432,-36.011726,-0.993594,-0.02873,10.551247,0.005063,0.033308,-0.107118,-36.272727,-9.272727,5.918367
9285,433,-36.187683,-0.806846,-0.067038,10.168175,0.011591,0.038637,-0.115378,-36.272727,-9.272727,5.918367
9306,434,-36.363632,-1.053449,-0.016759,10.785879,0.011191,0.034773,-0.120175,-36.272727,-9.272727,5.918367
9328,435,-36.539588,-0.876278,-0.062249,10.335769,0.015588,0.040636,-0.096193,-30.181819,-10.090909,7.244898
9349,436,-36.715538,-1.022324,-0.052672,10.5297,-0.002931,0.046364,-0.114179,-30.181819,-10.090909,7.244898
9371,437,-36.891494,-0.933739,-0.086191,10.560824,0.020784,0.052093,-0.141758,-30.181819,-10.090909,7.244898
9392,438,-37.067443,-1.046266,-0.031125,10.55843,0.015055,0.054891,-0.150018,-30.181819,-10.090909,7.244898
9414,439,-37.2434,-0.931344,-0.055067,10.544065,0.017587,0.052626,-0.138427,-30.181819,-10.090909,7.244898
9435,440,-37.419349,-1.098939,0.016759,10.635045,0.013057,0.048629,-0.150285,-30.181819,-10.090909,7.244898
9457,441,-37.595306,-0.864307,-0.064643,10.539277,0.021983,0.041035,-0.162409,-30.181819,-10.090909,7.244898
9478,442,-37.771255,-1.034295,0.011971,10.737995,0.021583,0.044233,-0.166539,-34.909091,-9,3.77551
9500,443,-37.947212,-0.881066,-0.019154,10.553642,0.021317,0.040502,-0.13976,-34.909091,-9,3.77551
9521,444,-38.123168,-1.01993,0.014365,10.826581,0.01692,0.046364,-0.148953,-34.909091,-9,3.77551
9543,445,-38.299118,-0.842759,-0.055067,10.450691,0.026513,0.038104,-0.160544,-44,-8.636364,1.428571
9564,446,-38.475074,-1.012747,0.019154,10.699687,0.01772,0.041435,-0.15628,-44,-8.636364,1.428571
9586,447,-38.651023,-0.864307,0.031125,10.462662,0.024381,0.037438,-0.141225,-44,-8.636364,1.428571
9607,448,-38.82698,-1.106121,0.064643,10.759543,0.01772,0.042368,-0.157746,-35.545452,-11.090909,5.714286
9629,449,-39.002929,-0.828394,-0.02873,10.510546,0.027446,0.035972,-0.157346,-35.545452,-11.090909,5.714286
9650,450,-39.178886,-0.888249,0.023942,10.577584,0.014389,0.040769,-0.139626,-35.545452,-11.090909,5.714286
9672,451,-39.354835,-0.828394,-0.009577,10.462662,0.024115,0.035173,-0.142025,-28.454545,-11.909091,7.755102
9693,452,-39.530792,-0.926556,-0.04549,10.54167,0.017986,0.043966,-0.156014,-28.454545,-11.909091,7.755102
9715,453,-39.706741,-0.924162,0.016759,10.455479,0.027712,0.038237,-0.138161,-28.454545,-11.909091,7.755102
9736,454,-39.882698,-1.04866,0.047884,10.596737,0.013057,0.041168,-0.136162,-36.363636,-10.545454,2.755102
9758,455,-40.058647,-0.840365,-0.04549,10.326192,0.023182,0.034107,-0.138827,-36.363636,-10.545454,2.755102
9779,456,-40.234603,-1.036689,0.009577,10.608708,0.009593,0.037571,-0.133631,-36.363636,-10.545454,2.755102
9801,455,-40.058647,-0.861913,-0.014365,10.261548,0.021983,0.038637,-0.115645,-37.272727,-11.363637,4.183673
9822,454,-39.882698,-1.323994,0.43335,10.907983,-0.030243,-0.008527,0.16947,-37.272727,-11.363637,4.183673
9845,453,-39.706741,-1.491588,0.684742,11.484986,-0.083136,-0.031176,0.224228,-37.272727,-11.363637,4.183673
9866,452,-39.530792,-1.441309,0.385467,11.250354,-0.030377,-0.02558,0.090064,-37.272727,-11.363637,4.183673
9888,451,-39.354835,-1.345541,0.512359,11.346122,-0.008127,0.00493,0.140559,-42.545455,-10.363636,1.326531
9909,450,-39.178886,-1.288081,0.6608,11.259931,-0.05609,0.015188,0.173201,-42.545455,-10.363636,1.326531
9931,449,-39.002929,-1.525106,0.550666,11.343729,-0.036372,-0.013723,0.159744,-42.545455,-10.363636,1.326531
9952,448,-38.82698,-1.33357,0.565032,11.257536,-0.054891,-0.018386,0.147753,-36.636363,-10.090909,3.061224
9974,447,-38.651023,-1.407791,0.497994,11.592725,-0.047697,-0.002931,0.165473,-36.636363,-10.090909,3.061224
9995,446,-38.475074,-1.297657,0.622492,11.389218,-0.05276,0.001332,0.168671,-36.636363,-10.090909,3.061224
10017,445,-38.299118,-1.436521,0.56982,11.633426,-0.042634,-0.001998,0.171735,-28.90909,-11.181818,7.551021
10039,444,-38.123168,-1.25935,0.600945,11.305421,-0.057556,-0.006928,0.163208,-28.90909,-11.181818,7.551021
10061,443,-37.947212,-1.434127,0.493206,11.590331,-0.052227,-0.010792,0.16574,-28.90909,-11.181818,7.551021
10082,442,-37.771255,-1.223437,0.584185,11.353305,-0.062619,-0.006795,0.174,-34.454544,-10.818182,6.122449
10104,441,-37.595306,-1.290475,0.557849,11.587937,-0.046897,-0.004263,0.173334,-34.454544,-10.818182,6.122449
10125,440,-37.419349,-1.221043,0.476446,11.33894,-0.055557,0.006395,0.164807,-34.454544,-10.818182,6.122449
10147,439,-37.2434,-1.359907,0.447716,11.626244,-0.043034,0.004663,0.175332,-43.909091,-8.636364,1.326531
10168,438,-37.067443,-1.16837,0.548272,11.228806,-0.063951,0.000133,0.19172,-43.909091,-8.636364,1.326531
10191,437,-36.891494,-1.264138,0.500388,11.449073,-0.046231,0.003997,0.181994,-43.909091,-8.636364,1.326531
10212,436,-36.715538,-1.156399,0.454898,11.240777,-0.053959,0.007194,0.170669,-38.636363,-8.636364,3.061224
10234,435,-36.539588,-1.218649,0.509965,11.389218,-0.042101,0.008793,0.187057,-38.636363,-8.636364,3.061224
10255,434,-36.363632,-1.187524,0.517148,11.257536,-0.065283,0.007194,0.20411,-38.636363,-8.636364,3.061224
10277,433,-36.187683,-1.256956,0.517148,11.410766,-0.041435,0.006395,0.158012,-34.363636,-9,5.408164
10298,432,-36.011726,-1.244985,0.411803,11.295845,-0.033708,0.011325,0.108717,-34.363636,-9,5.408164
10320,431,-35.835777,-1.419762,0.418985,11.683705,-0.027712,0.011325,0.140426,-34.363636,-9,5.408164
10341,430,-35.65982,-1.292869,0.565032,11.566389,-0.049296,0.004796,0.164141,-34.363636,-9,5.408164
10363,429,-35.483871,-1.381454,0.572214,11.810598,-0.027046,0.004796,0.137761,-29.727273,-9.545454,7.755102
10384,428,-35.307914,-1.35033,0.507571,11.695675,-0.034507,0.010658,0.130034,-29.727273,-9.545454,7.755102
10406,427,-35.131965,-1.431733,0.54109,12.064383,-0.027712,0.007061,0.156014,-29.727273,-9.545454,7.755102
10427,426,-34.956008,-1.244985,0.509965,11.580754,-0.044233,0.008793,0.147753,-36.090911,-9,5.714286
10449,425,-34.780059,-1.534683,0.538695,11.96622,-0.026513,0.00373,0.147221,-36.090911,-9,5.714286
10471,424,-34.604103,-1.343147,0.526724,11.745954,-0.044499,0.007861,0.151217,-36.090911,-9,5.714286
10493,423,-34.428153,-1.355118,0.538695,11.903971,-0.033308,0.005063,0.166939,-44.909088,-7,1.632653
10514,422,-34.252197,-1.357512,0.517148,11.786656,-0.043567,0.010392,0.148686,-44.909088,-7,1.632653
10536,421,-34.076248,-1.393425,0.502782,11.868059,-0.025047,0.005729,0.140426,-44.909088,-7,1.632653
10557,420,-33.900291,-1.438915,0.529119,11.875241,-0.041302,0.010392,0.154282,-39.181819,-6.909091,3.367347
10579,419,-33.724342,-1.426944,0.538695,12.030864,-0.031709,0.006395,0.157879,-39.181819,-6.909091,3.367347
10600,418,-33.548385,-1.290475,0.521936,11.654974,-0.040236,0.008127,0.149619,-39.181819,-6.909091,3.367347
10622,417,-33.372428,-1.422156,0.550666,11.98298,-0.029178,0.007727,0.155081,-30.454545,-8.272728,7.755102
10644,416,-33.196479,-1.359907,0.550666,11.808203,-0.043966,0.006528,0.162809,-30.454545,-8.272728,7.755102
10665,415,-33.020523,-1.367089,0.505177,11.944673,-0.033841,0.005196,0.156547,-30.454545,-8.272728,7.755102
10687,414,-32.844573,-1.338359,0.550666,11.81778,-0.043567,0.008127,0.16041,-35.909088,-7.818182,6.122449
10708,413,-32.668617,-1.369483,0.517148,11.899183,-0.03464,0.005329,0.163741,-35.909088,-7.818182,6.122449
10731,412,-32.492668,-1.199495,0.505177,11.554418,-0.043966,0.007328,0.155081,-35.909088,-7.818182,6.122449
10752,411,-32.316711,-1.345541,0.43335,11.851299,-0.028511,0.007328,0.152017,-39.454547,-6.454545,4.693878
10774,410,-32.140762,-1.33357,0.507571,11.623849,-0.045565,0.007727,0.172534,-39.454547,-6.454545,4.693878
10795,409,-31.964805,-1.347936,0.459687,11.812992,-0.037038,0.00493,0.16987,-39.454547,-6.454545,4.693878
10817,408,-31.788856,-1.266533,0.438139,11.738771,-0.037038,0.009726,0.144556,-39.454547,-6.454545,4.693878
10838,407,-31.612899,-1.302446,0.399832,11.777079,-0.026646,0.008527,0.135363,-44.727272,-5.272727,2.040816
10860,406,-31.43695,-1.25935,0.407014,11.57836,-0.044899,0.008793,0.167072,-44.727272,-5.272727,2.040816
10881,405,-31.260993,-1.285686,0.438139,11.762713,-0.038104,0.010392,0.167871,-44.727272,-5.272727,2.040816
10903,404,-31.085044,-1.33357,0.497994,11.769896,-0.037571,0.010126,0.153616,-38.81818,-5.363636,3.77551
10924,403,-30.909088,-1.295263,0.421379,11.822568,-0.031842,0.00413,0.153882,-38.81818,-5.363636,3.77551
10947,402,-30.733139,-1.302446,0.476446,11.683705,-0.043567,0.009459,0.174,-38.81818,-5.363636,3.77551
10968,401,-30.557182,-1.381454,0.440533,11.901577,-0.035173,0.008127,0.153482,-31.363636,-6.727273,7.551021
10990,400,-30.381233,-1.288081,0.447716,11.741166,-0.035839,0.008127,0.145622,-31.363636,-6.727273,7.551021
11011,399,-30.205276,-1.276109,0.416591,11.793838,-0.031576,0.009326,0.157746,-31.363636,-6.727273,7.551021
11033,398,-30.029327,-1.283292,0.519542,11.702858,-0.043167,0.00906,0.175732,-36.909091,-6,6.122449
11054,397,-29.85337,-1.371878,0.423774,11.915943,-0.032508,0.008527,0.149752,-36.909091,-6,6.122449
11076,396,-29.677421,-1.30484,0.423774,11.65258,-0.037038,0.012524,0.151484,-36.909091,-6,6.122449
11097,395,-29.501464,-1.290475,0.40462,11.887212,-0.032242,0.007594,0.164407,-46,-3.636363,1.836735
11119,394,-29.325508,-1.261744,0.452504,11.554418,-0.043433,0.014123,0.170802,-46,-3.636363,1.836735
11140,393,-29.149559,-1.35033,0.395043,11.822568,-0.030377,0.013057,0.14802,-46,-3.636363,1.836735
11162,392,-28.973602,-1.25935,0.435745,11.714829,-0.038904,0.009593,0.162009,-40.363636,-3.545454,3.367347
11183,391,-28.797653,-1.206678,0.383072,11.741166,-0.033974,0.006795,0.167871,-40.363636,-3.545454,3.367347
11205,390,-28.621696,-1.266533,0.469264,11.733983,-0.036372,0.010392,0.150551,-40.363636,-3.545454,3.367347
11227,389,-28.445747,-1.276109,0.316035,11.743559,-0.027845,0.010658,0.137495,-38.090908,-4.272727,4.795918
11249,388,-28.26979,-1.235408,0.399832,11.528081,-0.040769,0.009593,0.171735,-38.090908,-4.272727,4.795918
11270,387,-28.093841,-1.254562,0.344765,11.743559,-0.037172,0.008926,0.170936,-38.090908,-4.272727,4.795918
11292,386,-27.917884,-1.21386,0.378284,11.542447,-0.039436,0.012257,0.155081,-38.090908,-4.272727,4.795918
11313,385,-27.741935,-1.211466,0.268151,11.60709,-0.032109,0.012391,0.155081,-32.363636,-4.909091,7.142858
11335,384,-27.565979,-1.192312,0.454898,11.499351,-0.044233,0.007461,0.180662,-32.363636,-4.909091,7.142858
11356,383,-27.390029,-1.285686,0.287304,11.573572,-0.033175,0.010925,0.142957,-32.363636,-4.909091,7.142858
11378,382,-27.214073,-1.175553,0.277727,11.420343,-0.032908,0.01359,0.127502,-38.909088,-3.909091,6.020408
11399,381,-27.038124,-1.125275,0.201113,11.540053,-0.032242,0.00906,0.152949,-38.909088,-3.909091,6.020408
11421,380,-26.862167,-1.082179,0.383072,11.224018,-0.0433,0.015721,0.175199,-38.909088,-3.909091,6.020408
11442,379,-26.686218,-1.209072,0.229843,11.372459,-0.033708,0.017853,0.151084,-46.545455,-1.727273,2.244898
11464,378,-26.510261,-1.204283,0.270545,11.405978,-0.039836,0.011191,0.155881,-46.545455,-1.727273,2.244898
11486,377,-26.334312,-1.161188,0.253785,11.176134,-0.03464,0.01279,0.166406,-46.545455,-1.727273,2.244898
11508,376,-26.158355,-1.127669,0.337582,11.305421,-0.044366,0.014789,0.169337,-40.636363,-2.181818,4.081633
11529,375,-25.982406,-1.197101,0.201113,11.341334,-0.033308,0.015322,0.151884,-40.636363,-2.181818,4.081633
11551,374,-25.806449,-1.089362,0.31364,11.200076,-0.042368,0.013057,0.171202,-40.636363,-2.181818,4.081633
11572,373,-25.6305,-1.156399,0.191536,11.298238,-0.038504,0.012257,0.17027,-32.272727,-3.727273,8.367347
11594,372,-25.454544,-1.180341,0.342371,11.372459,-0.039836,0.016254,0.160544,-32.272727,-3.727273,8.367347
11615,371,-25.278587,-1.115698,0.189142,11.068395,-0.032109,0.017054,0.153882,-32.272727,-3.727273,8.367347
11637,370,-25.102638,-1.118092,0.268151,11.233594,-0.043833,0.011991,0.177597,-38.090908,-2.727273,7.142858
11658,369,-24.926681,-1.211466,0.260968,11.427525,-0.036505,0.014789,0.16574,-38.090908,-2.727273,7.142858
11680,368,-24.750732,-1.146823,0.241814,11.092337,-0.037305,0.017853,0.153083,-38.090908,-2.727273,7.142858
11702,367,-24.574775,-1.173159,0.107739,11.224018,-0.030243,0.015322,0.155348,-40.181819,-1.636363,6.122449
11724,366,-24.398826,-1.142034,0.282516,11.204864,-0.044899,0.011458,0.185058,-40.181819,-1.636363,6.122449
11745,365,-24.222869,-1.173159,0.296881,11.137826,-0.036905,0.019985,0.16987,-40.181819,-1.636363,6.122449
11767,364,-24.04692,-1.015141,0.241814,11.022905,-0.038237,0.018253,0.148286,-40.181819,-1.636363,6.122449
11788,363,-23.870967,-0.995988,0.081403,11.003751,-0.032508,0.011191,0.154282,-46.454544,0.090909,3.163265
11810,362,-23.695014,-0.976834,0.241814,10.965444,-0.045565,0.007861,0.181727,-46.454544,0.090909,3.163265
11831,361,-23.519062,-1.074997,0.203507,11.101914,-0.035706,0.016121,0.166539,-46.454544,0.090909,3.163265
11853,360,-23.343105,-0.986411,0.184354,10.836157,-0.038504,0.016787,0.15255,-40,-0.181818,4.897959
11874,359,-23.167152,-1.041478,0.148441,11.109096,-0.03091,0.011191,0.154548,-40,-0.181818,4.897959
11896,358,-22.991199,-0.950498,0.272939,10.912772,-0.042368,0.009992,0.16947,-40,-0.181818,4.897959
11917,357,-22.815246,-1.031901,0.1652,11.080366,-0.032508,0.018519,0.151351,-32.545452,-1.727273,8.367347
11939,356,-22.639293,-0.969652,0.150835,10.896013,-0.036505,0.017054,0.141225,-32.545452,-1.727273,8.367347
11960,355,-22.46334,-0.984017,0.112527,10.941502,-0.031309,0.011991,0.144556,-32.545452,-1.727273,8.367347
11982,354,-22.287387,-0.969652,0.167594,11.013328,-0.041168,0.012524,0.175199,-38.727272,-0.909091,6.734694
12003,353,-22.111434,-1.000776,0.174777,11.013328,-0.037971,0.017453,0.177464,-38.727272,-0.909091,6.734694
12026,352,-21.935482,-0.92895,0.25618,10.876859,-0.041568,0.019319,0.171469,-38.727272,-0.909091,6.734694
12047,351,-21.759529,-1.005565,0.093374,11.106702,-0.034374,0.013989,0.154815,-47.909088,1.818182,2.959184
12069,350,-21.583576,-0.921768,0.217872,10.965444,-0.03917,0.010259,0.167605,-47.909088,1.818182,2.959184
12090,349,-21.407623,-1.039083,0.134075,11.109096,-0.036106,0.015855,0.175066,-47.909088,1.818182,2.959184
12112,348,-21.23167,-0.94571,0.174777,10.922348,-0.042501,0.018652,0.182926,-43.636363,1.818182,3.979592
12133,347,-21.055717,-0.988805,0.11971,10.979809,-0.037305,0.014922,0.173867,-43.636363,1.818182,3.979592
12155,346,-20.879764,-0.97444,0.169988,11.013328,-0.040636,0.009193,0.177198,-43.636363,1.818182,3.979592
12176,345,-20.703811,-0.984017,0.09098,11.094731,-0.038237,0.013989,0.177864,-43.636363,1.818182,3.979592
12198,344,-20.527858,-0.92895,0.229843,10.955867,-0.043567,0.016254,0.177997,-41.727272,1.818182,5.204082
12219,343,-20.351905,-1.022324,0.184354,11.221624,-0.030243,0.016254,0.154681,-41.727272,1.818182,5.204082
12241,342,-20.175952,-0.871489,0.282516,10.975021,-0.039836,0.00906,0.171335,-41.727272,1.818182,5.204082
12262,341,-20,-1.043872,0.184354,11.334152,-0.033574,0.014256,0.161743,-33.363636,0.181818,8.67347
12284,340,-19.824047,-0.876278,0.227449,11.022905,-0.036772,0.016121,0.153882,-33.363636,0.181818,8.67347
12305,339,-19.648094,-0.984017,0.107739,11.190499,-0.028911,0.017187,0.135096,-33.363636,0.181818,8.67347
12327,338,-19.472141,-0.897826,0.148441,11.00854,-0.037571,0.012124,0.157479,-39.272727,1.636363,7.551021
12348,337,-19.296184,-0.998382,0.155623,11.073184,-0.03424,0.013856,0.15628,-39.272727,1.636363,7.551021
12370,336,-19.120231,-0.969652,0.177171,11.161768,-0.035706,0.019985,0.150152,-39.272727,1.636363,7.551021
12391,335,-18.944278,-0.988805,0.069432,11.106702,-0.027579,0.018119,0.131632,-48,4.181818,3.469388
12413,334,-18.768325,-0.909797,0.13647,10.936714,-0.03544,0.012257,0.153616,-48,4.181818,3.469388
12434,333,-18.592372,-1.010353,0.138864,11.161768,-0.037838,0.013856,0.164008,-48,4.181818,3.469388
12456,332,-18.416419,-0.950498,0.189142,11.176134,-0.036106,0.02225,0.148153,-42.636363,4,5.306122
12477,331,-18.240467,-0.92895,0.026336,11.147403,-0.026247,0.021051,0.108184,-42.636363,4,5.306122
12499,330,-18.064514,-0.952892,0.031125,10.955867,-0.030643,0.00866,0.130167,-42.636363,4,5.306122
12520,329,-17.888561,-0.919373,-0.026336,11.068395,-0.03544,0.010259,0.147221,-33,1.545454,9.489796
12542,328,-17.712608,-0.890643,0.117316,11.066,-0.037438,0.02145,0.163608,-33,1.545454,9.489796
12564,327,-17.536655,-1.063026,0.047884,11.166557,-0.030643,0.024781,0.149219,-33,1.545454,9.489796
12585,326,-17.360702,-0.885855,0.150835,11.118673,-0.03544,0.016254,0.150418,-32.545452,1.454545,10.204082
12607,325,-17.184749,-0.969652,0.002394,11.094731,-0.032508,0.009992,0.137894,-32.545452,1.454545,10.204082
12628,324,-17.008796,-0.90022,0.064643,10.948685,-0.035972,0.009992,0.151351,-32.545452,1.454545,10.204082
12650,323,-16.832843,-0.926556,-0.107739,10.881648,-0.032375,0.020518,0.153482,-32.545452,1.454545,10.204082
12671,322,-16.65689,-0.895431,0.033519,10.924743,-0.036772,0.020118,0.167072,-36.181819,2.636363,8.57143
12693,321,-16.480937,-1.007959,0.021548,11.221624,-0.03877,0.013856,0.165074,-36.181819,2.636363,8.57143
12714,320,-16.304985,-0.864307,-0.004788,10.857706,-0.037838,0.01319,0.166539,-36.181819,2.636363,8.57143
12736,319,-16.129032,-0.924162,-0.093374,11.099519,-0.036905,0.014256,0.152017,-48.727272,6,3.979592
12757,318,-15.95308,-0.849942,-0.062249,10.654198,-0.029178,0.015188,0.149086,-48.727272,6,3.979592
12779,317,-15.777127,-0.869095,-0.150835,11.020511,-0.033574,0.019985,0.131632,-48.727272,6,3.979592
12800,316,-15.601174,-0.806846,-0.1652,10.884041,-0.037838,0.010792,0.133364,-43.81818,5.727273,5.918367
12822,315,-15.425221,-0.97444,-0.047884,10.936714,-0.040502,0.007727,0.131366,-43.81818,5.727273,5.918367
12843,314,-15.249264,-0.766144,-0.052672,10.800245,-0.044233,0.010792,0.133897,-43.81818,5.727273,5.918367
12865,313,-15.073311,-0.957681,-0.081403,11.056424,-0.043567,0.01732,0.135363,-33.090911,3.363636,9.897959
12886,312,-14.897358,-0.849942,-0.117316,10.805033,-0.041968,0.016254,0.136695,-33.090911,3.363636,9.897959
12908,311,-14.721405,-0.957681,-0.134075,10.948685,-0.046364,0.014922,0.13443,-33.090911,3.363636,9.897959
12929,310,-14.545453,-0.792481,-0.035913,10.872071,-0.044233,0.012524,0.129634,-38.636363,4.454545,8.57143
12951,309,-14.3695,-0.878672,-0.110133,10.886436,-0.037971,0.018253,0.125904,-38.636363,4.454545,8.57143
12972,308,-14.193547,-0.873884,-0.040701,10.879253,-0.037438,0.019718,0.120441,-38.636363,4.454545,8.57143
12994,307,-14.017594,-0.861913,-0.059855,10.907983,-0.055957,0.014655,0.111248,-44.636363,6.363636,6.530612
13015,306,-13.841641,-0.821211,-0.129287,10.848129,-0.049029,0.017986,0.107651,-44.636363,6.363636,6.530612
13037,305,-13.665688,-0.88346,-0.167594,10.919955,-0.050495,0.019452,0.101256,-44.636363,6.363636,6.530612
13058,304,-13.489735,-0.785298,-0.100556,10.714053,-0.036905,0.01772,0.097126,-44.636363,6.363636,6.530612
13080,303,-13.313782,-0.902614,-0.057461,11.058818,-0.046231,0.016387,0.090331,-48.909091,7.545455,5.102041
13101,302,-13.137829,-0.837971,-0.057461,10.793062,-0.041568,0.02185,0.084868,-48.909091,7.545455,5.102041
13123,301,-12.961876,-0.912191,-0.062249,11.044453,-0.026113,0.023182,0.082603,-48.909091,7.545455,5.102041
13144,300,-12.785923,-0.835576,-0.122104,10.845734,-0.031176,0.018919,0.077141,-42.636363,7.090909,6.632653
13166,299,-12.609971,-0.888249,-0.043096,10.876859,-0.022649,0.020917,0.072211,-42.636363,7.090909,6.632653
13188,298,-12.434018,-0.864307,-0.04549,10.919955,-0.025047,0.021717,0.066083,-42.636363,7.090909,6.632653
13210,297,-12.258065,-0.88346,-0.062249,10.979809,-0.018919,0.020518,0.057156,-33.181819,4.454545,10
13231,296,-12.082112,-0.85473,-0.047884,10.900801,-0.020384,0.021184,0.051161,-33.181819,4.454545,10
13253,295,-11.906159,-0.881066,-0.062249,10.970232,-0.014522,0.022116,0.045432,-33.181819,4.454545,10
13274,294,-11.730206,-0.804452,-0.07422,10.826581,-0.019052,0.021317,0.039436,-39.272727,5.363636,8.367347
13296,293,-11.554253,-0.857124,-0.031125,11.001358,-0.012257,0.021317,0.035173,-39.272727,5.363636,8.367347
13317,292,-11.3783,-0.833182,-0.093374,10.783485,-0.016254,0.023449,0.029577,-39.272727,5.363636,8.367347
13339,291,-11.202347,-0.849942,-0.019154,10.977416,-0.010392,0.023848,0.027179,-48.727272,8.272728,5.102041
13360,290,-11.026391,-0.849942,-0.071826,10.896013,-0.015055,0.022916,0.025314,-48.727272,8.272728,5.102041
13382,289,-10.850438,-0.869095,-0.11971,11.252748,-0.0441,0.037038,0.08327,-48.727272,8.272728,5.102041
13403,288,-10.674485,-0.639252,0.050278,10.673352,-0.046897,0.0429,0.130034,-43.090908,7.545455,6.632653
13425,287,-10.498532,-0.802058,0.069432,11.403583,-0.051294,0.031842,0.155747,-43.090908,7.545455,6.632653
13446,286,-10.322579,-0.907402,-0.09098,10.78109,-0.051427,0.019185,0.156547,-43.090908,7.545455,6.632653
13468,285,-10.146626,-0.938527,-0.007183,11.212047,-0.040902,0.025314,0.151884,-40.727272,7.363636,6.938776
13489,284,-9.970673,-0.885855,-0.126893,10.922348,-0.050628,0.027579,0.127502,-40.727272,7.363636,6.938776
13511,283,-9.79472,-0.912191,-0.040701,11.176134,-0.032375,0.032775,0.113779,-40.727272,7.363636,6.938776
13532,282,-9.618767,-0.785298,-0.050278,10.927137,-0.032775,0.021184,0.101389,-40.727272,7.363636,6.938776
13554,281,-9.442814,-0.758962,0.026336,11.386824,-0.021051,0.023715,0.103254,-34.363636,5.727273,9.489796
13575,280,-9.266861,-0.656011,-0.052672,10.893618,-0.031576,0.02638,0.091397,-34.363636,5.727273,9.489796
13597,279,-9.090909,-0.646434,0.19393,11.762713,-0.021317,0.037971,0.093528,-34.363636,5.727273,9.489796
13618,278,-8.914956,-0.390255,0.031125,10.812215,-0.033708,0.034773,0.086467,-40.454544,6.818182,8.367347
13640,277,-8.739003,-0.526724,0.229843,11.700464,-0.021983,0.045565,0.091663,-40.454544,6.818182,8.367347
13661,276,-8.56305,-0.265756,0.11971,10.852917,-0.037838,0.040769,0.09113,-40.454544,6.818182,8.367347
13683,275,-8.387097,-0.533907,0.248997,11.540053,-0.031176,0.057023,0.10392,-48.818183,9.545454,5.102041
13704,274,-8.211144,-0.270545,0.047884,10.812215,-0.047963,0.044899,0.106452,-48.818183,9.545454,5.102041
13726,273,-8.035191,-0.454898,0.23942,11.700464,-0.032508,0.049162,0.120841,-48.818183,9.545454,5.102041
13746,272,-7.859238,-0.416591,0.057461,10.996569,-0.048496,0.036905,0.122706,-42.909091,9,6.428572
13768,271,-7.683285,-0.64404,0.201113,11.571177,-0.033175,0.037038,0.142691,-42.909091,9,6.428572
13789,270,-7.507332,-0.691924,0.004788,11.123461,-0.053825,0.031309,0.140559,-42.909091,9,6.428572
13811,269,-7.331379,-0.785298,0.093374,11.422737,-0.038904,0.035173,0.147487,-33.181819,6.545454,10.204082
13832,268,-7.155426,-0.730232,-0.04549,11.121068,-0.050361,0.033175,0.13976,-33.181819,6.545454,10.204082
13854,267,-6.979469,-0.864307,0.026336,11.257536,-0.039836,0.033175,0.147487,-33.181819,6.545454,10.204082
13875,266,-6.803516,-0.782904,-0.055067,11.046847,-0.0433,0.031576,0.135629,-33.181819,6.909091,10.816328
13897,265,-6.627563,-0.957681,-0.038307,11.252748,-0.038371,0.022649,0.149752,-33.181819,6.909091,10.816328
13918,264,-6.451611,-0.876278,-0.016759,11.18571,-0.03877,0.020784,0.154548,-33.181819,6.909091,10.816328
13940,263,-6.275658,-1.024718,-0.050278,11.274296,-0.036505,0.018652,0.16574,-33.181819,6.909091,10.816328
13961,262,-6.099705,-0.914585,-0.031125,11.097126,-0.035573,0.019185,0.157746,-36.090911,7.909091,9.387756
13983,261,-5.923752,-1.084573,-0.067038,11.164163,-0.038637,0.019718,0.159211,-36.090911,7.909091,9.387756
14004,260,-5.747799,-0.907402,-0.055067,10.994174,-0.036505,0.019052,0.152949,-36.090911,7.909091,9.387756
14026,259,-5.571846,-1.055843,-0.083797,11.190499,-0.035306,0.01772,0.154548,-48.909091,11.545455,5.408164
14047,258,-5.395893,-0.952892,-0.052672,11.039665,-0.037571,0.019452,0.15215,-48.909091,11.545455,5.408164
14070,257,-5.21994,-1.063026,-0.052672,11.099519,-0.032775,0.020118,0.162409,-48.909091,11.545455,5.408164
14091,256,-5.043987,-0.94571,-0.050278,10.998963,-0.034107,0.018386,0.15255,-44.090908,11,6.734694
14113,255,-4.868034,-1.122881,-0.076614,11.348517,-0.03051,0.018519,0.146821,-44.090908,11,6.734694
14134,254,-4.692081,-0.995988,-0.035913,11.140221,-0.032242,0.016654,0.146554,-44.090908,11,6.734694
14156,253,-4.516129,-1.084573,0.002394,11.08276,-0.033708,0.019185,0.155481,-32.909091,8.454546,10.306122
14177,252,-4.340176,-0.984017,-0.026336,11.042058,-0.031443,0.023715,0.13936,-32.909091,8.454546,10.306122
14199,251,-4.164223,-1.120486,-0.098162,11.154586,-0.034107,0.014389,0.147087,-32.909091,8.454546,10.306122
14220,250,-3.98827,-0.94571,-0.050278,11.094731,-0.037172,0.012124,0.16987,-38.909088,9.909091,9.081633
14242,249,-3.812317,-1.072602,-0.026336,11.00854,-0.036505,0.018919,0.180795,-38.909088,9.909091,9.081633
14263,248,-3.636364,-0.998382,-0.023942,11.034876,-0.031842,0.025314,0.147087,-38.909088,9.909091,9.081633
14285,247,-3.460411,-1.098939,-0.023942,10.991781,-0.026779,0.017587,0.138694,-47,12.727272,7.448979
14306,246,-3.284458,-0.938527,-0.033519,11.061212,-0.033175,0.010925,0.15255,-47,12.727272,7.448979
14328,245,-3.108505,-1.000776,-0.114922,11.085154,-0.037172,0.018519,0.163475,-47,12.727272,7.448979
14349,244,-2.932548,-0.97444,-0.038307,10.965444,-0.026113,0.026247,0.152949,-47,12.727272,7.448979
14371,243,-2.756596,-1.098939,-0.067038,11.192893,-0.032775,0.012524,0.157479,-50,13.818182,5.816327
14392,242,-2.580643,-0.967257,-0.007183,11.068395,-0.033175,0.012257,0.160277,-50,13.818182,5.816327
14414,241,-2.40469,-1.043872,-0.062249,11.089942,-0.031176,0.019452,0.149619,-50,13.818182,5.816327
14435,240,-2.228737,-0.979228,-0.035913,10.991781,-0.030377,0.019985,0.144689,-43.272727,12.727272,7.346939
14457,239,-2.052784,-1.067814,-0.02873,11.080366,-0.032375,0.014522,0.165606,-43.272727,12.727272,7.346939
14478,238,-1.876831,-0.916979,-0.019154,11.046847,-0.034374,0.017853,0.155881,-43.272727,12.727272,7.346939
14500,237,-1.700878,-1.077391,-0.019154,11.051635,-0.031043,0.021983,0.140959,-33,10.272727,10.204082
14521,236,-1.524925,-0.948104,-0.052672,10.986992,-0.031842,0.018386,0.137495,-33,10.272727,10.204082
14543,235,-1.348972,-0.984017,-0.069432,11.094731,-0.03957,0.015721,0.166806,-33,10.272727,10.204082
14564,234,-1.173019,-0.936133,-0.055067,11.042058,-0.036106,0.024381,0.158812,-38.909088,11.727273,9.489796
14586,233,-0.997066,-1.039083,-0.079009,11.17374,-0.035706,0.02185,0.151484,-38.909088,11.727273,9.489796
14607,232,-0.821114,-0.967257,-0.014365,11.061212,-0.031576,0.017587,0.149352,-38.909088,11.727273,9.489796
14629,231,-0.645161,-1.051055,-0.102951,11.063607,-0.033974,0.017054,0.156413,-49.272727,15.545455,6.326531
14651,230,-0.469208,-0.905008,0.004788,10.994174,-0.033308,0.02185,0.150951,-49.272727,15.545455,6.326531
14673,229,-0.293255,-1.063026,-0.09098,11.044453,-0.034507,0.02185,0.153882,-49.272727,15.545455,6.326531
14694,228,-0.117302,-0.914585,-0.047884,11.032482,-0.032508,0.020251,0.141358,-43,14.545454,7.448979
14716,227,0.058651,-1.058237,-0.095768,11.006146,-0.030643,0.020784,0.134297,-43,14.545454,7.448979
14737,226,0.234604,-0.969652,-0.067038,11.013328,-0.031842,0.018786,0.142424,-43,14.545454,7.448979
14759,225,0.410557,-1.007959,-0.107739,11.08276,-0.040502,0.019185,0.176132,-39.545455,13.363637,8.163266
14780,224,0.58651,-0.969652,-0.023942,10.991781,-0.035972,0.023449,0.158545,-39.545455,13.363637,8.163266
14802,223,0.762463,-1.04866,-0.083797,11.094731,-0.036505,0.022516,0.146554,-39.545455,13.363637,8.163266
14823,222,0.938416,-1.031901,-0.02873,11.077972,-0.035839,0.019985,0.159211,-39.545455,13.363637,8.163266
14845,221,1.114372,-1.022324,-0.059855,11.111491,-0.041302,0.019718,0.174266,-33.818183,12.454546,10.204082
14866,220,1.290325,-0.924162,-0.021548,10.984598,-0.040902,0.026513,0.145089,-33.818183,12.454546,10.204082
14888,219,1.466278,-1.01993,-0.076614,11.073184,-0.044766,0.030776,0.149352,-33.818183,12.454546,10.204082
14909,218,1.642231,-0.948104,0.002394,11.061212,-0.050761,0.028645,0.171602,-40.727272,14,9.387756
14931,217,1.818184,-1.043872,-0.043096,11.034876,-0.053959,0.031842,0.17813,-40.727272,14,9.387756
14952,216,1.994137,-0.976834,-0.055067,10.907983,-0.051427,0.037038,0.140026,-40.727272,14,9.387756
14974,215,2.17009,-1.01993,-0.179565,11.212047,-0.048896,0.031975,0.144956,-49.181819,17.636363,6.530612
14996,214,2.346043,-0.984017,-0.059855,10.951079,-0.04783,0.027179,0.169337,-49.181819,17.636363,6.530612
15017,213,2.521996,-1.000776,-0.148441,11.085154,-0.046631,0.025714,0.168937,-49.181819,17.636363,6.530612
15039,212,2.697948,-0.972046,-0.095768,10.922348,-0.040236,0.025447,0.14802,-42.636363,16.454545,7.653061
15060,211,2.873901,-1.024718,-0.158017,11.135433,-0.045165,0.023715,0.157213,-42.636363,16.454545,7.653061
15082,210,3.049854,-0.986411,-0.04549,10.977416,-0.038371,0.023848,0.164407,-42.636363,16.454545,7.653061
15103,209,3.225807,-0.986411,-0.134075,10.984598,-0.043433,0.021317,0.168404,-32.454544,13.454546,10.918368
15125,208,3.40176,-0.995988,-0.059855,10.994174,-0.036505,0.023848,0.153616,-32.454544,13.454546,10.918368
15146,207,3.577713,-1.039083,-0.098162,10.927137,-0.034374,0.02638,0.164541,-32.454544,13.454546,10.918368
15168,206,3.753666,-0.933739,-0.062249,10.960656,-0.033841,0.023715,0.154681,-37.090908,15.000001,10
15189,205,3.929619,-0.957681,-0.158017,10.953474,-0.040769,0.023182,0.149619,-37.090908,15.000001,10
15211,204,4.105572,-0.964863,-0.112527,10.881648,-0.036106,0.019585,0.149885,-37.090908,15.000001,10
15232,203,4.281525,-0.991199,-0.196325,10.879253,-0.043034,0.022783,0.16041,-37.090908,15.000001,10
15254,202,4.457478,-0.916979,-0.11971,10.778697,-0.038637,0.02638,0.143757,-38.81818,15.909091,9.693878
15276,201,4.63343,-0.969652,-0.222661,10.943897,-0.045698,0.026779,0.140159,-38.81818,15.909091,9.693878
15298,200,4.809383,-0.936133,-0.141258,10.776302,-0.040103,0.025447,0.153749,-38.81818,15.909091,9.693878
15319,199,4.985336,-0.926556,-0.150835,10.94629,-0.048096,0.028112,0.160011,-49.181819,19.454544,6.428572
15341,198,5.161289,-0.921768,-0.143652,10.711659,-0.043966,0.029444,0.14349,-49.181819,19.454544,6.428572
15362,197,5.337246,-0.955286,-0.196325,10.989386,-0.049962,0.03051,0.140559,-49.181819,19.454544,6.428572
15384,196,5.513199,-0.919373,-0.198719,10.771513,-0.046098,0.031975,0.143623,-42.272727,18.545454,7.448979
15405,195,5.689152,-0.919373,-0.260968,11.130644,-0.053825,0.033041,0.13896,-42.272727,18.545454,7.448979
15427,194,5.865105,-0.938527,-0.220267,10.757148,-0.048629,0.035706,0.133498,-42.272727,18.545454,7.448979
15448,193,6.041058,-0.914585,-0.268151,11.113884,-0.05156,0.033974,0.129501,-32.272727,15.363637,10.816328
15470,192,6.21701,-0.881066,-0.251391,10.907983,-0.046897,0.035972,0.127636,-32.272727,15.363637,10.816328
15491,191,6.392963,-0.873884,-0.232238,11.17374,-0.047297,0.035839,0.115378,-32.272727,15.363637,10.816328
15513,190,6.568916,-0.785298,-0.361524,10.941502,-0.048496,0.03464,0.103521,-38.727272,17.090909,9.693878
15534,189,6.744869,-0.921768,-0.253785,11.29345,-0.045165,0.038237,0.103254,-38.727272,17.090909,9.693878
15556,188,6.920822,-0.837971,-0.339977,10.965444,-0.046231,0.03544,0.110449,-38.727272,17.090909,9.693878
15577,187,7.096775,-0.842759,-0.40462,11.212047,-0.047031,0.032642,0.115378,-49.545455,21.090908,6.428572
15599,186,7.272728,-0.888249,-0.339977,10.958262,-0.042767,0.035706,0.122706,-49.545455,21.090908,6.428572
15620,185,7.448681,-0.861913,-0.361524,11.252748,-0.049296,0.033441,0.136828,-49.545455,21.090908,6.428572
15642,184,7.624634,-0.888249,-0.332794,10.903195,-0.045965,0.03544,0.144156,-48.545455,21.454545,6.326531
15663,183,7.800587,-0.85473,-0.318429,11.331757,-0.049562,0.037038,0.151884,-48.545455,21.454545,6.326531
15685,182,7.97654,-0.885855,-0.337582,10.915166,-0.047297,0.035706,0.156147,-48.545455,21.454545,6.326531
15706,181,8.152493,-0.866701,-0.31364,11.145009,-0.043433,0.035306,0.155214,-48.545455,21.454545,6.326531
15728,180,8.328448,-0.797269,-0.301669,10.800245,-0.045432,0.033041,0.143623,-45.636363,21.090908,7.346939
15749,179,8.504401,-0.897826,-0.31364,11.314998,-0.039969,0.037971,0.137761,-45.636363,21.090908,7.346939
15771,178,8.680354,-0.835576,-0.371101,10.773908,-0.042501,0.033308,0.133897,-45.636363,21.090908,7.346939
15792,177,8.856307,-0.938527,-0.349553,11.29345,-0.037038,0.034907,0.13523,-31.636363,16.909091,10.918368
15814,176,9.032259,-0.821211,-0.399832,10.826581,-0.038637,0.029311,0.128168,-31.636363,16.909091,10.918368
15835,175,9.208212,-0.73502,-0.418985,11.15698,-0.036639,0.026247,0.124838,-31.636363,16.909091,10.918368
15858,174,9.384165,-0.830788,-0.402226,10.833764,-0.035972,0.023315,0.130567,-37.090908,18.454545,10.204082
15879,173,9.560118,-0.725443,-0.380678,11.166557,-0.033974,0.023315,0.131499,-37.090908,18.454545,10.204082
15901,172,9.736071,-0.751779,-0.426168,10.879253,-0.040369,0.022916,0.128835,-37.090908,18.454545,10.204082
15922,171,9.912024,-0.651223,-0.371101,11.066,-0.037305,0.02185,0.136296,-49.181819,22.818181,6.530612
15944,170,10.087977,-0.792481,-0.383072,10.793062,-0.035839,0.019319,0.132165,-49.181819,22.818181,6.530612
15965,169,10.26393,-0.878672,-0.373495,10.668563,-0.039303,0.014256,0.146155,-49.181819,22.818181,6.530612
15987,168,10.439885,-0.924162,-0.328006,10.785879,-0.037305,0.014522,0.151084,-42.636363,22,7.857143
16008,167,10.615838,-0.981623,-0.435745,10.728418,-0.040769,0.014522,0.163874,-42.636363,22,7.857143
16030,166,10.79179,-0.962469,-0.354342,10.704476,-0.037305,0.015588,0.153482,-42.636363,22,7.857143
16051,165,10.967743,-0.995988,-0.395043,10.805033,-0.037438,0.009992,0.153083,-31.545454,18.363636,10.306122
16073,164,11.143696,-1.120486,-0.383072,10.907983,-0.037172,0.011724,0.155348,-31.545454,18.363636,10.306122
16094,163,11.319649,-1.010353,-0.416591,10.802639,-0.03957,0.017587,0.163608,-31.545454,18.363636,10.306122
16117,162,11.495602,-1.079785,-0.347159,10.857706,-0.036372,0.01692,0.158678,-31.545454,18.272727,11.734695
16138,161,11.671555,-1.120486,-0.395043,10.828975,-0.039969,0.013456,0.16041,-30.181819,18.272727,11.734695
16160,160,11.847508,-1.106121,-0.380678,10.845734,-0.037438,0.010792,0.147487,-30.181819,18.272727,11.734695
16181,159,12.023461,-1.04866,-0.459687,10.869676,-0.039836,0.013856,0.151884,-30.181819,18.272727,11.734695
16203,158,12.199414,-1.063026,-0.371101,10.817004,-0.037704,0.011724,0.161476,-34.545455,19.818181,10.306122
16224,157,12.375369,-1.175553,-0.466869,10.790668,-0.037305,0.016254,0.168271,-34.545455,19.818181,10.306122
16246,156,12.551321,-1.043872,-0.373495,10.81461,-0.034507,0.016787,0.141492,-34.545455,19.818181,10.306122
16268,155,12.727274,-1.070208,-0.454898,10.805033,-0.039703,0.012257,0.144289,-49,25,6.326531
16289,154,12.903227,-1.096544,-0.354342,10.850522,-0.037971,0.010925,0.163475,-49,25,6.326531
16310,153,13.07918,-1.055843,-0.392649,10.79785,-0.041568,0.015988,0.162276,-49,25,6.326531
16332,152,13.255133,-1.098939,-0.361524,10.862494,-0.029577,0.016254,0.121107,-43.090908,23.818181,7.244898
16354,151,13.431086,-1.175553,-0.529119,10.84334,-0.036639,0.011058,0.130167,-43.090908,23.818181,7.244898
16376,150,13.607039,-1.043872,-0.349553,10.857706,-0.03957,0.010525,0.172002,-43.090908,23.818181,7.244898
16397,149,13.782992,-1.11091,-0.395043,10.867282,-0.045832,0.014655,0.177198,-30.090909,19.545455,10.612245
16419,148,13.958945,-1.16837,-0.339977,10.84334,-0.034507,0.015055,0.139227,-30.090909,19.545455,10.612245
16440,147,14.134898,-1.041478,-0.474052,10.831369,-0.0433,0.009593,0.148286,-30.090909,19.545455,10.612245
16462,146,14.310851,-1.106121,-0.390255,10.88883,-0.036772,0.012124,0.162942,-36.636363,21.636363,9.795919
16483,145,14.486805,-1.192312,-0.428562,10.869676,-0.041035,0.016387,0.153749,-36.636363,21.636363,9.795919
16505,144,14.662758,-1.039083,-0.40462,10.984598,-0.032642,0.015988,0.136695,-36.636363,21.636363,9.795919
16526,143,14.838711,-1.086968,-0.442927,10.778697,-0.040369,0.011724,0.14762,-47.363636,25.90909,7.448979
16548,142,15.014664,-1.170765,-0.414197,10.862494,-0.034374,0.014655,0.144556,-47.363636,25.90909,7.448979
16570,141,15.190617,-1.036689,-0.418985,10.711659,-0.042234,0.014522,0.151884,-47.363636,25.90909,7.448979
16592,140,15.36657,-1.127669,-0.373495,10.824187,-0.035706,0.012257,0.153216,-47.363636,25.90909,7.448979
16613,139,15.542523,-1.170765,-0.418985,10.857706,-0.044499,0.012391,0.162409,-49.545455,27.090909,5.918367
16635,138,15.718476,-1.067814,-0.328006,10.860099,-0.032908,0.016387,0.145622,-49.545455,27.090909,5.918367
16656,137,15.894429,-1.120486,-0.438139,10.745178,-0.045832,0.014789,0.15628,-49.545455,27.090909,5.918367
16678,136,16.070381,-1.005565,-0.316035,10.845734,-0.037571,0.01319,0.169204,-43.454544,25.727272,7.346939
16699,135,16.246334,-1.007959,-0.462081,10.800245,-0.046764,0.016787,0.180795,-43.454544,25.727272,7.346939
16721,134,16.422286,-1.077391,-0.337582,10.793062,-0.037438,0.014256,0.157613,-43.454544,25.727272,7.346939
16742,133,16.598241,-0.967257,-0.440533,10.776302,-0.04823,0.009593,0.166273,-29.272726,21.363636,10.918368
16764,132,16.774194,-1.070208,-0.387861,10.757148,-0.038104,0.01359,0.169737,-29.272726,21.363636,10.918368
16785,131,16.950147,-1.122881,-0.416591,10.740389,-0.043034,0.014789,0.156014,-29.272726,21.363636,10.918368
16808,130,17.1261,-1.16837,-0.399832,10.845734,-0.037438,0.013456,0.154415,-35.545452,23.363636,9.795919
16829,129,17.302053,-1.036689,-0.442927,10.793062,-0.048496,0.011058,0.17853,-35.545452,23.363636,9.795919
16851,128,17.478006,-1.137246,-0.351948,10.833764,-0.034773,0.020784,0.152017,-35.545452,23.363636,9.795919
16872,127,17.653959,-1.165976,-0.469264,10.84334,-0.043567,0.013856,0.134697,-48.181816,28.090909,6.530612
16894,126,17.829912,-1.06542,-0.387861,10.824187,-0.035573,0.011991,0.158545,-48.181816,28.090909,6.530612
16916,125,18.005865,-1.11091,-0.459687,10.790668,-0.049296,0.015322,0.181994,-48.181816,28.090909,6.530612
16937,124,18.181818,-1.177947,-0.373495,10.91756,-0.033841,0.018386,0.152417,-41.272727,26.727273,7.653061
16959,123,18.35777,-0.962469,-0.507571,10.737995,-0.048496,0.010126,0.158145,-41.272727,26.727273,7.653061
16980,122,18.533725,-1.084573,-0.344765,10.860099,-0.039436,0.012391,0.180129,-41.272727,26.727273,7.653061
17002,121,18.709678,-0.948104,-0.402226,10.845734,-0.049029,0.015322,0.173734,-31.272727,23.545454,10.102042
17024,120,18.885631,-1.043872,-0.325611,10.838552,-0.033441,0.013989,0.13976,-31.272727,23.545454,10.102042
17046,119,19.061584,-1.098939,-0.500388,10.716447,-0.045698,0.009726,0.154015,-31.272727,23.545454,10.102042
17067,118,19.237537,-1.142034,-0.371101,10.857706,-0.038104,0.014522,0.170403,-31.272727,23.545454,10.102042
17089,117,19.41349,-1.012747,-0.435745,10.764331,-0.047963,0.015588,0.166806,-27.454545,22.454544,11.632654
17110,116,19.589443,-1.11091,-0.392649,10.742783,-0.037305,0.019718,0.150285,-27.454545,22.454544,11.632654
17132,115,19.765396,-1.122881,-0.416591,10.75236,-0.044632,0.013723,0.171335,-27.454545,22.454544,11.632654
17153,114,19.941349,-1.211466,-0.399832,10.867282,-0.035706,0.018253,0.158012,-33.363636,24.727272,10
17176,113,20.117301,-1.070208,-0.507571,10.735601,-0.047031,0.015322,0.156547,-33.363636,24.727272,10
17197,112,20.293254,-1.079785,-0.373495,10.764331,-0.035972,0.017986,0.157213,-33.363636,24.727272,10
17219,111,20.469207,-1.206678,-0.471658,10.766725,-0.045299,0.015188,0.175998,-47.454544,30.090909,6.938776
17240,110,20.645162,-1.082179,-0.363919,10.757148,-0.035573,0.019851,0.154681,-47.454544,30.090909,6.938776
17262,109,20.821115,-1.125275,-0.488417,10.828975,-0.047963,0.01319,0.15628,-47.454544,30.090909,6.938776
17283,108,20.997068,-1.199495,-0.337582,10.896013,-0.033175,0.014123,0.164674,-41.272727,28.545454,7.755102
17305,107,21.173021,-1.089362,-0.519542,10.721236,-0.055424,0.017853,0.178796,-41.272727,28.545454,7.755102
17326,106,21.348974,-1.211466,-0.383072,10.824187,-0.03051,0.023315,0.145489,-41.272727,28.545454,7.755102
17348,105,21.524927,-1.271321,-0.577003,10.94629,-0.05196,0.011858,0.163342,-27.545455,24.181818,10.918368
17370,104,21.70088,-1.125275,-0.418985,10.900801,-0.033974,0.018253,0.178663,-27.545455,24.181818,10.918368
17392,103,21.876832,-1.292869,-0.543484,10.936714,-0.052093,0.023182,0.171069,-27.545455,24.181818,10.918368
17413,102,22.052785,-1.326388,-0.442927,11.061212,-0.035306,0.021051,0.157879,-34.363636,26.181816,10.102042
17435,101,22.228738,-1.321599,-0.581791,10.927137,-0.051028,0.01772,0.182926,-34.363636,26.181816,10.102042
17456,100,22.404691,-1.300052,-0.440533,10.982204,-0.038637,0.023982,0.197449,-34.363636,26.181816,10.102042
17478,99,22.580644,-1.441309,-0.550666,11.030088,-0.054492,0.024381,0.179729,-46.636363,31.181818,7.857143
17499,98,22.756599,-1.338359,-0.497994,11.05403,-0.035306,0.01692,0.166006,-46.636363,31.181818,7.857143
17521,97,22.932552,-1.37906,-0.548272,11.027693,-0.048496,0.016787,0.183593,-46.636363,31.181818,7.857143
17542,96,23.108505,-1.33357,-0.45011,11.032482,-0.038237,0.023982,0.179995,-46.636363,31.181818,7.857143
17564,95,23.284458,-1.321599,-0.579397,10.922348,-0.050361,0.02185,0.164807,-46.636363,31.181818,7.857143
17585,94,23.460411,-1.316811,-0.509965,11.010934,-0.031576,0.013323,0.165074,-46.636363,31.181818,7.857143
17607,93,23.636363,-1.194707,-0.538695,10.915166,-0.050095,0.017453,0.185991,-46.636363,31.181818,7.857143
17629,92,23.812316,-1.244985,-0.466869,10.93432,-0.036639,0.027046,0.16987,-41.454544,30.545455,7.857143
17651,91,23.988269,-1.367089,-0.629675,11.018116,-0.051161,0.01692,0.160943,-41.454544,30.545455,7.857143
17672,90,24.164222,-1.204283,-0.457293,10.955867,-0.031309,0.014789,0.174933,-41.454544,30.545455,7.857143
17694,89,24.340175,-1.309628,-0.557849,11.030088,-0.054358,0.02145,0.184659,-26.454544,26,11.428572
17715,88,24.516128,-1.18513,-0.471658,10.886436,-0.037571,0.027179,0.161343,-26.454544,26,11.428572
17737,87,24.692081,-1.314417,-0.634463,10.91756,-0.049962,0.01359,0.164008,-26.454544,26,11.428572
17758,86,24.868034,-1.280898,-0.471658,11.068395,-0.032775,0.015188,0.175865,-33.181819,27.909091,10.714286
17780,85,25.043987,-1.244985,-0.521936,10.948685,-0.050628,0.025447,0.166939,-33.181819,27.909091,10.714286
17801,84,25.219942,-1.237802,-0.493206,10.903195,-0.037571,0.019985,0.14842,-33.181819,27.909091,10.714286
17823,83,25.395895,-1.338359,-0.61531,11.113884,-0.048629,0.010259,0.174799,-46.454544,33.090911,7.551021
17844,82,25.571847,-1.197101,-0.435745,10.951079,-0.036106,0.020651,0.171735,-46.454544,33.090911,7.551021
17866,81,25.7478,-1.321599,-0.572214,10.936714,-0.04743,0.021583,0.141758,-46.454544,33.090911,7.551021
17887,80,25.923753,-1.132457,-0.562637,10.838552,-0.032642,0.014256,0.140559,-38.81818,31.181818,8.367347
17909,79,26.099706,-1.216254,-0.581791,10.977416,-0.047564,0.011991,0.177997,-38.81818,31.181818,8.367347
17930,78,26.275661,-1.108515,-0.418985,10.886436,-0.037172,0.024648,0.163874,-38.81818,31.181818,8.367347
17952,77,26.451614,-1.189918,-0.624887,10.922348,-0.044366,0.018919,0.132698,-32.363636,29.181818,9.387756
17973,76,26.627567,-1.170765,-0.553061,10.979809,-0.030243,0.011591,0.140959,-32.363636,29.181818,9.387756
17995,75,26.80352,-1.165976,-0.59855,10.886436,-0.049162,0.01732,0.174266,-32.363636,29.181818,9.387756
18016,74,26.979473,-1.235408,-0.471658,11.039665,-0.036505,0.022516,0.156547,-32.363636,29.181818,9.387756
18038,73,27.155426,-1.086968,-0.596156,10.812215,-0.052093,0.015721,0.165473,-25.727272,27.636363,11.326531
18059,72,27.331378,-1.137246,-0.462081,10.986992,-0.034773,0.014256,0.170403,-25.727272,27.636363,11.326531
18081,71,27.507331,-1.240196,-0.562637,11.027693,-0.05156,0.018519,0.170136,-25.727272,27.636363,11.326531
18103,70,27.683284,-1.096544,-0.469264,10.970232,-0.036505,0.019052,0.152949,-34.090908,30.090909,10.612245
18125,69,27.859237,-1.132457,-0.593762,10.996569,-0.047031,0.013989,0.16041,-34.090908,30.090909,10.612245
18146,68,28.03519,-1.137246,-0.529119,10.994174,-0.037838,0.019585,0.162675,-34.090908,30.090909,10.612245
18168,67,28.211143,-1.041478,-0.531513,10.84334,-0.050894,0.017054,0.167472,-46,34.454544,7.755102
18189,66,28.387096,-1.170765,-0.490811,10.951079,-0.035706,0.017986,0.158812,-46,34.454544,7.755102
18211,65,28.563049,-0.950498,-0.579397,10.819398,-0.050761,0.01732,0.169737,-46,34.454544,7.755102
18232,64,28.739002,-1.079785,-0.445322,10.960656,-0.035839,0.018919,0.158812,-37.363636,32.909091,8.57143
18254,63,28.914955,-1.177947,-0.617704,10.88883,-0.050361,0.014655,0.16121,-37.363636,32.909091,8.57143
18275,62,29.090908,-1.086968,-0.471658,10.929532,-0.035706,0.017453,0.162409,-37.363636,32.909091,8.57143
18297,61,29.266862,-1.137246,-0.572214,10.848129,-0.05196,0.01692,0.16947,-24,28.545454,11.530612
18318,60,29.442815,-1.015141,-0.464475,10.872071,-0.028911,0.02185,0.147087,-24,28.545454,11.530612
18340,59,29.618768,-1.029507,-0.629675,10.876859,-0.053559,0.016121,0.158012,-24,28.545454,11.530612
18361,58,29.794721,-1.127669,-0.426168,10.924743,-0.033441,0.019452,0.165473,-32,30.818181,11.326531
18383,57,29.970674,-1.072602,-0.56982,10.828975,-0.053426,0.017986,0.163741,-32,30.818181,11.326531
18404,56,30.146627,-1.11091,-0.459687,10.881648,-0.029711,0.020251,0.134031,-32,30.818181,11.326531
18426,55,30.322582,-0.972046,-0.617704,10.840946,-0.048763,0.013723,0.158678,-32,32.181816,11.734695
18447,54,30.498535,-1.063026,-0.418985,10.927137,-0.030643,0.018519,0.16534,-35,32.181816,11.734695
18469,53,30.674488,-1.177947,-0.586579,10.970232,-0.051427,0.018253,0.138427,-35,32.181816,11.734695
18490,52,30.85044,-1.024718,-0.531513,10.898406,-0.031309,0.019319,0.132165,-35,32.181816,11.734695
18512,51,31.026393,-1.101333,-0.624887,10.872071,-0.045832,0.01319,0.158412,-44.272727,35.909088,8.469388
18533,50,31.202346,-1.046266,-0.457293,10.955867,-0.029044,0.019985,0.141092,-44.272727,35.909088,8.469388
18555,49,31.378299,-1.122881,-0.648829,10.879253,-0.047564,0.018119,0.123106,-44.272727,35.909088,8.469388
18576,48,31.554252,-0.986411,-0.545878,10.826581,-0.034773,0.016654,0.160943,-35.181816,33.636363,9.081633
18598,47,31.730205,-1.067814,-0.557849,10.900801,-0.051028,0.015855,0.191853,-35.181816,33.636363,9.081633
18619,46,31.906158,-1.134852,-0.502782,10.998963,-0.036239,0.021717,0.136695,-35.181816,33.636363,9.081633
18641,45,32.082111,-1.036689,-0.64404,10.833764,-0.052493,0.012124,0.145222,-23,29.727273,11.632654
18662,44,32.258064,-1.077391,-0.462081,10.936714,-0.031842,0.015188,0.177464,-23,29.727273,11.632654
18684,43,32.434017,-0.912191,-0.52433,10.812215,-0.057289,0.016654,0.185458,-23,29.727273,11.632654
18705,42,32.60997,-1.041478,-0.497994,10.900801,-0.031309,0.02225,0.13483,-31.181818,32.181816,11.22449
18727,41,32.785923,-1.079785,-0.699107,10.929532,-0.053692,0.011724,0.157346,-31.181818,32.181816,11.22449
18749,40,32.961875,-1.012747,-0.428562,10.807427,-0.031309,0.01692,0.177331,-31.181818,32.181816,11.22449
18771,39,33.137828,-1.055843,-0.684742,10.874464,-0.054758,0.014922,0.16121,-44.545452,37.636363,8.163266
18792,38,33.313781,-1.101333,-0.519542,10.819398,-0.031975,0.018652,0.140026,-44.545452,37.636363,8.163266
18814,37,33.489734,-0.995988,-0.629675,10.912772,-0.053825,0.011858,0.176265,-44.545452,37.636363,8.163266
18836,36,33.665687,-1.086968,-0.447716,10.881648,-0.03011,0.023182,0.163874,-41.181816,37.090908,8.061224
18857,35,33.841644,-0.914585,-0.711078,10.740389,-0.059821,0.015988,0.148819,-41.181816,37.090908,8.061224
18879,34,34.017593,-1.015141,-0.562637,10.838552,-0.034507,0.019052,0.165207,-41.181816,37.090908,8.061224
18900,33,34.19355,-1.108515,-0.591368,10.88883,-0.054092,0.018519,0.178663,-41.181816,37.090908,8.061224
18922,32,34.369503,-0.984017,-0.488417,10.862494,-0.033041,0.022383,0.144689,-37.545455,36.272727,8.67347
18943,31,34.545455,-1.039083,-0.694318,10.783485,-0.057289,0.012257,0.153482,-37.545455,36.272727,8.67347
18965,30,34.721408,-0.962469,-0.497994,10.867282,-0.028911,0.018786,0.168937,-37.545455,36.272727,8.67347
18986,29,34.897361,-1.015141,-0.663194,10.836157,-0.059021,0.01772,0.159345,-21.454545,31.181818,12.34694
19008,28,35.073314,-1.06542,-0.509965,10.864888,-0.031043,0.021583,0.133098,-21.454545,31.181818,12.34694
19029,27,35.249267,-0.933739,-0.718261,10.726024,-0.057822,0.012524,0.171202,-21.454545,31.181818,12.34694
19051,26,35.42522,-1.067814,-0.459687,10.845734,-0.033441,0.019985,0.174933,-28.818181,33.363636,11.428572
19072,25,35.601173,-1.115698,-0.713472,10.850522,-0.061553,0.016787,0.147354,-28.818181,33.363636,11.428572
19094,24,35.777126,-1.041478,-0.584185,10.828975,-0.029977,0.019851,0.130966,-28.818181,33.363636,11.428572
19115,23,35.953079,-1.051055,-0.732626,10.929532,-0.057689,0.014522,0.172268,-43.909091,38.454544,7.959183
19137,22,36.129032,-0.960075,-0.512359,10.817004,-0.039969,0.023715,0.176931,-43.909091,38.454544,7.959183
19159,21,36.304985,-1.118092,-0.694318,10.919955,-0.065283,0.018119,0.163608,-43.909091,38.454544,7.959183
19181,20,36.480937,-1.209072,-0.584185,10.912772,-0.035306,0.020917,0.154948,-35.272727,36.727272,8.979592
19202,19,36.65689,-1.115698,-0.682347,10.900801,-0.064084,0.016787,0.183326,-35.272727,36.727272,8.979592
19224,18,36.832843,-1.256956,-0.560243,10.943897,-0.039037,0.027979,0.160943,-35.272727,36.727272,8.979592
19245,17,37.008796,-1.156399,-0.754173,10.862494,-0.072611,0.021317,0.164274,-20.090909,32,12.142858
19267,16,37.184749,-1.266533,-0.634463,10.96305,-0.038904,0.022516,0.177597,-20.090909,32,12.142858
19288,15,37.360702,-1.429338,-0.794875,11.12825,-0.069547,0.020784,0.201579,-20.090909,32,12.142858
19310,14,37.536655,-1.367089,-0.586579,11.022905,-0.037172,0.027579,0.172002,-19.363636,31.818181,12.857144
19331,13,37.712608,-1.537077,-0.895431,11.178528,-0.070613,0.019319,0.160544,-19.363636,31.818181,12.857144
19353,12,37.888565,-1.242591,-0.61531,10.941502,-0.032775,0.023182,0.177464,-19.363636,31.818181,12.857144
19374,11,38.064517,-1.431733,-0.852336,11.027693,-0.068481,0.020384,0.19172,-19.363636,31.818181,12.857144
19396,10,38.24047,-1.283292,-0.560243,10.979809,-0.033574,0.030643,0.153482,-24.181818,33.727272,12.040817
19417,9,38.416423,-1.448492,-0.943315,11.183317,-0.067815,0.014123,0.161343,-24.181818,33.727272,12.040817
19439,8,38.592376,-1.254562,-0.526724,10.977416,-0.026913,0.018519,0.176531,-24.181818,33.727272,12.040817
19460,7,38.768329,-1.383849,-0.837971,11.066,-0.06515,0.020784,0.16574,-42.818183,40,8.469388
19482,6,38.944282,-1.194707,-0.593762,10.965444,-0.041168,0.023982,0.156813,-42.818183,40,8.469388
19503,5,39.120235,-1.405396,-0.823605,11.164163,-0.063285,0.015455,0.17893,-42.818183,40,8.469388
19525,4,39.296188,-1.225831,-0.555455,10.96305,-0.03011,0.022383,0.164274,-35.181816,38.090908,9.183674
19546,3,39.472141,-1.312023,-0.864307,11.058818,-0.065417,0.015721,0.146821,-35.181816,38.090908,9.183674
19568,2,39.648094,-1.13964,-0.608127,11.032482,-0.037305,0.018253,0.163741,-35.181816,38.090908,9.183674
19589,1,39.824047,-1.271321,-0.816423,11.077972,-0.060753,0.015322,0.172668,-18.363636,33,12.040817
19611,0,40,-1.149217,-0.548272,10.979809,-0.032908,0.019851,0.141625,-18.363636,33,12.040817
19632,1,39.824047,-1.288081,-0.849942,11.027693,-0.059688,0.011191,0.146288,-18.363636,33,12.040817
19654,2,39.648094,-1.132457,-0.220267,11.063607,0.021051,0.034907,-0.086067,-31.545454,38,9.489796
19675,3,39.472141,-0.790087,-1.201889,10.27352,0.028245,0.017986,-0.267662,-31.545454,38,9.489796
19697,4,39.296188,-1.225831,-0.916979,10.682929,0.067415,0.014522,-0.124038,-31.545454,38,9.489796
19718,5,39.120235,-1.027112,-0.584185,10.39323,0.029444,0.034374,-0.061153,-36.909091,38.909088,9.081633
19740,6,38.944282,-1.323994,-0.720655,10.790668,0.007194,0.0441,-0.165873,-36.909091,38.909088,9.081633
19761,7,38.768329,-0.881066,-1.089362,10.254366,0.009459,0.022516,-0.159345,-36.909091,38.909088,9.081633
19783,8,38.592376,-1.261744,-0.593762,10.699687,0.065417,0.025047,-0.094328,-36.909091,38.909088,9.081633
19803,9,38.416423,-0.878672,-0.849942,10.297462,0.012124,0.023449,-0.14802,-42.818183,40.272727,8.265307
19825,10,38.24047,-1.197101,-0.840365,10.833764,0.026913,0.03424,-0.158012,-42.818183,40.272727,8.265307
19846,11,38.064517,-0.845153,-0.933739,10.240001,0.012524,0.027712,-0.125637,-42.818183,40.272727,8.265307
19868,12,37.888565,-1.058237,-0.584185,10.793062,0.046231,0.023182,-0.124305,-28.181818,34.545455,11.632654
19890,13,37.712608,-0.792481,-0.916979,10.309433,0.011058,0.02145,-0.159345,-28.181818,34.545455,11.632654
19912,14,37.536655,-1.034295,-0.641646,10.876859,0.044499,0.024648,-0.138827,-28.181818,34.545455,11.632654
19933,15,37.360702,-0.861913,-0.818817,10.295067,0.012257,0.02558,-0.147221,-19.090908,32.181816,11.836735
19955,16,37.184749,-1.106121,-0.708684,10.903195,0.037571,0.024115,-0.14349,-19.090908,32.181816,11.836735
19976,17,37.008796,-0.797269,-0.857124,10.251972,0.020118,0.023848,-0.14762,-19.090908,32.181816,11.836735
19998,18,36.832843,-0.926556,-0.656011,10.805033,0.041701,0.023449,-0.149485,-33.181819,36.727272,9.183674
20019,19,36.65689,-0.790087,-0.921768,10.338164,0.01359,0.022516,-0.165207,-33.181819,36.727272,9.183674
20041,20,36.480937,-1.029507,-0.742202,10.824187,0.038371,0.023715,-0.127369,-33.181819,36.727272,9.183674
20062,21,36.304985,-0.826,-0.861913,10.43872,0.019052,0.028645,-0.136162,-44.090908,38.81818,8.77551
20084,22,36.129032,-1.058237,-0.672771,10.857706,0.041302,0.028911,-0.151617,-44.090908,38.81818,8.77551
20105,23,35.953079,-0.864307,-1.007959,10.450691,0.011058,0.022116,-0.147087,-44.090908,38.81818,8.77551
20127,24,35.777126,-1.13964,-0.653617,10.924743,0.046897,0.028778,-0.111515,-32.454544,34.454544,10.714286
20148,25,35.601173,-0.88346,-0.866701,10.477027,0.01359,0.031576,-0.14842,-32.454544,34.454544,10.714286
20170,26,35.42522,-1.21386,-0.768539,10.78109,0.035306,0.031176,-0.145089,-32.454544,34.454544,10.714286
20191,27,35.249267,-0.926556,-0.924162,10.663775,0.012124,0.02185,-0.099923,-32.454544,34.454544,10.714286
20214,28,35.073314,-1.058237,-0.59855,10.867282,0.033841,0.032908,-0.108717,-32.454544,34.454544,10.714286
20235,29,34.897361,-0.950498,-0.94571,10.553642,0.005995,0.031309,-0.17027,-32.454544,34.454544,10.714286
20257,30,34.721408,-1.125275,-0.778116,10.845734,0.042368,0.023449,-0.13936,-32.454544,34.454544,10.714286
20278,31,34.545455,-0.907402,-0.847547,10.548853,0.016121,0.021983,-0.101655,-20.818181,30.818181,11.734695
20300,32,34.369503,-1.175553,-0.605733,10.900801,0.027446,0.03504,-0.119775,-20.818181,30.818181,11.734695
20321,33,34.19355,-0.888249,-0.981623,10.500969,0.008527,0.028378,-0.159078,-20.818181,30.818181,11.734695
20343,34,34.017593,-1.005565,-0.737414,10.896013,0.03877,0.019585,-0.116178,-36.545455,36.272727,8.57143
20364,35,33.841644,-0.902614,-0.823605,10.668563,0.015855,0.025047,-0.118043,-36.545455,36.272727,8.57143
20386,36,33.665687,-1.005565,-0.672771,10.819398,0.028245,0.031443,-0.140293,-36.545455,36.272727,8.57143
20407,37,33.489734,-0.895431,-0.94571,10.644621,0.014389,0.024781,-0.151884,-44.81818,37.545455,8.67347
20429,38,33.313781,-1.046266,-0.708684,10.924743,0.035173,0.019985,-0.114179,-44.81818,37.545455,8.67347
20450,39,33.137828,-0.799663,-0.861913,10.551247,0.009193,0.026646,-0.12577,-44.81818,37.545455,8.67347
20472,40,32.961875,-1.072602,-0.670376,10.922348,0.029577,0.028645,-0.142824,-30.818181,32.545452,11.122449
20493,41,32.785923,-0.804452,-0.92895,10.527305,0.010259,0.022649,-0.132565,-30.818181,32.545452,11.122449
