Time_ms,step_count,theo_angle,ax,ay,az,gx,gy,gz,mx,my,mz
4,1,39.824047,-1.314417,-0.634463,10.733206,-0.014389,0.023582,0.013856,-22.909091,36.454547,8.061224
26,2,39.648094,-1.30484,-0.656011,10.737995,-0.013323,0.025447,0.015055,-23,36.454547,7.959183
47,3,39.472141,-1.276109,-0.679953,10.759543,-0.013456,0.023715,0.014256,-23,36.454547,7.959183
69,4,39.296188,-1.225831,-0.694318,10.766725,-0.012923,0.023982,0.014256,-23,36.454547,7.959183
89,5,39.120235,-1.295263,-0.617704,10.745178,-0.012657,0.024648,0.014123,-22.909091,36.545455,7.755102
111,6,38.944282,-1.266533,-0.665588,10.761937,-0.012657,0.024914,0.013989,-22.909091,36.545455,7.755102
132,7,38.768329,-1.312023,-0.687136,10.785879,-0.012391,0.024115,0.014256,-22.909091,36.545455,7.755102
154,8,38.592376,-1.278504,-0.679953,10.812215,-0.014389,0.024248,0.01319,-22.909091,36.545455,7.755102
175,9,38.416423,-1.300052,-0.658405,10.771513,-0.013057,0.023715,0.013057,-23,36.454547,8.163266
196,10,38.24047,-1.142034,-0.842759,10.833764,-0.028378,0.019851,0.100989,-23,36.454547,8.163266
217,11,38.064517,-1.218649,-0.296881,10.84334,0.031443,0.060221,0.022516,-23,36.454547,8.163266
239,12,37.888565,-1.426944,-0.488417,10.788273,-0.03877,0.063418,-0.182127,-28.272727,36.909091,8.367347
260,13,37.712608,-1.383849,-0.914585,10.481816,0.048896,0.012923,-0.231822,-28.272727,36.909091,8.367347
282,14,37.536655,-1.699883,-0.260968,11.080366,0.102055,-0.02185,-0.136429,-28.272727,36.909091,8.367347
303,15,37.360702,-1.422156,-0.486023,10.893618,0.007461,0.008527,-0.102721,-16.545455,34.272727,8.877552
325,16,37.184749,-1.714248,-0.380678,10.975021,0.017054,0.056757,-0.132032,-16.545455,34.272727,8.877552
346,17,37.008796,-1.391031,-0.632069,10.486604,0.033974,0.066083,-0.133764,-16.545455,34.272727,8.877552
367,18,36.832843,-1.900996,-0.21069,11.022905,0.055691,0.037438,-0.090864,-32.363636,38.81818,6.122449
388,19,36.65689,-1.369483,-0.617704,10.520123,0.023848,0.030776,-0.124038,-32.363636,38.81818,6.122449
410,20,36.480937,-1.594538,-0.308852,10.891224,0.045698,0.026113,-0.153216,-32.363636,38.81818,6.122449
431,21,36.304985,-1.556231,-0.562637,10.692505,0.015055,0.022116,-0.154415,-43.090908,41,5.306122
453,22,36.129032,-1.721431,-0.25618,10.90559,0.057023,0.03011,-0.119242,-43.090908,41,5.306122
474,23,35.953079,-1.455675,-0.4956,10.522517,0.02185,0.042501,-0.137495,-43.090908,41,5.306122
496,24,35.777126,-1.508347,-0.356736,10.761937,0.041968,0.034773,-0.143623,-38.909088,39.272727,6.020408
516,25,35.601173,-1.443704,-0.641646,10.508152,0.023848,0.02558,-0.147753,-38.909088,39.272727,6.020408
538,26,35.42522,-1.802834,-0.280122,11.058818,0.05196,0.026113,-0.137095,-38.909088,39.272727,6.020408
559,27,35.249267,-1.352724,-0.574608,10.486604,0.021583,0.039436,-0.159478,-38.909088,39.272727,6.020408
581,28,35.073314,-1.786075,-0.320823,10.924743,0.043966,0.032908,-0.151617,-31.90909,36.727272,7.448979
602,29,34.897361,-1.352724,-0.624887,10.55843,0.027579,0.031842,-0.147087,-31.90909,36.727272,7.448979
624,30,34.721408,-1.721431,-0.292093,10.91756,0.047031,0.032508,-0.141092,-31.90909,36.727272,7.448979
645,31,34.545455,-1.300052,-0.61531,10.510546,0.016654,0.038504,-0.150152,-18.818181,33,8.67347
666,32,34.369503,-1.728614,-0.232238,10.948685,0.049828,0.03011,-0.121374,-18.818181,33,8.67347
687,33,34.19355,-1.584961,-0.428562,10.733206,0.026913,0.033175,-0.125237,-18.818181,33,8.67347
709,34,34.017593,-1.558625,-0.332794,10.881648,0.038104,0.03957,-0.1303,-31.818181,37.363636,5.816327
730,35,33.841644,-1.587356,-0.545878,10.697294,0.011591,0.035173,-0.1307,-31.818181,37.363636,5.816327
752,36,33.665687,-1.584961,-0.268151,10.879253,0.054758,0.026913,-0.10059,-31.818181,37.363636,5.816327
773,37,33.489734,-1.460463,-0.486023,10.697294,0.015455,0.037172,-0.132165,-44.363636,39.909091,5.306122
795,38,33.313781,-1.707066,-0.320823,10.922348,0.035306,0.038637,-0.14389,-44.363636,39.909091,5.306122
816,39,33.137828,-1.450886,-0.629675,10.608708,0.019319,0.028112,-0.134031,-44.363636,39.909091,5.306122
837,40,32.961875,-1.721431,-0.244209,10.967839,0.05196,0.021983,-0.105519,-29.818183,34.636363,7.959183
858,41,32.785923,-1.37906,-0.61531,10.608708,0.010792,0.039037,-0.131233,-29.818183,34.636363,7.959183
880,42,32.60997,-1.697489,-0.363919,10.994174,0.028245,0.043567,-0.131632,-29.818183,34.636363,7.959183
901,43,32.434017,-1.302446,-0.684742,10.639833,0.022783,0.032242,-0.127236,-29.818183,34.636363,7.959183
923,44,32.258064,-1.561019,-0.323217,10.996569,0.0433,0.024381,-0.116577,-29.818183,34.636363,7.959183
944,45,32.082111,-1.23062,-0.617704,10.625468,0.011325,0.036772,-0.143757,-29.818183,34.636363,7.959183
966,46,31.906158,-1.625663,-0.390255,10.924743,0.031842,0.032908,-0.135896,-29.818183,34.636363,7.959183
987,47,31.730205,-1.51553,-0.483629,10.654198,0.023982,0.028112,-0.123772,-20.272727,31.818181,8.061224
1009,48,31.554252,-1.537077,-0.339977,10.979809,0.038637,0.031043,-0.115245,-20.272727,31.818181,8.061224
1029,49,31.378299,-1.393425,-0.562637,10.589554,0.009992,0.037305,-0.144956,-20.272727,31.818181,8.061224
1051,50,31.202346,-1.510741,-0.371101,10.951079,0.037838,0.031709,-0.128435,-35.727272,36.454547,5.306122
1072,51,31.026393,-1.429338,-0.565032,10.635045,0.022516,0.029844,-0.126836,-35.727272,36.454547,5.306122
1094,52,30.85044,-1.472434,-0.347159,10.915166,0.039303,0.034507,-0.124704,-35.727272,36.454547,5.306122
1115,53,30.674488,-1.151611,-0.742202,10.436326,0.005329,0.037838,-0.142957,-44.545452,38.454544,4.795918
1137,54,30.498535,-1.477222,-0.390255,10.989386,0.045432,0.028378,-0.12657,-44.545452,38.454544,4.795918
1158,55,30.322582,-1.134852,-0.653617,10.510546,0.014655,0.034773,-0.144822,-44.545452,38.454544,4.795918
1180,56,30.146627,-1.474828,-0.402226,10.864888,0.034374,0.032775,-0.138028,-30.818181,33.181819,7.857143
1201,57,29.970674,-1.170765,-0.723049,10.481816,0.01359,0.036505,-0.129234,-30.818181,33.181819,7.857143
1223,58,29.794721,-1.539472,-0.323217,10.991781,0.038637,0.032508,-0.112847,-30.818181,33.181819,7.857143
1244,59,29.618768,-1.173159,-0.651223,10.443509,0.008926,0.040902,-0.14349,-21.272727,31.090909,8.265307
1266,60,29.442815,-1.529895,-0.497994,10.881648,0.024914,0.02558,-0.120441,-21.272727,31.090909,8.265307
1287,61,29.266862,-1.30484,-0.605733,10.601526,0.017986,0.025447,-0.085934,-21.272727,31.090909,8.265307
1309,62,29.090908,-1.460463,-0.40462,10.855311,0.025181,0.041035,-0.082737,-21.272727,31.090909,8.265307
1330,63,28.914955,-1.199495,-0.632069,10.477027,0.00453,0.048363,-0.130433,-21.272727,31.090909,8.265307
1352,64,28.739002,-1.508347,-0.502782,10.833764,0.028378,0.02225,-0.130567,-21.272727,31.090909,8.265307
1373,65,28.563049,-1.211466,-0.605733,10.500969,0.019585,0.019718,-0.122972,-21.272727,31.090909,8.265307
1395,66,28.387096,-1.484405,-0.418985,10.941502,0.031309,0.035173,-0.11711,-32.272727,34.454544,5.612245
1416,67,28.211143,-1.264138,-0.64404,10.477027,0.006528,0.047697,-0.129634,-32.272727,34.454544,5.612245
1438,68,28.03519,-1.51553,-0.349553,10.910378,0.03504,0.028112,-0.110582,-32.272727,34.454544,5.612245
1459,69,27.859237,-1.189918,-0.617704,10.584766,0.012257,0.028245,-0.128835,-45.545455,37.272727,4.183673
1481,70,27.683284,-1.479617,-0.407014,10.893618,0.029178,0.03424,-0.136162,-45.545455,37.272727,4.183673
1502,71,27.507331,-1.199495,-0.684742,10.493786,0.011191,0.033974,-0.142557,-45.545455,37.272727,4.183673
1524,72,27.331378,-1.474828,-0.40462,10.879253,0.03424,0.024381,-0.117243,-33,32.363636,7.653061
1544,73,27.155426,-1.177947,-0.656011,10.536882,0.012524,0.033708,-0.126303,-33,32.363636,7.653061
1566,74,26.979473,-1.414973,-0.423774,10.927137,0.025714,0.034107,-0.126836,-33,32.363636,7.653061
1587,75,26.80352,-1.149217,-0.696713,10.48421,0.013989,0.031443,-0.132832,-22.363636,29.727273,8.061224
1609,76,26.627567,-1.35033,-0.380678,10.884041,0.028645,0.026646,-0.12617,-22.363636,29.727273,8.061224
1630,77,26.451614,-1.11091,-0.665588,10.424355,0.013723,0.036239,-0.139093,-22.363636,29.727273,8.061224
1652,78,26.275661,-1.381454,-0.464475,10.967839,0.026779,0.03051,-0.131499,-36.090911,33.909091,5.510204
1673,79,26.099706,-1.089362,-0.667982,10.556035,0.014123,0.030776,-0.128968,-36.090911,33.909091,5.510204
1695,80,25.923753,-1.367089,-0.387861,10.907983,0.026513,0.031842,-0.120841,-36.090911,33.909091,5.510204
1716,81,25.7478,-1.118092,-0.61531,10.500969,0.01279,0.037305,-0.136162,-36.090911,33.909091,5.510204
1738,82,25.571847,-1.419762,-0.37589,10.941502,0.027712,0.027979,-0.13523,-39.181819,34.363636,4.387755
1759,83,25.395895,-1.089362,-0.629675,10.448297,0.014522,0.032242,-0.140426,-39.181819,34.363636,4.387755
1781,84,25.219942,-1.436521,-0.354342,10.893618,0.030776,0.031576,-0.128302,-39.181819,34.363636,4.387755
1802,85,25.043987,-1.096544,-0.658405,10.450691,0.010525,0.03544,-0.141092,-46.181819,35.636363,4.285715
1824,86,24.868034,-1.419762,-0.385467,10.951079,0.029311,0.027446,-0.129767,-46.181819,35.636363,4.285715
1845,87,24.692081,-1.103727,-0.684742,10.481816,0.006795,0.027979,-0.126303,-46.181819,35.636363,4.285715
1867,88,24.516128,-1.383849,-0.37589,10.90559,0.025181,0.032642,-0.107384,-31.818181,30.454545,7.346939
1888,89,24.340175,-1.11091,-0.61531,10.546459,0.011191,0.036639,-0.114979,-31.818181,30.454545,7.346939
1910,90,24.164222,-1.321599,-0.421379,10.807427,0.021583,0.027979,-0.113646,-31.818181,30.454545,7.346939
1931,91,23.988269,-1.113304,-0.648829,10.596737,0.015188,0.029844,-0.136429,-24.363636,28.454545,7.551021
1953,92,23.812316,-1.086968,-0.476446,10.694899,0.019185,0.029311,-0.137228,-24.363636,28.454545,7.551021
1974,93,23.636363,-1.082179,-0.620098,10.455479,0.017187,0.029977,-0.124305,-24.363636,28.454545,7.551021
1996,94,23.460411,-1.146823,-0.387861,10.702082,0.023182,0.032908,-0.107384,-37,32.363636,4.591837
2016,95,23.284458,-1.21386,-0.646434,10.64941,0.009593,0.035706,-0.125237,-37,32.363636,4.591837
2038,96,23.108505,-1.154005,-0.474052,10.728418,0.021184,0.02598,-0.136029,-37,32.363636,4.591837
2059,97,22.932552,-1.122881,-0.608127,10.572795,0.018386,0.030243,-0.144822,-46.909091,34.090908,4.183673
2081,98,22.756599,-1.13964,-0.43335,10.608708,0.025714,0.033708,-0.136695,-46.909091,34.090908,4.183673
2102,99,22.580644,-1.101333,-0.64404,10.568007,0.01279,0.034507,-0.139893,-46.909091,34.090908,4.183673
2124,100,22.404691,-1.297657,-0.416591,10.793062,0.025714,0.027712,-0.122306,-46.909091,34.090908,4.183673
2145,101,22.228738,-1.120486,-0.639252,10.680534,0.012923,0.034507,-0.127769,-46.909091,33.545455,3.979592
2167,102,22.052785,-1.118092,-0.474052,10.687717,0.018919,0.029444,-0.129634,-46.909091,33.545455,3.979592
2188,103,21.876832,-1.113304,-0.56982,10.673352,0.017187,0.029044,-0.140159,-46.909091,33.545455,3.979592
2210,104,21.70088,-1.125275,-0.462081,10.702082,0.021983,0.027712,-0.136695,-37.454544,30.272727,6.530612
2231,105,21.524927,-1.137246,-0.596156,10.606314,0.014389,0.031443,-0.141358,-37.454544,30.272727,6.530612
2253,106,21.348974,-1.132457,-0.462081,10.651803,0.026247,0.03091,-0.133498,-37.454544,30.272727,6.530612
2274,107,21.173021,-1.051055,-0.648829,10.599131,0.013057,0.03051,-0.129767,-25.090908,26.636365,7.857143
2296,108,20.997068,-1.151611,-0.488417,10.735601,0.019452,0.03091,-0.115778,-25.090908,26.636365,7.857143
2317,109,20.821115,-1.051055,-0.521936,10.737995,0.011991,0.03091,-0.120841,-25.090908,26.636365,7.857143
2339,110,20.645162,-1.130063,-0.486023,10.735601,0.015855,0.028645,-0.126969,-36.727272,30.545455,4.285715
2360,111,20.469207,-1.063026,-0.531513,10.733206,0.013989,0.028378,-0.132432,-36.727272,30.545455,4.285715
2382,112,20.293254,-1.156399,-0.474052,10.766725,0.015188,0.029311,-0.134697,-36.727272,30.545455,4.285715
2403,113,20.117301,-1.079785,-0.526724,10.790668,0.013057,0.031975,-0.13936,-47.363636,33,3.163265
2425,114,19.941349,-1.156399,-0.557849,10.764331,0.016387,0.027845,-0.13976,-47.363636,33,3.163265
2446,115,19.765396,-1.082179,-0.52433,10.745178,0.014655,0.028911,-0.139493,-47.363636,33,3.163265
2468,116,19.589443,-1.106121,-0.526724,10.726024,0.015188,0.029577,-0.133764,-35.81818,27.909091,6.734694
2489,117,19.41349,-1.063026,-0.514753,10.783485,0.015055,0.030776,-0.127103,-35.81818,27.909091,6.734694
2511,118,19.237537,-1.122881,-0.543484,10.706871,0.01692,0.029977,-0.118975,-35.81818,27.909091,6.734694
2532,119,19.061584,-1.055843,-0.521936,10.723629,0.014922,0.030643,-0.113779,-32.272727,26.727273,7.551021
2554,120,18.885631,-1.086968,-0.486023,10.728418,0.007328,0.028245,-0.107917,-32.272727,26.727273,7.551021
2575,121,18.709678,-1.060631,-0.452504,10.764331,0.014256,0.029711,-0.097658,-32.272727,26.727273,7.551021
2597,122,18.533725,-1.132457,-0.533907,10.716447,0.002531,0.02638,-0.092196,-32.272727,26.727273,7.551021
2618,123,18.35777,-1.070208,-0.505177,10.735601,0.005729,0.025181,-0.082204,-26.818183,25.363636,7.244898
2640,124,18.181818,-1.127669,-0.512359,10.828975,0.00413,0.026646,-0.075809,-26.818183,25.363636,7.244898
2661,125,18.005865,-1.074997,-0.54109,10.81461,-0.000133,0.027845,-0.067149,-26.818183,25.363636,7.244898
2683,126,17.829912,-1.170765,-0.517148,10.802639,0.0004,0.025047,-0.058355,-40.181819,30.000001,3.77551
2704,127,17.653959,-1.101333,-0.500388,10.903195,-0.005063,0.02558,-0.051694,-40.181819,30.000001,3.77551
2726,128,17.478006,-1.161188,-0.486023,10.776302,-0.001466,0.02558,-0.044632,-40.181819,30.000001,3.77551
2747,129,17.302053,-1.098939,-0.507571,10.733206,-0.003331,0.02558,-0.039436,-48.181816,31.727272,3.163265
2769,130,17.1261,-1.101333,-0.545878,10.742783,-0.007061,0.023582,-0.033574,-48.181816,31.727272,3.163265
2790,131,16.950147,-1.144428,-0.471658,10.819398,-0.004263,0.026646,-0.03091,-48.181816,31.727272,3.163265
2813,132,16.774194,-1.525106,-0.155623,10.91756,0.029977,0.035306,-0.041968,-35.181816,26.909091,6.326531
2834,133,16.598241,-1.561019,-0.110133,11.657368,0.02225,0.025714,-0.06968,-35.181816,26.909091,6.326531
2856,134,16.422286,-1.551443,-0.191536,10.876859,0.020251,0.040369,-0.10392,-35.181816,26.909091,6.326531
2877,135,16.246334,-1.419762,-0.1652,11.676522,0.006395,0.027446,-0.128701,-26.818183,24.363636,7.040816
2899,136,16.070381,-1.486799,-0.294487,10.749966,0.011325,0.040902,-0.146021,-26.818183,24.363636,7.040816
2920,137,15.894429,-1.39582,-0.244209,11.195287,0.011458,0.028378,-0.151084,-26.818183,24.363636,7.040816
2942,138,15.718476,-1.465251,-0.292093,10.477027,0.022116,0.039436,-0.144289,-35.81818,27.454545,5.510204
2964,139,15.542523,-1.23062,-0.351948,10.939108,0.010925,0.031176,-0.134963,-35.81818,27.454545,5.510204
2985,140,15.36657,-1.240196,-0.265756,10.788273,0.020251,0.032642,-0.11751,-35.81818,27.454545,5.510204
3007,141,15.190617,-1.154005,-0.383072,10.900801,0.006928,0.029977,-0.101655,-35.81818,27.454545,5.510204
3028,142,15.014664,-1.211466,-0.251391,10.850522,0.020251,0.032375,-0.081937,-40.272727,28.545454,4.183673
3050,143,14.838711,-1.173159,-0.351948,10.960656,0.007461,0.030377,-0.07421,-40.272727,28.545454,4.183673
3071,144,14.662758,-1.273715,-0.272939,10.948685,0.019585,0.029178,-0.06968,-40.272727,28.545454,4.183673
3093,145,14.486805,-1.192312,-0.316035,11.080366,0.007861,0.027179,-0.074743,-47.81818,29.818183,3.061224
3114,146,14.310851,-1.154005,-0.325611,11.013328,0.014256,0.032242,-0.086467,-47.81818,29.818183,3.061224
3136,147,14.134898,-1.142034,-0.191536,11.130644,0.005462,0.020784,-0.095793,-47.81818,29.818183,3.061224
3157,148,13.958945,-1.189918,-0.296881,11.20247,0.008394,0.02558,-0.103654,-35.636363,25.545454,6.22449
3179,149,13.782992,-1.154005,-0.117316,11.269508,0.012657,0.016254,-0.099524,-35.636363,25.545454,6.22449
3200,150,13.607039,-1.233014,-0.395043,11.346122,0.009459,0.02558,-0.09939,-35.636363,25.545454,6.22449
3222,151,13.431086,-1.223437,-0.138864,11.396401,0.00866,0.01692,-0.091397,-28,23.727272,6.632653
3243,152,13.255133,-1.144428,-0.354342,11.240777,0.010126,0.023582,-0.088199,-28,23.727272,6.632653
3265,153,13.07918,-1.134852,-0.088585,11.556812,0.015055,0.01359,-0.081804,-28,23.727272,6.632653
3286,154,12.903227,-1.096544,-0.390255,11.41316,0.011858,0.02145,-0.083403,-39.727272,27.545455,3.571429
3308,155,12.727274,-1.211466,-0.196325,11.590331,0.014922,0.013057,-0.082204,-39.727272,27.545455,3.571429
3329,156,12.551321,-1.235408,-0.169988,11.66934,0.019851,0.013456,-0.0866,-39.727272,27.545455,3.571429
3351,157,12.375369,-1.194707,-0.19393,11.851299,0.021317,0.008926,-0.09113,-48.636363,29.363636,2.653061
3372,158,12.199414,-1.113304,-0.201113,11.745954,0.024248,0.015055,-0.102322,-48.636363,29.363636,2.653061
3394,159,12.023461,-1.091756,-0.241814,11.686099,0.015988,0.013989,-0.103521,-48.636363,29.363636,2.653061
3415,160,11.847508,-1.101333,-0.177171,11.793838,0.021317,0.017853,-0.107118,-47.909088,28.272727,2.857143
3437,161,11.671555,-1.180341,-0.023942,11.518505,0.021583,0.00866,-0.105786,-47.909088,28.272727,2.857143
3458,162,11.495602,-1.041478,-0.31364,11.683705,0.018253,0.018919,-0.107784,-47.909088,28.272727,2.857143
3480,163,11.319649,-1.16837,-0.09098,11.374853,0.015988,0.014655,-0.09979,-47.909088,28.272727,2.857143
3501,164,11.143696,-0.979228,-0.263362,11.580754,0.020384,0.016787,-0.10019,-40.363636,25.454544,5
3523,165,10.967743,-1.103727,-0.158017,11.394006,0.018519,0.012657,-0.092329,-40.363636,25.454544,5
3544,166,10.79179,-0.895431,-0.308852,11.365276,0.015322,0.019718,-0.09566,-40.363636,25.454544,5
3566,167,10.615838,-1.098939,-0.167594,11.461044,0.022383,0.010126,-0.097392,-28.636363,22.363636,6.632653
3587,168,10.439885,-0.675165,-0.320823,11.444285,0.021184,0.019985,-0.118309,-28.636363,22.363636,6.632653
3609,169,10.26393,-1.034295,-0.342371,11.255143,0.009326,0.018786,-0.126303,-28.636363,22.363636,6.632653
3630,170,10.087977,-1.010353,-0.347159,11.355699,0.014123,0.021583,-0.1311,-38.81818,25.454544,3.367347
3652,171,9.912024,-0.976834,-0.361524,11.300633,0.017587,0.014256,-0.125637,-38.81818,25.454544,3.367347
3673,172,9.736071,-0.97444,-0.356736,11.461044,0.01692,0.017054,-0.12124,-38.81818,25.454544,3.367347
3695,173,9.560118,-0.85473,-0.438139,11.370064,0.010259,0.015855,-0.106585,-49.090911,27.454545,2.040816
3716,174,9.384165,-0.826,-0.368707,11.405978,0.01732,0.013989,-0.112181,-49.090911,27.454545,2.040816
3738,175,9.208212,-0.790087,-0.512359,11.358094,0.013723,0.00826,-0.115778,-49.090911,27.454545,2.040816
3759,176,9.032259,-0.871489,-0.363919,11.324575,0.014655,0.021317,-0.126969,-38.090908,23.090909,5.204082
3781,177,8.856307,-0.804452,-0.483629,11.283873,0.007861,0.02225,-0.123372,-38.090908,23.090909,5.204082
3802,178,8.680354,-0.804452,-0.366313,11.286268,0.012257,0.023848,-0.133231,-38.090908,23.090909,5.204082
3824,179,8.504401,-0.811634,-0.457293,11.240777,0.014522,0.015721,-0.1311,-34.727272,22,6.530612
3844,180,8.328448,-0.857124,-0.428562,11.228806,0.012923,0.023715,-0.12617,-34.727272,22,6.530612
3866,181,8.152493,-0.828394,-0.54109,11.190499,0.009859,0.018786,-0.115511,-34.727272,22,6.530612
3887,182,7.97654,-0.905008,-0.426168,11.319787,0.015588,0.017187,-0.124571,-34.727272,22,6.530612
3909,183,7.800587,-0.869095,-0.47884,11.257536,0.015855,0.01359,-0.121773,-29.272726,20.545454,6.428572
3930,184,7.624634,-0.967257,-0.411803,11.240777,0.013856,0.022383,-0.123239,-29.272726,20.545454,6.428572
3952,185,7.448681,-0.885855,-0.471658,11.319787,0.012657,0.016654,-0.123639,-29.272726,20.545454,6.428572
3973,186,7.272728,-0.969652,-0.430956,11.245566,0.015855,0.021317,-0.1303,-42.454547,24.545455,2.040816
3995,187,7.096775,-0.933739,-0.505177,11.18571,0.013989,0.019319,-0.124704,-42.454547,24.545455,2.040816
4016,188,6.920822,-0.97444,-0.440533,11.235989,0.010525,0.02638,-0.120308,-42.454547,24.545455,2.040816
4038,189,6.744869,-0.905008,-0.519542,11.288661,0.012524,0.017587,-0.118443,-49.272727,25.727272,1.836735
4059,190,6.568916,-1.046266,-0.407014,11.166557,0.018919,0.020917,-0.121107,-49.272727,25.727272,1.836735
4081,191,6.392963,-0.931344,-0.52433,11.05403,0.011325,0.019452,-0.10472,-49.272727,25.727272,1.836735
4102,192,6.21701,-0.931344,-0.407014,11.12825,0.014655,0.017986,-0.111248,-37.545455,21.272727,5.102041
4124,193,6.041058,-0.895431,-0.4956,11.05403,0.02558,0.007461,-0.1299,-37.545455,21.272727,5.102041
4145,194,5.865105,-0.967257,-0.476446,10.898406,0.018652,0.022116,-0.146288,-37.545455,21.272727,5.102041
4167,195,5.689152,-0.905008,-0.474052,10.850522,0.011191,0.03424,-0.1299,-29.818183,19.090908,5.918367
4188,196,5.513199,-0.960075,-0.373495,10.96305,0.015855,0.03051,-0.132698,-29.818183,19.090908,5.918367
4210,197,5.337246,-0.833182,-0.500388,11.080366,0.024515,0.010925,-0.131366,-29.818183,19.090908,5.918367
4231,198,5.161289,-0.94571,-0.47884,10.953474,0.021717,0.019052,-0.130567,-31.727272,19.909091,5.204082
4252,199,4.985336,-0.845153,-0.543484,10.783485,0.012923,0.025047,-0.118176,-31.727272,19.909091,5.204082
4273,200,4.809383,-0.931344,-0.445322,10.910378,0.018253,0.026247,-0.13443,-31.727272,19.909091,5.204082
4295,201,4.63343,-0.80924,-0.538695,10.91756,0.021983,0.016254,-0.13976,-31.727272,19.909091,5.204082
4316,202,4.457478,-0.936133,-0.435745,10.989386,0.015322,0.027979,-0.132432,-38.363636,21.818181,3.367347
4338,203,4.281525,-0.881066,-0.548272,10.986992,0.01279,0.025047,-0.117643,-38.363636,21.818181,3.367347
4359,204,4.105572,-0.94571,-0.411803,11.018116,0.019452,0.020118,-0.123772,-38.363636,21.818181,3.367347
4381,205,3.929619,-0.818817,-0.509965,10.970232,0.016121,0.014389,-0.11791,-49,23.727272,1.428571
4402,206,3.753666,-0.847547,-0.409408,10.984598,0.015455,0.026247,-0.127769,-49,23.727272,1.428571
4424,207,3.577713,-0.816423,-0.500388,10.958262,0.01359,0.025314,-0.125904,-49,23.727272,1.428571
4445,208,3.40176,-0.897826,-0.435745,11.061212,0.016521,0.027446,-0.130567,-39.818183,20.090909,4.489796
4467,209,3.225807,-0.845153,-0.529119,10.965444,0.012923,0.020384,-0.11338,-39.818183,20.090909,4.489796
4488,210,3.049854,-0.876278,-0.459687,11.046847,0.01772,0.023049,-0.120841,-39.818183,20.090909,4.489796
4510,211,2.873901,-0.804452,-0.47884,11.03727,0.017054,0.018386,-0.119242,-30.181819,17.363636,5.816327
4531,212,2.697948,-0.873884,-0.430956,10.965444,0.015721,0.029178,-0.118842,-30.181819,17.363636,5.816327
4553,213,2.521996,-0.814029,-0.519542,10.953474,0.012657,0.024381,-0.110582,-30.181819,17.363636,5.816327
4574,214,2.346043,-0.888249,-0.402226,10.943897,0.017187,0.024648,-0.117243,-40.636363,20.818181,2.142857
4596,215,2.17009,-0.782904,-0.521936,11.08276,0.011191,0.020384,-0.100323,-40.636363,20.818181,2.142857
4617,216,1.994137,-0.905008,-0.418985,10.896013,0.00826,0.029311,-0.088865,-40.636363,20.818181,2.142857
4639,217,1.818184,-0.78051,-0.509965,11.094731,0.012923,0.013323,-0.100723,-44.272727,21.454545,1.22449
4660,218,1.642231,-0.845153,-0.407014,10.898406,0.025047,0.019585,-0.136162,-44.272727,21.454545,1.22449
4682,219,1.466278,-0.751779,-0.52433,10.855311,0.021184,0.028112,-0.133231,-44.272727,21.454545,1.22449
4703,220,1.290325,-0.732626,-0.428562,10.819398,0.016654,0.03917,-0.127902,-44.272727,21.454545,1.22449
4724,221,1.114372,-0.696713,-0.462081,11.101914,0.02145,0.02145,-0.1299,-49.454544,21.727272,0.612245
4745,222,0.938416,-0.73502,-0.407014,10.793062,0.032375,0.017853,-0.14762,-49.454544,21.727272,0.612245
4767,223,0.762463,-0.895431,-0.459687,10.819398,0.01732,0.02598,-0.128568,-49.454544,21.727272,0.612245
4788,224,0.58651,-0.73502,-0.402226,10.75236,0.01772,0.03504,-0.127103,-37.181819,17.363636,4.591837
4810,225,0.410557,-0.909797,-0.421379,10.972627,0.017986,0.023449,-0.132299,-37.181819,17.363636,4.591837
4831,226,0.234604,-0.727837,-0.435745,10.709264,0.02598,0.024381,-0.148153,-37.181819,17.363636,4.591837
4853,227,0.058651,-0.902614,-0.514753,10.783485,0.014655,0.027845,-0.127769,-30.727273,15.636364,5.510204
4874,228,-0.117302,-0.708684,-0.399832,10.67814,0.019319,0.031443,-0.132165,-30.727273,15.636364,5.510204
4896,229,-0.293255,-0.842759,-0.490811,10.881648,0.018786,0.018919,-0.139227,-30.727273,15.636364,5.510204
4917,230,-0.469208,-0.691924,-0.414197,10.618285,0.030243,0.031043,-0.142957,-41.909088,19,1.734694
4939,231,-0.645161,-0.80924,-0.493206,10.76912,0.01359,0.03051,-0.125371,-41.909088,19,1.734694
4960,232,-0.821114,-0.708684,-0.40462,10.584766,0.023715,0.029444,-0.136029,-41.909088,19,1.734694
4982,233,-0.997066,-0.761356,-0.481235,10.924743,0.023449,0.018652,-0.133897,-49.727272,20.363636,0.306122
5003,234,-1.173019,-0.713472,-0.421379,10.55843,0.023182,0.029044,-0.124838,-49.727272,20.363636,0.306122
5025,235,-1.348972,-0.814029,-0.474052,10.90559,0.014256,0.027979,-0.115112,-49.727272,20.363636,0.306122
5046,236,-1.524925,-0.73502,-0.399832,10.54167,0.02185,0.030243,-0.12617,-46.636363,18.363636,1.326531
5068,237,-1.700878,-0.849942,-0.411803,10.869676,0.017453,0.02598,-0.119375,-46.636363,18.363636,1.326531
5089,238,-1.876831,-0.773327,-0.390255,10.520123,0.023049,0.031176,-0.117643,-46.636363,18.363636,1.326531
5111,239,-2.052784,-0.826,-0.445322,10.929532,0.016387,0.027579,-0.110315,-46.636363,18.363636,1.326531
5132,240,-2.228737,-0.833182,-0.416591,10.845734,0.013856,0.030243,-0.108717,-40.81818,16.636363,3.571429
5154,241,-2.40469,-0.821211,-0.47884,10.862494,0.01359,0.025181,-0.096459,-40.81818,16.636363,3.571429
5175,242,-2.580643,-0.840365,-0.383072,10.764331,0.018786,0.029044,-0.1303,-40.81818,16.636363,3.571429
5197,243,-2.756596,-0.849942,-0.505177,10.848129,0.020518,0.029044,-0.13443,-31.818181,14.090909,5
5218,244,-2.932548,-0.885855,-0.447716,10.735601,0.01692,0.039436,-0.118176,-31.818181,14.090909,5
5240,245,-3.108505,-0.85473,-0.471658,10.850522,0.016787,0.030243,-0.115112,-31.818181,14.090909,5
5261,246,-3.284458,-0.816423,-0.409408,10.704476,0.022916,0.026913,-0.13896,-40.81818,17,1.734694
5283,247,-3.460411,-0.845153,-0.521936,10.876859,0.018919,0.027845,-0.13523,-40.81818,17,1.734694
5304,248,-3.636364,-0.835576,-0.399832,10.687717,0.013856,0.037838,-0.125104,-40.81818,17,1.734694
5326,249,-3.812317,-0.873884,-0.474052,10.821792,0.017187,0.030243,-0.132432,-49.727272,18.272727,0
5347,250,-3.98827,-0.881066,-0.447716,10.680534,0.028112,0.027446,-0.148819,-49.727272,18.272727,0
5368,251,-4.164223,-0.885855,-0.509965,10.860099,0.018786,0.031443,-0.134297,-49.727272,18.272727,0
5389,252,-4.340176,-0.866701,-0.430956,10.627861,0.013057,0.037172,-0.120175,-39.909091,14.545454,3.77551
5411,253,-4.516129,-0.852336,-0.52433,10.912772,0.017054,0.028511,-0.130433,-39.909091,14.545454,3.77551
5432,254,-4.692081,-0.890643,-0.423774,10.726024,0.022783,0.029178,-0.142424,-39.909091,14.545454,3.77551
5454,255,-4.868034,-0.871489,-0.500388,10.879253,0.013456,0.030776,-0.119109,-35.81818,13.454546,4.795918
5475,256,-5.043987,-0.902614,-0.418985,10.539277,0.01359,0.03504,-0.118709,-35.81818,13.454546,4.795918
5497,257,-5.21994,-0.833182,-0.488417,10.857706,0.020518,0.025047,-0.133498,-35.81818,13.454546,4.795918
5518,258,-5.395893,-0.893037,-0.483629,10.783485,0.021583,0.030643,-0.139493,-35.81818,13.454546,4.795918
5540,259,-5.571846,-0.857124,-0.486023,10.857706,0.013456,0.033974,-0.112181,-31.818181,12.272728,5.306122
5561,260,-5.747799,-0.919373,-0.347159,10.869676,0.019319,0.03051,-0.119775,-31.818181,12.272728,5.306122
5583,261,-5.923752,-0.857124,-0.545878,10.630256,0.017054,0.023582,-0.130966,-31.818181,12.272728,5.306122
5604,262,-6.099705,-0.976834,-0.383072,10.970232,0.018919,0.027179,-0.120441,-41.636363,15.181819,1.122449
5626,263,-6.275658,-0.852336,-0.447716,10.697294,0.008793,0.03011,-0.105386,-41.636363,15.181819,1.122449
5647,264,-6.451611,-0.936133,-0.323217,10.96305,0.018519,0.029178,-0.121107,-41.636363,15.181819,1.122449
5669,265,-6.627563,-0.895431,-0.483629,10.706871,0.014922,0.03011,-0.114579,-50,16.363636,-0.204082
5690,266,-6.803516,-0.924162,-0.332794,10.941502,0.013989,0.03051,-0.090464,-50,16.363636,-0.204082
5712,267,-6.979469,-0.861913,-0.466869,10.54167,0.010126,0.024115,-0.102455,-50,16.363636,-0.204082
5733,268,-7.155426,-0.914585,-0.366313,11.118673,0.029044,0.022516,-0.142424,-39.545455,12.727272,3.979592
5755,269,-7.331379,-0.943315,-0.512359,10.706871,0.018386,0.028911,-0.133764,-39.545455,12.727272,3.979592
5776,270,-7.507332,-0.897826,-0.409408,10.706871,0.012657,0.030243,-0.124838,-39.545455,12.727272,3.979592
5798,271,-7.683285,-0.890643,-0.421379,10.699687,0.011325,0.020251,-0.131899,-31.90909,10.636364,4.795918
5819,272,-7.859238,-0.849942,-0.397438,10.704476,0.015322,0.025047,-0.150551,-31.90909,10.636364,4.795918
5841,273,-8.035191,-0.902614,-0.452504,10.778697,0.016654,0.030377,-0.150685,-31.90909,10.636364,4.795918
5862,274,-8.211144,-0.888249,-0.368707,10.800245,0.018119,0.035573,-0.154548,-40,13.090909,1.836735
5884,275,-8.387097,-0.828394,-0.462081,10.733206,0.01732,0.026513,-0.149885,-40,13.090909,1.836735
5905,276,-8.56305,-0.871489,-0.37589,10.733206,0.015455,0.029577,-0.138294,-40,13.090909,1.836735
5927,277,-8.739003,-0.885855,-0.383072,10.802639,0.015322,0.026779,-0.127236,-40,13.090909,1.836735
5948,278,-8.914956,-0.847547,-0.399832,10.817004,0.017587,0.028245,-0.145222,-43.272727,13.090909,1.428571
5970,279,-9.090909,-0.859518,-0.411803,10.704476,0.020784,0.026646,-0.152417,-43.272727,13.090909,1.428571
5991,280,-9.266861,-0.907402,-0.423774,10.749966,0.015455,0.032775,-0.135096,-43.272727,13.090909,1.428571
6013,281,-9.442814,-0.861913,-0.361524,10.714053,0.013856,0.028778,-0.127636,-49.272727,14,0
6034,282,-9.618767,-0.907402,-0.349553,10.773908,0.022916,0.026646,-0.150818,-49.272727,14,0
6056,283,-9.79472,-0.871489,-0.411803,10.697294,0.023049,0.026779,-0.150551,-49.272727,14,0
6077,284,-9.970673,-0.905008,-0.392649,10.730813,0.013723,0.033708,-0.124704,-39.181819,10.636364,3.265306
6099,285,-10.146626,-0.871489,-0.421379,10.680534,0.014655,0.026913,-0.123772,-39.181819,10.636364,3.265306
6120,286,-10.322579,-0.924162,-0.35913,10.836157,0.021583,0.024914,-0.143357,-39.181819,10.636364,3.265306
6142,287,-10.498532,-0.938527,-0.397438,10.790668,0.016654,0.030243,-0.128168,-32,8.818182,4.489796
6164,288,-10.674485,-0.967257,-0.387861,10.800245,0.012923,0.033441,-0.116044,-32,8.818182,4.489796
6185,289,-10.850438,-0.907402,-0.411803,10.821792,0.015455,0.024248,-0.132565,-32,8.818182,4.489796
6207,290,-11.026391,-0.948104,-0.395043,10.824187,0.018786,0.028911,-0.139493,-41.545452,11.090909,0.816326
6228,291,-11.202347,-0.993594,-0.438139,10.606314,0.010392,0.032508,-0.105253,-41.545452,11.090909,0.816326
6250,292,-11.3783,-0.948104,-0.335188,10.773908,0.010525,0.033574,-0.103521,-41.545452,11.090909,0.816326
6271,293,-11.554253,-0.938527,-0.452504,10.491393,0.015721,0.020518,-0.132165,-49.454544,12.181818,-0.408163
6293,294,-11.730206,-0.940921,-0.390255,11.001358,0.027046,0.02638,-0.148686,-49.454544,12.181818,-0.408163
6314,295,-11.906159,-0.943315,-0.502782,10.544065,0.013456,0.033574,-0.119508,-49.454544,12.181818,-0.408163
6336,296,-12.082112,-0.967257,-0.363919,10.556035,0.013057,0.033175,-0.122972,-49.454544,11.818182,0.204082
6357,297,-12.258065,-0.909797,-0.459687,10.716447,0.018119,0.02225,-0.13523,-49,11.818182,0.204082
6379,298,-12.434018,-0.986411,-0.447716,10.759543,0.018253,0.029577,-0.133364,-49,11.818182,0.204082
6400,299,-12.609971,-0.921768,-0.447716,10.639833,0.014522,0.029977,-0.121773,-49,11.818182,0.204082
6422,300,-12.785923,-0.972046,-0.392649,10.690111,0.016654,0.030776,-0.131233,-42.272727,9,2.244898
6443,301,-12.961876,-0.919373,-0.500388,10.40999,0.016521,0.026913,-0.125637,-42.272727,9,2.244898
6465,302,-13.137829,-0.993594,-0.418985,10.802639,0.018519,0.025447,-0.131766,-42.272727,9,2.244898
6486,303,-13.313782,-0.969652,-0.476446,10.362106,0.016521,0.03051,-0.123106,-32.181816,6.727273,4.693878
6508,304,-13.489735,-0.991199,-0.373495,10.857706,0.019185,0.03011,-0.131366,-32.181816,6.727273,4.693878
6529,305,-13.665688,-0.919373,-0.481235,10.433932,0.014389,0.029711,-0.122573,-32.181816,6.727273,4.693878
6551,306,-13.841641,-1.010353,-0.385467,10.845734,0.020118,0.029844,-0.135496,-40.636363,9.272727,0.816326
6572,307,-14.017594,-0.924162,-0.538695,10.242395,0.019185,0.027845,-0.139626,-40.636363,9.272727,0.816326
6594,308,-14.193547,-1.024718,-0.387861,10.876859,0.019319,0.029577,-0.139093,-40.636363,9.272727,0.816326
6615,309,-14.3695,-0.962469,-0.497994,10.3645,0.012257,0.030776,-0.119642,-49.181819,10.272727,-0.918367
6637,310,-14.545453,-0.991199,-0.411803,10.486604,0.015721,0.031309,-0.140026,-49.181819,10.272727,-0.918367
6658,311,-14.721405,-0.964863,-0.54109,10.390836,0.015588,0.027046,-0.13856,-49.181819,10.272727,-0.918367
6680,312,-14.897358,-0.964863,-0.471658,10.594343,0.00826,0.033041,-0.117643,-40.090908,7.181818,3.163265
6701,313,-15.073311,-0.962469,-0.411803,10.424355,0.01359,0.028911,-0.123372,-40.090908,7.181818,3.163265
6723,314,-15.249264,-1.000776,-0.414197,10.697294,0.020518,0.028245,-0.143357,-40.090908,7.181818,3.163265
6744,315,-15.425221,-1.00317,-0.538695,10.321404,0.014389,0.032242,-0.122706,-36.545455,6.272727,4.183673
6766,316,-15.601174,-1.051055,-0.356736,10.675745,0.00906,0.033175,-0.10472,-36.545455,6.272727,4.183673
6787,317,-15.777127,-0.972046,-0.4956,10.275914,0.011591,0.025714,-0.111648,-36.545455,6.272727,4.183673
6809,318,-15.95308,-1.070208,-0.442927,10.761937,0.01772,0.024914,-0.137095,-36.545455,6.272727,4.183673
6830,319,-16.129032,-1.000776,-0.533907,10.381259,0.014922,0.031709,-0.118975,-32.090908,5.090909,4.795918
6852,320,-16.304985,-1.01993,-0.35913,10.735601,0.015455,0.030643,-0.132165,-32.090908,5.090909,4.795918
6873,321,-16.480937,-0.967257,-0.548272,10.237607,0.019452,0.02638,-0.141358,-32.090908,5.090909,4.795918
6895,322,-16.65689,-1.086968,-0.387861,10.872071,0.019985,0.024381,-0.144956,-42.272727,7.727273,0.204082
6916,323,-16.832843,-1.00317,-0.54109,10.232818,0.012923,0.031975,-0.118309,-42.272727,7.727273,0.204082
6938,324,-17.008796,-0.979228,-0.385467,10.330981,0.013989,0.032642,-0.137495,-42.272727,7.727273,0.204082
6959,325,-17.184749,-0.955286,-0.545878,10.247183,0.022649,0.029044,-0.145222,-49.090911,8.454546,-1.122449
6981,326,-17.360702,-1.022324,-0.459687,10.414778,0.011991,0.03091,-0.134297,-49.090911,8.454546,-1.122449
7002,327,-17.536655,-0.984017,-0.4956,10.30225,0.011191,0.03011,-0.118309,-49.090911,8.454546,-1.122449
7024,328,-17.712608,-1.024718,-0.387861,10.441114,0.014922,0.033041,-0.135363,-39.272727,5.272727,3.163265
7045,329,-17.888561,-0.979228,-0.447716,10.335769,0.01692,0.027845,-0.128035,-39.272727,5.272727,3.163265
7067,330,-18.064514,-1.007959,-0.395043,10.594343,0.01359,0.029311,-0.131499,-39.272727,5.272727,3.163265
7088,331,-18.240467,-1.005565,-0.500388,10.206482,0.01772,0.031709,-0.138294,-32.181816,3.727273,4.285715
7110,332,-18.416419,-1.027112,-0.332794,10.627861,0.017853,0.028511,-0.145888,-32.181816,3.727273,4.285715
7131,333,-18.592372,-0.984017,-0.469264,10.266337,0.016387,0.032242,-0.133098,-32.181816,3.727273,4.285715
7153,334,-18.768325,-1.024718,-0.339977,10.747571,0.016521,0.029178,-0.13976,-38.909088,5.272727,1.22449
7174,335,-18.944278,-0.979228,-0.500388,10.261548,0.01772,0.030776,-0.131632,-38.909088,5.272727,1.22449
7196,336,-19.120231,-1.041478,-0.337582,10.795456,0.016254,0.029178,-0.133631,-38.909088,5.272727,1.22449
7217,337,-19.296184,-0.967257,-0.483629,10.254366,0.012391,0.030643,-0.120841,-38.909088,5.272727,1.22449
7239,338,-19.472141,-1.01993,-0.387861,10.381259,0.010392,0.03091,-0.131766,-42.727272,5.727273,0.306122
7260,339,-19.648094,-0.964863,-0.514753,10.31901,0.015721,0.028911,-0.126436,-42.727272,5.727273,0.306122
7282,340,-19.824047,-1.000776,-0.387861,10.398018,0.010259,0.029844,-0.120708,-42.727272,5.727273,0.306122
7303,341,-20,-0.969652,-0.476446,10.249578,0.012657,0.030776,-0.120041,-48.363636,6.181818,-1.122449
7325,342,-20.175952,-1.017536,-0.383072,10.517728,0.012257,0.029178,-0.125637,-48.363636,6.181818,-1.122449
7346,343,-20.351905,-0.981623,-0.464475,10.307039,0.012391,0.03051,-0.112447,-48.363636,6.181818,-1.122449
7369,344,-20.527858,-1.096544,-0.395043,10.503363,0.009992,0.029444,-0.113247,-38.363636,3.454545,2.653061
7390,345,-20.703811,-0.995988,-0.47884,10.321404,0.016654,0.033308,-0.140159,-38.363636,3.454545,2.653061
7412,346,-20.879764,-1.096544,-0.320823,10.615891,0.021983,0.028911,-0.14309,-38.363636,3.454545,2.653061
7433,347,-21.055717,-0.986411,-0.445322,10.378865,0.012257,0.035306,-0.11298,-32.181816,1.727273,4.285715
7455,348,-21.23167,-1.127669,-0.299275,10.735601,0.012257,0.029844,-0.114446,-32.181816,1.727273,4.285715
7476,349,-21.407623,-1.039083,-0.464475,10.3645,0.014389,0.033441,-0.134164,-32.181816,1.727273,4.285715
7498,350,-21.583576,-1.077391,-0.323217,10.778697,0.016387,0.029711,-0.136429,-41.181816,4,0
7518,351,-21.759529,-1.060631,-0.471658,10.398018,0.010392,0.037172,-0.122706,-41.181816,4,0
7540,352,-21.935482,-1.120486,-0.263362,10.802639,0.015455,0.03051,-0.133631,-41.181816,4,0
7561,353,-22.111434,-1.041478,-0.514753,10.350134,0.018786,0.031443,-0.147221,-48.363636,4.818181,-1.530612
7583,354,-22.287387,-1.115698,-0.316035,10.785879,0.020651,0.022116,-0.140959,-48.363636,4.818181,-1.530612
7604,355,-22.46334,-1.005565,-0.430956,10.297462,0.017587,0.026113,-0.116844,-48.363636,4.818181,-1.530612
7626,356,-22.639293,-0.976834,-0.296881,10.431537,0.019185,0.02225,-0.135629,-47.909088,3.909091,-0.816326
7648,357,-22.815246,-0.984017,-0.526724,10.39323,0.020251,0.025714,-0.143757,-47.909088,3.909091,-0.816326
7670,358,-22.991199,-1.027112,-0.356736,10.608708,0.018786,0.020917,-0.127236,-47.909088,3.909091,-0.816326
7691,359,-23.167152,-1.043872,-0.363919,10.524911,0.017986,0.018919,-0.121907,-47.909088,3.909091,-0.816326
7713,360,-23.343105,-1.029507,-0.234632,10.642227,0.02145,0.020384,-0.143357,-41.454544,1.727273,2.142857
7734,361,-23.519062,-1.103727,-0.344765,10.723629,0.022383,0.024515,-0.156413,-41.454544,1.727273,2.142857
7756,362,-23.695014,-1.070208,-0.304064,10.644621,0.018652,0.034374,-0.152949,-41.454544,1.727273,2.142857
7777,363,-23.870967,-1.060631,-0.361524,10.647015,0.014256,0.03424,-0.141092,-31.545454,0,4.693878
7798,364,-24.04692,-1.11091,-0.337582,10.714053,0.01732,0.029711,-0.149219,-31.545454,0,4.693878
7819,365,-24.222869,-1.070208,-0.351948,10.711659,0.020518,0.031176,-0.144956,-31.545454,0,4.693878
7841,366,-24.398826,-1.115698,-0.316035,10.618285,0.017986,0.033974,-0.137761,-39.727272,1.727273,0.408163
7862,367,-24.574775,-1.098939,-0.397438,10.675745,0.012923,0.036239,-0.121374,-39.727272,1.727273,0.408163
7884,368,-24.750732,-1.098939,-0.294487,10.675745,0.016121,0.03464,-0.127636,-39.727272,1.727273,0.408163
7905,369,-24.926681,-1.101333,-0.35913,10.687717,0.011991,0.030643,-0.124971,-48.090908,2.454545,-1.22449
7927,370,-25.102638,-1.11091,-0.272939,10.702082,0.020651,0.033574,-0.150152,-48.090908,2.454545,-1.22449
7948,371,-25.278587,-1.09415,-0.423774,10.694899,0.019985,0.033974,-0.151484,-48.090908,2.454545,-1.22449
7970,372,-25.454544,-1.142034,-0.328006,10.747571,0.018253,0.035306,-0.139626,-39,-0.272727,2.857143
7991,373,-25.6305,-1.11091,-0.421379,10.618285,0.015855,0.034773,-0.133498,-39,-0.272727,2.857143
8013,374,-25.806449,-1.074997,-0.339977,10.673352,0.020384,0.034374,-0.156014,-39,-0.272727,2.857143
8034,375,-25.982406,-1.079785,-0.435745,10.627861,0.02185,0.033574,-0.146554,-36.181819,-0.818182,3.877551
8056,376,-26.158355,-1.11091,-0.356736,10.690111,0.010925,0.033574,-0.123239,-36.181819,-0.818182,3.877551
8077,377,-26.334312,-1.096544,-0.423774,10.441114,0.018386,0.032242,-0.141225,-36.181819,-0.818182,3.877551
8099,378,-26.510261,-1.113304,-0.407014,10.740389,0.023049,0.032642,-0.159744,-36.181819,-0.818182,3.877551
8121,379,-26.686218,-1.142034,-0.421379,10.536882,0.018386,0.032775,-0.127502,-31.727272,-2.090909,4.897959
8143,380,-26.862167,-1.16837,-0.292093,10.785879,0.010126,0.032642,-0.120041,-31.727272,-2.090909,4.897959
8164,381,-27.038124,-1.113304,-0.438139,10.467451,0.021184,0.032775,-0.148819,-31.727272,-2.090909,4.897959
8186,382,-27.214073,-1.199495,-0.383072,10.828975,0.021317,0.029977,-0.156946,-40.727272,-0.090909,0.102041
8207,383,-27.390029,-1.132457,-0.43335,10.524911,0.016787,0.032775,-0.12164,-40.727272,-0.090909,0.102041
8229,384,-27.565979,-1.089362,-0.328006,10.563219,0.012124,0.036239,-0.13976,-40.727272,-0.090909,0.102041
8250,385,-27.741935,-1.101333,-0.459687,10.424355,0.027179,0.035173,-0.156413,-47.545452,0.454545,-1.428571
8272,386,-27.917884,-1.161188,-0.395043,10.654198,0.015188,0.032642,-0.145489,-47.545452,0.454545,-1.428571
8293,387,-28.093841,-1.09415,-0.414197,10.419567,0.018919,0.035573,-0.120708,-47.545452,0.454545,-1.428571
8315,388,-28.26979,-1.130063,-0.356736,10.570401,0.015988,0.03544,-0.145489,-37.909091,-2.363636,3.469388
8336,389,-28.445747,-1.165976,-0.493206,10.42196,0.029044,0.034907,-0.151884,-37.909091,-2.363636,3.469388
8358,390,-28.621696,-1.182736,-0.390255,10.656592,0.00826,0.031709,-0.127902,-37.909091,-2.363636,3.469388
8379,391,-28.797653,-1.09415,-0.40462,10.405201,0.017187,0.034773,-0.118842,-30.818181,-3.545454,4.489796
8401,392,-28.973602,-1.170765,-0.342371,10.637438,0.015988,0.03424,-0.139227,-30.818181,-3.545454,4.489796
8422,393,-29.149559,-1.120486,-0.459687,10.374076,0.023848,0.036239,-0.126836,-30.818181,-3.545454,4.489796
8444,394,-29.325508,-1.175553,-0.316035,10.692505,0.010392,0.031176,-0.112847,-37.363636,-2.090909,1.632653
8465,395,-29.501464,-1.089362,-0.447716,10.340558,0.020251,0.035706,-0.133764,-37.363636,-2.090909,1.632653
8487,396,-29.677421,-1.240196,-0.383072,10.800245,0.025314,0.034107,-0.160277,-37.363636,-2.090909,1.632653
8508,397,-29.85337,-1.115698,-0.481235,10.381259,0.025047,0.036505,-0.126836,-37.363636,-2.090909,1.632653
8530,398,-30.029327,-1.256956,-0.280122,10.81461,0.017187,0.034907,-0.126303,-40.909091,-1.636363,0.816326
8551,399,-30.205276,-1.101333,-0.517148,10.261548,0.028112,0.038904,-0.13976,-40.909091,-1.636363,0.816326
8573,400,-30.381233,-1.309628,-0.342371,10.852917,0.018519,0.031975,-0.130966,-40.909091,-1.636363,0.816326
8594,401,-30.557182,-1.11091,-0.45011,10.342952,0.017187,0.033708,-0.106985,-46.454544,-1.454545,-0.816326
8616,402,-30.733139,-1.13964,-0.335188,10.405201,0.019319,0.03544,-0.140825,-46.454544,-1.454545,-0.816326
8637,403,-30.909088,-1.101333,-0.493206,10.309433,0.031576,0.037438,-0.145089,-46.454544,-1.454545,-0.816326
8659,404,-31.085044,-1.137246,-0.37589,10.565612,0.014389,0.034107,-0.122839,-36.818183,-4.181818,3.061224
8680,405,-31.260993,-1.084573,-0.54109,10.218453,0.019851,0.035706,-0.126703,-36.818183,-4.181818,3.061224
8702,406,-31.43695,-1.211466,-0.371101,10.517728,0.023449,0.033841,-0.151617,-36.818183,-4.181818,3.061224
8724,407,-31.612899,-1.16837,-0.519542,10.268732,0.020384,0.031176,-0.136828,-31,-5.181818,4.693878
8745,408,-31.788856,-1.302446,-0.28491,10.599131,-0.038504,0.006262,-0.130433,-31,-5.181818,4.693878
8767,409,-31.964805,-1.051055,-0.557849,10.24479,-0.03877,-0.023715,-0.161476,-31,-5.181818,4.693878
8788,410,-32.140762,-1.177947,-0.411803,11.013328,0.045165,-0.015188,-0.140293,-39.545455,-3.363636,0.408163
8810,411,-32.316711,-1.103727,-0.28491,10.400413,0.026779,0.036772,-0.104187,-39.545455,-3.363636,0.408163
8831,412,-32.492668,-1.264138,-0.407014,10.709264,0.006262,0.051161,-0.124704,-39.545455,-3.363636,0.408163
8853,413,-32.668617,-1.132457,-0.447716,10.13705,0.049162,0.061819,-0.145888,-46.181819,-3,-1.122449
8874,414,-32.844573,-1.309628,-0.390255,10.761937,0.010925,0.034907,-0.142158,-46.181819,-3,-1.122449
8896,415,-33.020523,-1.122881,-0.361524,10.328587,0.020651,0.027179,-0.117776,-46.181819,-3,-1.122449
8917,416,-33.196479,-1.273715,-0.265756,10.749966,0.015988,0.025447,-0.130433,-46.181819,-3.727273,-0.510204
8939,417,-33.372428,-1.134852,-0.442927,10.30225,0.031043,0.037571,-0.135363,-46.272727,-3.727273,-0.510204
8960,418,-33.548385,-1.35033,-0.323217,10.809822,0.023982,0.040236,-0.121773,-46.272727,-3.727273,-0.510204
8982,419,-33.724342,-1.146823,-0.466869,10.371683,0.018519,0.040769,-0.111781,-46.272727,-3.727273,-0.510204
9003,420,-33.900291,-1.187524,-0.361524,10.481816,0.02185,0.038504,-0.145089,-39.545455,-5.727273,2.55102
9025,421,-34.076248,-1.144428,-0.502782,10.216059,0.033841,0.037704,-0.149885,-39.545455,-5.727273,2.55102
9046,422,-34.252197,-1.201889,-0.332794,10.587161,0.02225,0.036505,-0.12577,-39.545455,-5.727273,2.55102
9068,423,-34.428153,-1.154005,-0.452504,10.266337,0.021051,0.038104,-0.122306,-30.272727,-6.818182,4.897959
9089,424,-34.604103,-1.233014,-0.35913,10.560824,0.023715,0.037838,-0.148553,-30.272727,-6.818182,4.897959
9111,425,-34.780059,-1.127669,-0.423774,10.486604,0.029444,0.041035,-0.139227,-30.272727,-6.818182,4.897959
9132,426,-34.956008,-1.25935,-0.277727,10.699687,0.019718,0.033308,-0.120308,-37.727272,-5.181818,0.612245
9154,427,-35.131965,-1.089362,-0.40462,10.431537,0.021051,0.034374,-0.13443,-37.727272,-5.181818,0.612245
9175,428,-35.307914,-1.309628,-0.337582,10.831369,0.025314,0.032642,-0.143623,-37.727272,-5.181818,0.612245
9197,429,-35.483871,-1.161188,-0.373495,10.436326,0.024115,0.039303,-0.124038,-45.727272,-4.909091,-1.122449
9218,430,-35.65982,-1.091756,-0.277727,10.66138,0.011591,0.034907,-0.122706,-45.727272,-4.909091,-1.122449
9240,431,-35.835777,-1.127669,-0.387861,10.433932,0.018919,0.035173,-0.132965,-45.727272,-4.909091,-1.122449
9261,432,-36.011726,-1.175553,-0.198719,10.699687,0.018386,0.036106,-0.124571,-37.090908,-7.181818,3.061224
9283,433,-36.187683,-1.182736,-0.392649,10.457874,0.015855,0.038904,-0.117643,-37.090908,-7.181818,3.061224
9304,434,-36.363632,-1.237802,-0.244209,10.749966,0.022116,0.040103,-0.145089,-37.090908,-7.181818,3.061224
9326,435,-36.539588,-1.182736,-0.323217,10.637438,0.028911,0.037704,-0.138427,-33.727272,-7.909091,4.387755
9347,436,-36.715538,-1.295263,-0.234632,10.800245,0.015855,0.031309,-0.117643,-33.727272,-7.909091,4.387755
9369,437,-36.891494,-1.158794,-0.237026,10.520123,0.023715,0.031842,-0.122972,-33.727272,-7.909091,4.387755
9390,438,-37.067443,-1.30484,-0.215478,10.886436,0.02598,0.031443,-0.140026,-33.727272,-7.909091,4.387755
9412,439,-37.2434,-1.122881,-0.316035,10.615891,0.023982,0.031842,-0.123505,-29.727273,-8.818182,5.204082
9433,440,-37.419349,-1.314417,-0.205901,10.809822,0.019452,0.031443,-0.10472,-29.727273,-8.818182,5.204082
9455,441,-37.595306,-1.225831,-0.282516,10.577584,0.020384,0.031309,-0.120574,-29.727273,-8.818182,5.204082
9476,442,-37.771255,-1.218649,-0.177171,10.828975,0.022649,0.031176,-0.121374,-38.272727,-7,0.204082
9498,443,-37.947212,-1.244985,-0.299275,10.663775,0.013057,0.029711,-0.096459,-38.272727,-7,0.204082
9519,444,-38.123168,-1.256956,-0.229843,10.764331,0.006262,0.035306,-0.117776,-38.272727,-7,0.204082
9541,445,-38.299118,-1.23062,-0.280122,10.55843,0.030243,0.045299,-0.148553,-44.909088,-6.545454,-1.326531
9562,446,-38.475074,-1.323994,-0.177171,10.716447,0.022649,0.048629,-0.15215,-44.909088,-6.545454,-1.326531
9584,447,-38.651023,-1.261744,-0.246603,10.697294,0.022116,0.049029,-0.142957,-44.909088,-6.545454,-1.326531
9605,448,-38.82698,-1.30484,-0.189142,10.637438,0.024914,0.048629,-0.155881,-35.454544,-8.909091,3.163265
9627,449,-39.002929,-1.199495,-0.217872,10.785879,0.032508,0.043567,-0.167338,-35.454544,-8.909091,3.163265
9648,450,-39.178886,-1.374272,-0.263362,10.740389,0.024248,0.048629,-0.17027,-35.454544,-8.909091,3.163265
9670,451,-39.354835,-1.180341,-0.229843,10.726024,0.027979,0.043567,-0.136962,-28.727272,-10,4.795918
9691,452,-39.530792,-1.410185,-0.215478,10.699687,0.020118,0.047164,-0.147887,-28.727272,-10,4.795918
9713,453,-39.706741,-1.247379,-0.225055,10.639833,0.033308,0.040103,-0.160544,-28.727272,-10,4.795918
9734,454,-39.882698,-1.302446,-0.248997,10.735601,0.024515,0.044233,-0.154681,-35.636363,-8.818182,0.918367
9756,455,-40.058647,-1.295263,-0.272939,10.582372,0.026513,0.043966,-0.138427,-35.636363,-8.818182,0.918367
9777,456,-40.234603,-1.300052,-0.229843,10.733206,0.024115,0.046897,-0.153216,-35.636363,-8.818182,0.918367
9799,455,-40.058647,-1.249773,-0.354342,10.527305,0.035839,0.043034,-0.157746,-35.636363,-8.818182,0.918367
9820,454,-39.882698,-1.355118,0.351948,10.778697,-0.027312,0.00373,0.129234,-34.545455,-10,2.959184
9842,453,-39.706741,-2.621651,-0.225055,11.777079,-0.089265,0.057556,0.205176,-34.545455,-10,2.959184
9863,452,-39.530792,-1.786075,0.502782,11.41316,-0.042368,-0.004663,0.167338,-34.545455,-10,2.959184
9886,451,-39.354835,-2.197877,0.067038,12.124238,-0.061286,0.006795,0.139893,-43.363636,-8.181818,-1.530612
9907,450,-39.178886,-1.853112,0.184354,11.525688,-0.054758,0.021583,0.156413,-43.363636,-8.181818,-1.530612
9929,449,-39.002929,-2.15957,0.189142,12.186487,-0.04783,0.039969,0.172401,-43.363636,-8.181818,-1.530612
9950,448,-38.82698,-1.774103,0.21069,11.097126,-0.054092,0.027312,0.157879,-37.454544,-8,-0.102041
9972,447,-38.651023,-2.11408,0.079009,11.619061,-0.050894,0.018652,0.162409,-37.454544,-8,-0.102041
9993,446,-38.475074,-1.630451,0.196325,11.051635,-0.06515,0.010259,0.179462,-37.454544,-8,-0.102041
10015,445,-38.299118,-1.857901,0.134075,11.504139,-0.061286,0.016387,0.184659,-29.181818,-9.636363,5.204082
10036,444,-38.123168,-1.443704,0.237026,11.216835,-0.059821,0.010126,0.175865,-29.181818,-9.636363,5.204082
10058,443,-37.947212,-1.714248,0.033519,11.111491,-0.055158,0.015322,0.183859,-29.181818,-9.636363,5.204082
10079,442,-37.771255,-1.501164,0.282516,11.224018,-0.066482,0.008127,0.177331,-35,-8.909091,3.265306
10101,441,-37.595306,-1.690306,0.167594,11.171345,-0.043433,0.015322,0.134164,-35,-8.909091,3.265306
10122,440,-37.419349,-1.51553,0.198719,11.133038,-0.037038,0.016654,0.104587,-35,-8.909091,3.265306
10144,439,-37.2434,-1.642422,0.162806,11.360487,-0.033441,0.020917,0.129634,-44.727272,-6.545454,-1.530612
10165,438,-37.067443,-1.551443,0.280122,11.149798,-0.048763,0.018919,0.141225,-44.727272,-6.545454,-1.530612
10187,437,-36.891494,-1.620874,0.241814,11.57836,-0.041035,0.005995,0.132432,-44.727272,-6.545454,-1.530612
10208,436,-36.715538,-1.520318,0.21069,11.32218,-0.050095,0.001998,0.128168,-44.090908,-6.363636,-1.530612
10230,435,-36.539588,-1.489193,0.258574,11.451467,-0.04783,0.000533,0.151084,-44.090908,-6.363636,-1.530612
10251,434,-36.363632,-1.431733,0.335188,11.274296,-0.05689,0.003331,0.148686,-44.090908,-6.363636,-1.530612
10273,433,-36.187683,-1.455675,0.275333,11.573572,-0.042501,0.001066,0.14762,-44.090908,-6.363636,-1.530612
10294,432,-36.011726,-1.386243,0.318429,11.207259,-0.056623,0.006795,0.154948,-41.636363,-5.909091,-0.510204
10317,431,-35.835777,-1.462857,0.272939,11.662157,-0.048763,0.001865,0.164008,-41.636363,-5.909091,-0.510204
10338,430,-35.65982,-1.405396,0.287304,11.415555,-0.05276,0.00373,0.147354,-41.636363,-5.909091,-0.510204
10360,429,-35.483871,-1.47004,0.244209,11.640609,-0.034907,0.008527,0.139626,-30.000001,-7.636364,5
10381,428,-35.307914,-1.417367,0.289698,11.243171,-0.049562,0.008926,0.155614,-30.000001,-7.636364,5
10403,427,-35.131965,-1.434127,0.234632,11.425131,-0.0433,0.00906,0.159211,-30.000001,-7.636364,5
10424,426,-34.956008,-1.422156,0.301669,11.324575,-0.047963,0.005995,0.146421,-35.090908,-7.272727,3.673469
10446,425,-34.780059,-1.403002,0.260968,11.542447,-0.03544,0.005329,0.152417,-35.090908,-7.272727,3.673469
10467,424,-34.604103,-1.345541,0.275333,11.200076,-0.05276,0.010525,0.160277,-35.090908,-7.272727,3.673469
10489,423,-34.428153,-1.426944,0.31364,11.559206,-0.037172,0.009992,0.153882,-45.363636,-4.818181,-1.428571
10510,422,-34.252197,-1.403002,0.272939,11.300633,-0.047031,0.007727,0.152949,-45.363636,-4.818181,-1.428571
10532,421,-34.076248,-1.417367,0.244209,11.559206,-0.037838,0.010925,0.162009,-45.363636,-4.818181,-1.428571
10554,420,-33.900291,-1.376666,0.251391,11.209652,-0.04823,0.009726,0.153216,-39.727272,-4.818181,0.510204
10576,419,-33.724342,-1.345541,0.220267,11.453862,-0.031576,0.009859,0.152283,-39.727272,-4.818181,0.510204
10597,418,-33.548385,-1.280898,0.23942,11.085154,-0.051161,0.012923,0.169737,-39.727272,-4.818181,0.510204
10619,417,-33.372428,-1.431733,0.253785,11.473015,-0.039836,0.009992,0.167338,-30.545455,-6.636363,5.102041
10640,416,-33.196479,-1.364695,0.25618,11.238383,-0.044233,0.010658,0.140559,-30.545455,-6.636363,5.102041
10662,415,-33.020523,-1.412579,0.129287,11.456255,-0.03091,0.011325,0.138427,-30.545455,-6.636363,5.102041
10683,414,-32.844573,-1.338359,0.201113,11.154586,-0.047031,0.013456,0.164407,-31.090909,-6.181818,5.918367
10705,413,-32.668617,-1.374272,0.232238,11.326969,-0.041035,0.009193,0.161077,-31.090909,-6.181818,5.918367
10726,412,-32.492668,-1.335965,0.203507,11.231201,-0.043833,0.013456,0.150152,-31.090909,-6.181818,5.918367
10748,411,-32.316711,-1.407791,0.155623,11.370064,-0.035306,0.013856,0.156813,-31.090909,-6.181818,5.918367
10770,410,-32.140762,-1.357512,0.215478,11.116279,-0.049695,0.009593,0.168804,-33.909091,-5.818182,4.285715
10792,409,-31.964805,-1.383849,0.181959,11.511322,-0.036239,0.012391,0.152816,-33.909091,-5.818182,4.285715
10813,408,-31.788856,-1.376666,0.169988,11.219229,-0.039037,0.014522,0.142957,-33.909091,-5.818182,4.285715
10835,407,-31.612899,-1.345541,0.174777,11.257536,-0.035972,0.009459,0.161609,-46.090908,-3,-1.326531
10856,406,-31.43695,-1.314417,0.253785,11.080366,-0.049029,0.010792,0.176798,-46.090908,-3,-1.326531
10878,405,-31.260993,-1.376666,0.229843,11.508928,-0.03424,0.011325,0.151884,-46.090908,-3,-1.326531
10900,404,-31.085044,-1.357512,0.186748,11.176134,-0.040103,0.013856,0.144156,-41.363636,-2.909091,0.204082
10921,403,-30.909088,-1.381454,0.126893,11.303027,-0.03917,0.013989,0.162942,-41.363636,-2.909091,0.204082
10943,402,-30.733139,-1.316811,0.232238,11.061212,-0.049296,0.009459,0.169337,-41.363636,-2.909091,0.204082
10964,401,-30.557182,-1.400608,0.150835,11.439496,-0.031842,0.013323,0.14802,-30.909091,-5.090909,5.306122
10986,400,-30.381233,-1.343147,0.177171,11.020511,-0.043034,0.013456,0.154681,-30.909091,-5.090909,5.306122
11007,399,-30.205276,-1.33357,0.124498,11.233594,-0.040103,0.014655,0.167472,-30.909091,-5.090909,5.306122
11029,398,-30.029327,-1.307234,0.191536,11.039665,-0.044899,0.012124,0.152417,-36.545455,-4.181818,3.673469
11051,397,-29.85337,-1.357512,0.093374,11.27669,-0.03091,0.013856,0.137228,-36.545455,-4.181818,3.673469
11073,396,-29.677421,-1.323994,0.141258,10.977416,-0.0433,0.015455,0.161476,-36.545455,-4.181818,3.673469
11094,395,-29.501464,-1.417367,0.114922,11.104308,-0.038237,0.014389,0.16987,-46.545455,-1.363636,-1.326531
11116,394,-29.325508,-1.300052,0.191536,11.068395,-0.0437,0.012391,0.159877,-46.545455,-1.363636,-1.326531
11137,393,-29.149559,-1.288081,0.069432,11.18571,-0.036372,0.01359,0.155481,-46.545455,-1.363636,-1.326531
11159,392,-28.973602,-1.283292,0.110133,10.965444,-0.046364,0.01359,0.176265,-46.727272,-1.363636,-1.428571
11180,391,-28.797653,-1.400608,0.079009,11.295845,-0.034107,0.012257,0.143357,-46.727272,-1.363636,-1.428571
11202,390,-28.621696,-1.326388,0.052672,11.104308,-0.03464,0.015721,0.125104,-46.727272,-1.363636,-1.428571
11224,389,-28.445747,-1.285686,-0.04549,11.130644,-0.036505,0.017587,0.147221,-46.727272,-1.363636,-1.428571
11246,388,-28.26979,-1.319205,0.186748,10.975021,-0.046098,0.01319,0.1736,-43.81818,-1,0
11267,387,-28.093841,-1.355118,0.052672,11.171345,-0.035573,0.011591,0.152683,-43.81818,-1,0
11289,386,-27.917884,-1.331176,0.100556,10.998963,-0.040636,0.014922,0.154282,-43.81818,-1,0
11310,385,-27.741935,-1.264138,0.016759,11.056424,-0.041168,0.01692,0.16534,-31.636363,-3.272727,5.612245
11332,384,-27.565979,-1.268927,0.134075,10.927137,-0.046098,0.012923,0.167605,-31.636363,-3.272727,5.612245
11353,383,-27.390029,-1.328782,-0.019154,11.068395,-0.035972,0.011591,0.155481,-31.636363,-3.272727,5.612245
11375,382,-27.214073,-1.35033,0.081403,10.941502,-0.041435,0.013456,0.170403,-36.636363,-2.272727,3.877551
11396,381,-27.038124,-1.233014,0.033519,11.070789,-0.043167,0.015988,0.168804,-36.636363,-2.272727,3.877551
11418,380,-26.862167,-1.316811,0.09098,10.975021,-0.0441,0.015188,0.164274,-36.636363,-2.272727,3.877551
11439,379,-26.686218,-1.316811,0.014365,11.075577,-0.037838,0.014655,0.15668,-47.636363,0.636364,-0.918367
11461,378,-26.510261,-1.30484,0.02873,10.886436,-0.046231,0.013323,0.176531,-47.636363,0.636364,-0.918367
11482,377,-26.334312,-1.340753,0.047884,11.022905,-0.041835,0.015055,0.166806,-47.636363,0.636364,-0.918367
11505,376,-26.158355,-1.300052,0.052672,10.979809,-0.03957,0.013723,0.152283,-41.909088,0.454545,0.816326
11526,375,-25.982406,-1.374272,-0.117316,10.91756,-0.040636,0.015988,0.154282,-41.909088,0.454545,0.816326
11548,374,-25.806449,-1.261744,0.021548,10.872071,-0.047164,0.015055,0.183992,-41.909088,0.454545,0.816326
11569,373,-25.6305,-1.319205,0.043096,10.991781,-0.041968,0.012524,0.17027,-32,-1.636363,5.102041
11591,372,-25.454544,-1.33357,0.026336,10.898406,-0.03917,0.009992,0.150018,-32,-1.636363,5.102041
11612,371,-25.278587,-1.283292,-0.134075,10.692505,-0.040103,0.013057,0.153349,-32,-1.636363,5.102041
11634,370,-25.102638,-1.242591,0.004788,10.647015,-0.046364,0.015055,0.181061,-32,-1.363636,7.040816
11655,369,-24.926681,-1.256956,-0.02873,10.630256,-0.043567,0.014389,0.168138,-31.454545,-1.363636,7.040816
11677,368,-24.750732,-1.30484,-0.016759,10.783485,-0.042101,0.014256,0.15255,-31.454545,-1.363636,7.040816
11698,367,-24.574775,-1.280898,-0.184354,10.637438,-0.042234,0.015721,0.153083,-31.454545,-1.363636,7.040816
11720,366,-24.398826,-1.283292,0.007183,10.639833,-0.0441,0.019319,0.16907,-35.81818,-0.636364,4.285715
11741,365,-24.222869,-1.240196,-0.13647,10.64941,-0.041435,0.011591,0.152816,-35.81818,-0.636364,4.285715
11763,364,-24.04692,-1.25935,-0.076614,10.749966,-0.03877,0.010126,0.14309,-35.81818,-0.636364,4.285715
11785,363,-23.870967,-1.254562,-0.1652,10.673352,-0.040369,0.015188,0.145489,-47.636363,2.727273,-0.510204
11807,362,-23.695014,-1.278504,-0.07422,10.670957,-0.046364,0.02185,0.169204,-47.636363,2.727273,-0.510204
11828,361,-23.519062,-1.254562,-0.167594,10.539277,-0.050228,0.016121,0.176665,-47.636363,2.727273,-0.510204
11850,360,-23.343105,-1.244985,-0.059855,10.644621,-0.046364,0.015055,0.175732,-43.181819,2.272727,1.020408
11871,359,-23.167152,-1.225831,-0.205901,10.544065,-0.045165,0.010259,0.162009,-43.181819,2.272727,1.020408
11893,358,-22.991199,-1.292869,-0.134075,10.587161,-0.046498,0.013856,0.170536,-43.181819,2.272727,1.020408
11914,357,-22.815246,-1.209072,-0.237026,10.469844,-0.051161,0.016787,0.178663,-32.181816,0.181818,5.816327
11936,356,-22.639293,-1.221043,-0.105345,10.694899,-0.04783,0.021583,0.18306,-32.181816,0.181818,5.816327
11957,355,-22.46334,-1.252167,-0.215478,10.486604,-0.051694,0.01279,0.174799,-32.181816,0.181818,5.816327
11979,354,-22.287387,-1.256956,-0.124498,10.627861,-0.046764,0.015855,0.171868,-37.81818,1.454545,3.77551
12000,353,-22.111434,-1.127669,-0.301669,10.386048,-0.053692,0.018119,0.16081,-37.81818,1.454545,3.77551
12022,352,-21.935482,-1.249773,-0.172383,10.589554,-0.050228,0.023848,0.163075,-37.81818,1.454545,3.77551
12043,351,-21.759529,-1.21386,-0.299275,10.455479,-0.056757,0.022516,0.146954,-46.363636,3.909091,0.816326
12065,350,-21.583576,-1.312023,-0.227449,10.544065,-0.052893,0.025181,0.163608,-46.363636,3.909091,0.816326
12087,349,-21.407623,-1.242591,-0.304064,10.460268,-0.053426,0.012257,0.16081,-46.363636,3.909091,0.816326
12109,348,-21.23167,-1.235408,-0.155623,10.608708,-0.040103,0.006928,0.156813,-46.363636,3.909091,0.816326
12130,347,-21.055717,-1.261744,-0.234632,10.749966,-0.046098,0.008394,0.13976,-48.636363,4.727272,-0.510204
12152,346,-20.879764,-1.211466,-0.222661,10.737995,-0.045965,0.022116,0.152417,-48.636363,4.727272,-0.510204
12173,345,-20.703811,-1.292869,-0.260968,10.565612,-0.05156,0.018519,0.146155,-48.636363,4.727272,-0.510204
12195,344,-20.527858,-1.290475,-0.208296,10.572795,-0.042234,0.013057,0.144423,-43.454544,4.454545,1.530612
12216,343,-20.351905,-1.228225,-0.337582,10.584766,-0.04783,0.011991,0.136695,-43.454544,4.454545,1.530612
12238,342,-20.175952,-1.288081,-0.220267,10.697294,-0.045565,0.019718,0.158145,-43.454544,4.454545,1.530612
12259,341,-20,-1.252167,-0.263362,10.48421,-0.050495,0.017587,0.159877,-32.363636,1.818182,5.918367
12281,340,-19.824047,-1.225831,-0.191536,10.706871,-0.036372,0.009593,0.135363,-32.363636,1.818182,5.918367
12302,339,-19.648094,-1.247379,-0.342371,10.685322,-0.044233,0.010792,0.108184,-32.363636,1.818182,5.918367
12324,338,-19.472141,-1.240196,-0.270545,10.728418,-0.042101,0.027579,0.136695,-38.181816,3.181818,4.081633
12345,337,-19.296184,-1.309628,-0.306458,10.75236,-0.051161,0.022649,0.152417,-38.181816,3.181818,4.081633
12367,336,-19.120231,-1.268927,-0.198719,10.651803,-0.041568,0.011858,0.16041,-38.181816,3.181818,4.081633
12388,335,-18.944278,-1.271321,-0.356736,10.582372,-0.046897,0.003464,0.139093,-48.181816,6.090909,0.408163
12410,334,-18.768325,-1.276109,-0.220267,10.721236,-0.040369,0.017453,0.148153,-48.181816,6.090909,0.408163
12431,333,-18.592372,-1.256956,-0.395043,10.496181,-0.052626,0.024381,0.142957,-48.181816,6.090909,0.408163
12453,332,-18.416419,-1.292869,-0.28491,10.666169,-0.051827,0.026913,0.155348,-42.636363,6,1.632653
12474,331,-18.240467,-1.292869,-0.459687,10.457874,-0.064884,0.020518,0.147221,-42.636363,6,1.632653
12496,330,-18.064514,-1.312023,-0.344765,10.527305,-0.047164,0.025314,0.157879,-42.636363,6,1.632653
12517,329,-17.888561,-1.355118,-0.481235,10.429143,-0.063285,0.020384,0.149352,-38.545452,4.545454,3.77551
12539,328,-17.712608,-1.302446,-0.323217,10.548853,-0.046098,0.024515,0.157213,-38.545452,4.545454,3.77551
12560,327,-17.536655,-1.326388,-0.459687,10.536882,-0.061553,0.016521,0.150018,-38.545452,4.545454,3.77551
12583,326,-17.360702,-1.331176,-0.268151,10.563219,-0.040236,0.019585,0.151884,-38.545452,4.545454,3.77551
12604,325,-17.184749,-1.295263,-0.47884,10.515335,-0.053159,0.015721,0.135096,-33.272727,4.090909,5.408164
12626,324,-17.008796,-1.249773,-0.299275,10.692505,-0.040103,0.023582,0.139093,-33.272727,4.090909,5.408164
12647,323,-16.832843,-1.264138,-0.416591,10.709264,-0.050228,0.019851,0.136962,-33.272727,4.090909,5.408164
12669,322,-16.65689,-1.264138,-0.272939,10.666169,-0.038504,0.020251,0.148953,-39.818183,5.454545,4.183673
12690,321,-16.480937,-1.197101,-0.3304,10.88883,-0.0437,0.013856,0.151617,-39.818183,5.454545,4.183673
12712,320,-16.304985,-1.216254,-0.301669,10.644621,-0.039303,0.01732,0.15628,-39.818183,5.454545,4.183673
12733,319,-16.129032,-1.283292,-0.354342,10.761937,-0.052626,0.016121,0.148153,-48.727272,8.090909,0.816326
12755,318,-15.95308,-1.30484,-0.304064,10.548853,-0.043433,0.023049,0.146155,-48.727272,8.090909,0.816326
12776,317,-15.777127,-1.276109,-0.318429,10.833764,-0.04783,0.017453,0.140293,-48.727272,8.090909,0.816326
12798,316,-15.601174,-1.197101,-0.253785,10.802639,-0.036905,0.020917,0.136562,-42.363636,7.363636,2.244898
12820,315,-15.425221,-1.156399,-0.318429,10.670957,-0.043034,0.019319,0.132965,-42.363636,7.363636,2.244898
12841,314,-15.249264,-1.18513,-0.23942,10.828975,-0.033974,0.018519,0.127902,-42.363636,7.363636,2.244898
12863,313,-15.073311,-1.187524,-0.323217,10.893618,-0.044366,0.017587,0.118176,-32.818183,5.272727,5.918367
12884,312,-14.897358,-1.189918,-0.263362,10.764331,-0.040502,0.023449,0.111781,-32.818183,5.272727,5.918367
12906,311,-14.721405,-1.209072,-0.244209,10.838552,-0.035573,0.024115,0.110449,-32.818183,5.272727,5.918367
12927,310,-14.545453,-1.156399,-0.292093,10.845734,-0.03091,0.014789,0.102322,-39.090911,6.454545,4.897959
12949,309,-14.3695,-1.189918,-0.294487,10.93432,-0.032775,0.019052,0.096193,-39.090911,6.454545,4.897959
12970,308,-14.193547,-1.175553,-0.260968,10.828975,-0.026513,0.025314,0.092862,-39.090911,6.454545,4.897959
12992,307,-14.017594,-1.18513,-0.258574,10.922348,-0.027712,0.017587,0.088599,-39.090911,7.545455,4.897959
13013,306,-13.841641,-1.137246,-0.25618,10.862494,-0.026646,0.017853,0.084335,-40.909091,7.545455,4.897959
13036,305,-13.665688,-1.163582,-0.251391,10.867282,-0.024648,0.023982,0.078207,-40.909091,7.545455,4.897959
13057,304,-13.489735,-1.16837,-0.234632,10.927137,-0.023449,0.019851,0.070213,-40.909091,7.545455,4.897959
13079,303,-13.313782,-1.209072,-0.263362,10.931925,-0.022649,0.018652,0.064351,-47.909088,9.363636,1.530612
13100,302,-13.137829,-1.187524,-0.265756,10.857706,-0.020251,0.024515,0.058089,-47.909088,9.363636,1.530612
13122,301,-12.961876,-1.21386,-0.277727,10.833764,-0.020917,0.022916,0.052227,-47.909088,9.363636,1.530612
13143,300,-12.785923,-1.130063,-0.272939,10.852917,-0.017054,0.020784,0.044766,-41.636363,8.727273,2.346939
13165,299,-12.609971,-1.132457,-0.260968,10.953474,-0.018119,0.024381,0.041701,-41.636363,8.727273,2.346939
13186,298,-12.434018,-1.170765,-0.265756,10.869676,-0.01692,0.023982,0.037038,-41.636363,8.727273,2.346939
13208,297,-12.258065,-1.177947,-0.246603,10.910378,-0.018119,0.019985,0.033175,-32.818183,6.090909,5.816327
13229,296,-12.082112,-1.161188,-0.19393,10.848129,-0.016121,0.022916,0.030643,-32.818183,6.090909,5.816327
13251,295,-11.906159,-1.23062,-0.287304,10.886436,-0.015988,0.024515,0.027446,-32.818183,6.090909,5.816327
13272,294,-11.730206,-1.137246,-0.308852,10.723629,-0.020384,0.020384,0.038504,-39,7.090909,4.591837
13294,293,-11.554253,-0.785298,-1.09415,9.445126,-0.117643,0.002798,0.101389,-39,7.090909,4.591837
13315,292,-11.3783,-1.33357,-0.371101,10.362106,0.002531,0.035173,0.168404,-39,7.090909,4.591837
13337,291,-11.202347,-1.335965,-0.505177,10.740389,-0.071412,-0.001732,0.185858,-49.090911,10.272727,0.714286
13358,290,-11.026391,-1.158794,-0.13647,10.764331,-0.008527,0.010658,0.18266,-49.090911,10.272727,0.714286
13380,289,-10.850438,-1.199495,-0.23942,10.88883,-0.060753,0.02598,0.154415,-49.090911,10.272727,0.714286
13401,288,-10.674485,-1.108515,-0.208296,10.764331,-0.04743,0.021717,0.129767,-47,10.363636,1.122449
13423,287,-10.498532,-1.175553,-0.248997,10.922348,-0.038104,0.015188,0.102855,-47,10.363636,1.122449
13444,286,-10.322579,-1.161188,-0.282516,10.817004,-0.029444,0.020651,0.075276,-47,10.363636,1.122449
13466,285,-10.146626,-1.374272,-0.68953,10.534488,-0.095793,0.025447,0.065949,-47,10.363636,1.122449
13487,284,-9.970673,-1.237802,-0.531513,10.481816,-0.043034,0.023182,0.09113,-44.81818,9.909091,1.938776
13509,283,-9.79472,-1.163582,-1.01993,10.469844,-0.068348,-0.002531,0.129234,-44.81818,9.909091,1.938776
13530,282,-9.618767,-1.192312,-0.54109,10.101138,-0.018119,0.022649,0.155481,-44.81818,9.909091,1.938776
13552,281,-9.442814,-1.142034,-0.665588,10.357317,-0.061153,0.021051,0.155081,-32.727272,7.181818,6.428572
13573,280,-9.266861,-1.307234,-0.430956,10.802639,-0.03544,0.011591,0.145489,-32.727272,7.181818,6.428572
13595,279,-9.090909,-0.940921,-0.746991,10.00537,-0.081671,0.005862,0.132299,-32.727272,7.181818,6.428572
13616,278,-8.914956,-1.302446,-0.462081,10.670957,-0.029311,0.026113,0.128568,-38,8.545455,5.204082
13638,277,-8.739003,-0.933739,-0.718261,10.180146,-0.065283,0.003464,0.125904,-38,8.545455,5.204082
13659,276,-8.56305,-1.278504,-0.536301,10.443509,-0.0437,0.012391,0.123372,-38,8.545455,5.204082
13681,275,-8.387097,-0.940921,-0.691924,10.405201,-0.047564,0.007061,0.132299,-49.454544,12,1.122449
13702,274,-8.211144,-1.25935,-0.567426,10.400413,-0.033175,0.020917,0.132698,-49.454544,12,1.122449
13724,273,-8.035191,-0.864307,-0.713472,10.517728,-0.049695,0.001199,0.142158,-49.454544,12,1.122449
13745,272,-7.859238,-1.103727,-0.641646,10.441114,-0.039969,0.010658,0.146688,-43.454544,11.090909,2.55102
13767,271,-7.683285,-1.022324,-0.636858,10.48421,-0.041302,0.013989,0.152283,-43.454544,11.090909,2.55102
13788,270,-7.507332,-0.914585,-0.550666,10.445902,-0.027312,0.012657,0.150551,-43.454544,11.090909,2.55102
13811,269,-7.331379,-0.905008,-0.586579,10.551247,-0.053959,0.007594,0.148553,-32.545452,8.545455,6.122449
13832,268,-7.155426,-0.90022,-0.447716,10.328587,-0.021317,0.01319,0.146288,-32.545452,8.545455,6.122449
13854,267,-6.979469,-0.687136,-0.469264,10.354923,-0.040369,0.013723,0.145222,-32.545452,8.545455,6.122449
13875,266,-6.803516,-0.979228,-0.591368,10.338164,-0.036772,0.016121,0.143357,-32.545452,8.818182,7.857143
13897,265,-6.627563,-0.648829,-0.512359,10.386048,-0.048763,0.009326,0.150818,-32,8.818182,7.857143
13918,264,-6.451611,-0.888249,-0.459687,10.400413,-0.028245,0.020118,0.146288,-32,8.818182,7.857143
13940,263,-6.275658,-0.54109,-0.416591,10.323799,-0.037438,0.012391,0.146821,-32,8.818182,7.857143
13961,262,-6.099705,-0.885855,-0.426168,10.493786,-0.034374,0.014389,0.143757,-36.727272,10.363636,5.510204
13983,261,-5.923752,-1.051055,-0.428562,10.544065,-0.041035,0.015721,0.14349,-36.727272,10.363636,5.510204
14004,260,-5.747799,-0.821211,-0.354342,10.424355,-0.024914,0.018919,0.132032,-36.727272,10.363636,5.510204
14026,259,-5.571846,-0.852336,-0.469264,10.455479,-0.053559,0.011325,0.140959,-49.454544,14.090909,1.22449
14047,258,-5.395893,-1.127669,-0.407014,11.094731,-0.040502,0.010658,0.160544,-49.454544,14.090909,1.22449
14069,257,-5.21994,-0.893037,-0.347159,10.443509,-0.039037,0.016387,0.174533,-49.454544,14.090909,1.22449
14090,256,-5.043987,-1.067814,-0.387861,10.776302,-0.023449,0.029711,0.155081,-43.81818,13.636364,2.755102
14112,255,-4.868034,-0.648829,-0.438139,10.242395,-0.04743,0.015721,0.144156,-43.81818,13.636364,2.755102
14133,254,-4.692081,-0.921768,-0.392649,10.793062,-0.040636,0.010126,0.136695,-43.81818,13.636364,2.755102
14155,253,-4.516129,-1.146823,-0.304064,10.733206,-0.0433,0.01279,0.143623,-32.454544,10.636364,6.22449
14176,252,-4.340176,-1.027112,-0.304064,10.951079,-0.033574,0.016254,0.146554,-32.454544,10.636364,6.22449
14198,251,-4.164223,-0.962469,-0.411803,10.601526,-0.052493,0.014522,0.164541,-32.454544,10.636364,6.22449
14219,250,-3.98827,-1.256956,-0.299275,11.145009,-0.033708,0.020384,0.160544,-38.363636,12.090909,5.306122
14242,249,-3.812317,-0.905008,-0.335188,10.412384,-0.041302,0.019319,0.145755,-38.363636,12.090909,5.306122
14263,248,-3.636364,-1.182736,-0.325611,11.130644,-0.037305,0.015588,0.135096,-38.363636,12.090909,5.306122
14285,247,-3.460411,-0.823605,-0.272939,10.704476,-0.043567,0.006528,0.154282,-46.81818,15.181819,3.061224
14306,246,-3.284458,-1.041478,-0.253785,10.982204,-0.030643,0.020118,0.15668,-46.81818,15.181819,3.061224
14328,245,-3.108505,-1.120486,-0.3304,10.642227,-0.041835,0.022383,0.14842,-46.81818,15.181819,3.061224
14349,244,-2.932548,-1.034295,-0.225055,10.931925,-0.034374,0.014789,0.139893,-46.81818,15.181819,3.061224
14371,243,-2.756596,-0.952892,-0.301669,10.754755,-0.043833,0.007461,0.15215,-49.909091,16.727273,1.326531
14392,242,-2.580643,-1.122881,-0.275333,10.869676,-0.032242,0.020917,0.14762,-49.909091,16.727273,1.326531
14414,241,-2.40469,-0.888249,-0.289698,10.735601,-0.0437,0.021051,0.156547,-49.909091,16.727273,1.326531
14435,240,-2.228737,-1.127669,-0.301669,10.857706,-0.037305,0.015588,0.154149,-43.545455,15.363637,2.959184
14457,239,-2.052784,-0.866701,-0.277727,10.627861,-0.042234,0.012257,0.151084,-43.545455,15.363637,2.959184
14478,238,-1.876831,-1.000776,-0.268151,10.783485,-0.033974,0.016787,0.142691,-43.545455,15.363637,2.959184
14500,237,-1.700878,-0.993594,-0.35913,10.718841,-0.044766,0.015721,0.152017,-32.272727,12.181818,6.734694
14522,236,-1.524925,-0.921768,-0.260968,10.670957,-0.035972,0.019319,0.150018,-32.272727,12.181818,6.734694
14544,235,-1.348972,-0.890643,-0.35913,10.398018,-0.042634,0.019185,0.134697,-32.272727,12.181818,6.734694
14565,234,-1.173019,-1.039083,-0.296881,10.785879,-0.037038,0.016387,0.136962,-38.272727,13.818182,5.306122
14587,233,-0.997066,-0.818817,-0.35913,10.453085,-0.043833,0.014655,0.166139,-38.272727,13.818182,5.306122
14608,232,-0.821114,-0.914585,-0.220267,10.749966,-0.037704,0.028112,0.163608,-38.272727,13.818182,5.306122
14630,231,-0.645161,-0.92895,-0.349553,10.515335,-0.056757,0.029711,0.154548,-49.363636,18.181818,2.142857
14651,230,-0.469208,-0.76375,-0.344765,10.199299,-0.023982,0.031709,0.155481,-49.363636,18.181818,2.142857
14673,229,-0.293255,-0.828394,-0.332794,10.721236,-0.047564,0.003997,0.166672,-49.363636,18.181818,2.142857
14694,228,-0.117302,-1.082179,-0.217872,10.826581,-0.033041,0.013057,0.146554,-43.181819,17.181818,3.163265
14716,227,0.058651,-0.78051,-0.213084,10.790668,-0.027446,0.010259,0.155747,-43.181819,17.181818,3.163265
14737,226,0.234604,-1.034295,-0.25618,10.855311,-0.036905,0.006395,0.167072,-43.181819,17.181818,3.163265
14759,225,0.410557,-0.732626,-0.225055,10.879253,-0.033574,0.003864,0.176665,-37.81818,15.363637,4.693878
14780,224,0.58651,-0.955286,-0.275333,10.75236,-0.032508,0.016121,0.148819,-37.81818,15.363637,4.693878
14802,223,0.762463,-1.146823,-0.234632,10.754755,-0.034507,0.004263,0.159744,-37.81818,15.363637,4.693878
14823,222,0.938416,-0.905008,-0.172383,10.915166,-0.032642,0.0004,0.168404,-37.81818,15.363637,4.693878
14845,221,1.114372,-1.101333,-0.172383,10.929532,-0.03051,0.009326,0.168671,-32.363636,14.636363,6.020408
14866,220,1.290325,-0.876278,-0.213084,10.773908,-0.029178,0.014789,0.158678,-32.363636,14.636363,6.020408
14888,219,1.466278,-0.993594,-0.222661,10.886436,-0.035306,-0.000266,0.177331,-32.363636,14.636363,6.020408
14911,218,1.642231,-0.787692,-0.174777,10.809822,-0.035839,0.004796,0.16907,-39.818183,16.363636,5
14932,217,1.818184,-0.948104,-0.227449,10.840946,-0.028911,0.01279,0.15708,-39.818183,16.363636,5
14954,216,1.994137,-1.228225,-0.275333,10.939108,-0.03011,0.011591,0.152283,-39.818183,16.363636,5
14975,215,2.17009,-0.861913,-0.227449,10.977416,-0.035972,-0.004397,0.174,-49.181819,20.272727,2.346939
14997,214,2.346043,-1.144428,-0.268151,10.903195,-0.032775,0.01279,0.15668,-49.181819,20.272727,2.346939
15018,213,2.521996,-0.845153,-0.220267,10.872071,-0.025047,0.014123,0.147487,-49.181819,20.272727,2.346939
15040,212,2.697948,-1.063026,-0.304064,10.891224,-0.030243,0.005063,0.14802,-42.272727,19,3.469388
15061,211,2.873901,-1.13964,-0.241814,10.910378,-0.034107,-0.000799,0.16574,-42.272727,19,3.469388
15083,210,3.049854,-0.991199,-0.272939,10.848129,-0.030243,0.012257,0.145622,-42.272727,19,3.469388
15104,209,3.225807,-1.127669,-0.318429,10.773908,-0.03091,0.014789,0.147753,-32.090908,15.909091,7.040816
15126,208,3.40176,-0.940921,-0.323217,10.79785,-0.041968,0.009193,0.156413,-32.090908,15.909091,7.040816
15147,207,3.577713,-0.955286,-0.328006,10.788273,-0.0437,0.012124,0.164674,-32.090908,15.909091,7.040816
15169,206,3.753666,-0.785298,-0.3304,10.757148,-0.03957,0.021051,0.152017,-37.545455,17.454545,6.122449
15190,205,3.929619,-0.885855,-0.328006,10.809822,-0.040502,0.01279,0.16534,-37.545455,17.454545,6.122449
15212,204,4.105572,-0.723049,-0.311246,10.745178,-0.045698,0.009326,0.163608,-37.545455,17.454545,6.122449
15233,203,4.281525,-0.814029,-0.280122,10.838552,-0.037704,0.01732,0.153749,-37.545455,17.454545,6.122449
15255,202,4.457478,-1.06542,-0.325611,10.793062,-0.038904,0.015188,0.146421,-37.545455,17.454545,6.122449
15276,201,4.63343,-0.694318,-0.292093,10.872071,-0.042767,0.005596,0.174533,-37.545455,17.454545,6.122449
15298,200,4.809383,-0.909797,-0.323217,10.668563,-0.043034,0.014522,0.165207,-37.545455,17.454545,6.122449
15319,199,4.985336,-0.505177,-0.299275,10.879253,-0.037971,0.017187,0.162276,-48.818183,22.272726,2.346939
15341,198,5.161289,-0.837971,-0.361524,10.759543,-0.043966,0.007194,0.166406,-48.818183,22.272726,2.346939
15362,197,5.337246,-1.022324,-0.292093,10.965444,-0.046364,-0.000799,0.187323,-48.818183,22.272726,2.346939
15384,196,5.513199,-0.770933,-0.316035,10.850522,-0.046897,0.013989,0.171202,-41.81818,20.818181,3.571429
15405,195,5.689152,-0.902614,-0.361524,10.982204,-0.0429,0.015322,0.175466,-41.81818,20.818181,3.571429
15427,194,5.865105,-0.68953,-0.339977,10.754755,-0.047697,0.008394,0.184392,-41.81818,20.818181,3.571429
15448,193,6.041058,-0.861913,-0.349553,10.970232,-0.047697,0.007861,0.190787,-31.363636,17.545454,7.448979
15470,192,6.21701,-1.125275,-0.390255,10.809822,-0.046764,0.02225,0.166006,-31.363636,17.545454,7.448979
15491,191,6.392963,-0.842759,-0.37589,11.00854,-0.041435,0.016654,0.1736,-31.363636,17.545454,7.448979
15513,190,6.568916,-1.041478,-0.373495,10.84334,-0.047697,0.007594,0.183859,-38.090908,19.454544,5.816327
15534,189,6.744869,-0.778116,-0.354342,10.955867,-0.039703,0.020118,0.17893,-38.090908,19.454544,5.816327
15556,188,6.920822,-1.005565,-0.35913,10.817004,-0.041968,0.022783,0.153216,-38.090908,19.454544,5.816327
15577,187,7.096775,-0.641646,-0.380678,10.939108,-0.040103,0.009992,0.164274,-49.454544,24.181818,2.040816
15599,186,7.272728,-0.940921,-0.371101,10.824187,-0.045565,0.008527,0.166672,-49.454544,24.181818,2.040816
15620,185,7.448681,-1.134852,-0.373495,11.051635,-0.036505,0.020651,0.153749,-49.454544,24.181818,2.040816
15642,184,7.624634,-0.885855,-0.385467,10.893618,-0.036905,0.020651,0.139893,-47.909088,24.363636,1.938776
15663,183,7.800587,-1.01993,-0.395043,11.020511,-0.03917,0.004663,0.159078,-47.909088,24.363636,1.938776
15685,182,7.97654,-0.744597,-0.366313,10.78109,-0.0441,0.011991,0.165074,-47.909088,24.363636,1.938776
15706,181,8.152493,-0.952892,-0.354342,11.089942,-0.039969,0.021051,0.166006,-47.909088,24.363636,1.938776
15728,180,8.328448,-1.106121,-0.416591,10.862494,-0.043567,0.019052,0.162276,-45.181816,23.818181,2.959184
15749,179,8.504401,-0.785298,-0.356736,11.05403,-0.043833,0.007727,0.176132,-45.181816,23.818181,2.959184
15771,178,8.680354,-1.034295,-0.392649,10.862494,-0.043034,0.017853,0.157346,-45.181816,23.818181,2.959184
15792,177,8.856307,-0.790087,-0.397438,11.018116,-0.037172,0.017587,0.159078,-30.636363,19.272726,7.653061
15814,176,9.032259,-0.972046,-0.378284,10.893618,-0.045432,0.011724,0.164141,-30.636363,19.272726,7.653061
15836,175,9.208212,-1.079785,-0.373495,11.030088,-0.042368,0.010792,0.171335,-30.636363,19.272726,7.653061
15858,174,9.384165,-0.842759,-0.368707,10.879253,-0.041701,0.020784,0.155214,-36,21.181818,6.22449
15879,173,9.560118,-1.036689,-0.397438,11.027693,-0.042368,0.012257,0.164407,-36,21.181818,6.22449
15901,172,9.736071,-0.814029,-0.366313,10.749966,-0.041168,0.013723,0.165473,-36,21.181818,6.22449
15922,171,9.912024,-0.976834,-0.378284,11.010934,-0.045165,0.018786,0.157879,-49.272727,25.81818,1.938776
15944,170,10.087977,-0.773327,-0.368707,10.793062,-0.03917,0.016121,0.154149,-49.272727,25.81818,1.938776
15965,169,10.26393,-0.840365,-0.43335,11.030088,-0.049029,0.007861,0.174666,-49.272727,25.81818,1.938776
15987,168,10.439885,-1.098939,-0.383072,10.869676,-0.042368,0.020384,0.159744,-42.181816,24.727272,3.571429
16008,167,10.615838,-0.785298,-0.428562,10.953474,-0.040103,0.020251,0.153216,-42.181816,24.727272,3.571429
16030,166,10.79179,-0.921768,-0.392649,10.788273,-0.041568,0.005729,0.157479,-42.181816,24.727272,3.571429
16051,165,10.967743,-1.024718,-0.464475,11.073184,-0.047297,0.008127,0.1736,-29.636362,20.727272,6.734694
16073,164,11.143696,-0.859518,-0.344765,10.788273,-0.039436,0.026913,0.15175,-29.636362,20.727272,6.734694
16094,163,11.319649,-0.924162,-0.462081,10.955867,-0.042634,0.013723,0.149219,-29.636362,20.727272,6.734694
16116,162,11.495602,-1.09415,-0.407014,10.896013,-0.040103,0.006662,0.156946,-29.636362,20.545454,8.265307
16137,161,11.671555,-0.802058,-0.435745,10.910378,-0.043966,0.017054,0.15628,-29.272726,20.545454,8.265307
16159,160,11.847508,-1.051055,-0.411803,10.826581,-0.031975,0.028911,0.127369,-29.272726,20.545454,8.265307
16181,159,12.023461,-1.077391,-0.466869,11.085154,-0.045698,0.002531,0.146421,-29.272726,20.545454,8.265307
16203,158,12.199414,-0.916979,-0.373495,10.857706,-0.043966,0.011991,0.170936,-34.090908,22.636362,6.326531
16224,157,12.375369,-1.01993,-0.414197,11.032482,-0.046764,0.023715,0.166273,-34.090908,22.636362,6.326531
16246,156,12.551321,-1.225831,-0.40462,10.862494,-0.040369,0.016121,0.146155,-34.090908,22.636362,6.326531
16267,155,12.727274,-0.871489,-0.447716,11.0253,-0.04743,0.00453,0.16121,-48.363636,28.181818,2.44898
16289,154,12.903227,-1.060631,-0.402226,10.900801,-0.041035,0.019319,0.161077,-48.363636,28.181818,2.44898
16310,153,13.07918,-1.199495,-0.366313,10.996569,-0.042101,0.021184,0.151884,-48.363636,28.181818,2.44898
16332,152,13.255133,-0.926556,-0.464475,10.845734,-0.039703,0.011458,0.144423,-42.363636,26.636365,3.77551
16353,151,13.431086,-0.984017,-0.438139,11.05403,-0.046897,0.00493,0.160011,-42.363636,26.636365,3.77551
16375,150,13.607039,-1.16837,-0.390255,10.912772,-0.037838,0.025714,0.147887,-42.363636,26.636365,3.77551
16396,149,13.782992,-0.90022,-0.466869,11.039665,-0.048363,0.01692,0.154948,-28.727272,22.272726,7.551021
16419,148,13.958945,-1.060631,-0.426168,10.972627,-0.041168,0.010925,0.157479,-28.727272,22.272726,7.551021
16440,147,14.134898,-0.70629,-0.486023,11.085154,-0.049429,0.011058,0.168538,-28.727272,22.272726,7.551021
16462,146,14.310851,-0.909797,-0.363919,10.96305,-0.040236,0.024648,0.150418,-35.545452,24.454545,6.428572
16483,145,14.486805,-1.00317,-0.483629,11.133038,-0.050894,0.012657,0.163342,-35.545452,24.454545,6.428572
16505,144,14.662758,-0.802058,-0.414197,10.922348,-0.041435,0.014123,0.171602,-35.545452,24.454545,6.428572
16526,143,14.838711,-0.895431,-0.471658,11.022905,-0.052893,0.013989,0.172668,-46.727272,28.90909,3.469388
16548,142,15.014664,-1.091756,-0.411803,10.891224,-0.041701,0.019985,0.157746,-46.727272,28.90909,3.469388
16569,141,15.190617,-0.732626,-0.500388,11.061212,-0.051827,0.010126,0.169603,-46.727272,28.90909,3.469388
16591,140,15.36657,-0.92895,-0.414197,10.879253,-0.040369,0.01692,0.166139,-46.727272,28.90909,3.469388
16612,139,15.542523,-1.041478,-0.471658,11.020511,-0.049562,0.015455,0.154149,-46.727272,28.90909,3.469388
16634,138,15.718476,-0.88346,-0.454898,10.826581,-0.041035,0.011458,0.158812,-46.727272,28.90909,3.469388
16656,137,15.894429,-0.902614,-0.4956,10.975021,-0.051427,0.00866,0.174933,-46.727272,28.90909,3.469388
16678,136,16.070381,-1.108515,-0.383072,10.845734,-0.03957,0.025714,0.150418,-42.545455,28.727272,3.77551
16699,135,16.246334,-0.806846,-0.56982,10.924743,-0.04823,0.013323,0.137495,-42.545455,28.727272,3.77551
16721,134,16.422286,-0.986411,-0.438139,10.84334,-0.03544,0.006928,0.153216,-42.545455,28.727272,3.77551
16742,133,16.598241,-1.046266,-0.497994,11.015723,-0.053825,0.013723,0.175466,-27.636363,23.818181,7.755102
16764,132,16.774194,-0.926556,-0.390255,10.931925,-0.035706,0.024515,0.164141,-27.636363,23.818181,7.755102
16785,131,16.950147,-0.948104,-0.557849,11.051635,-0.052093,0.005729,0.163475,-27.636363,23.818181,7.755102
16807,130,17.1261,-1.132457,-0.395043,10.948685,-0.040103,0.008793,0.170003,-33.909091,26.090908,6.530612
16828,129,17.302053,-0.814029,-0.565032,10.970232,-0.05276,0.014389,0.17027,-33.909091,26.090908,6.530612
16850,128,17.478006,-1.043872,-0.445322,10.838552,-0.039836,0.018652,0.148953,-33.909091,26.090908,6.530612
16871,127,17.653959,-0.787692,-0.600945,11.140221,-0.051827,0.006795,0.164141,-47.636363,31.181818,2.959184
16893,126,17.829912,-0.936133,-0.40462,10.96305,-0.038104,0.01772,0.174,-47.636363,31.181818,2.959184
16916,125,18.005865,-1.043872,-0.514753,11.046847,-0.058622,0.01279,0.159078,-47.636363,31.181818,2.959184
16937,124,18.181818,-0.799663,-0.505177,10.869676,-0.039836,0.009726,0.153083,-40.454544,29.272726,4.081633
16959,123,18.35777,-0.866701,-0.4956,11.087549,-0.052227,0.00906,0.169337,-40.454544,29.272726,4.081633
16980,122,18.533725,-1.036689,-0.435745,10.936714,-0.041835,0.023049,0.162142,-40.454544,29.272726,4.081633
17002,121,18.709678,-0.804452,-0.572214,11.094731,-0.051694,0.017187,0.15668,-29.909091,26.272726,6.428572
17023,120,18.885631,-0.919373,-0.490811,10.891224,-0.038237,0.009193,0.151217,-29.909091,26.272726,6.428572
17045,119,19.061584,-0.976834,-0.526724,11.08276,-0.057423,0.009726,0.167338,-29.909091,26.272726,6.428572
17066,118,19.237537,-0.78051,-0.464475,10.891224,-0.041701,0.023182,0.157746,-29.909091,26.272726,6.428572
17088,117,19.41349,-0.90022,-0.545878,11.164163,-0.050095,0.005995,0.154948,-25.81818,24.818181,8.061224
17109,116,19.589443,-1.089362,-0.505177,11.010934,-0.035839,0.008394,0.154015,-25.81818,24.818181,8.061224
17131,115,19.765396,-0.775721,-0.608127,11.123461,-0.062086,0.007461,0.167472,-25.81818,24.818181,8.061224
17152,114,19.941349,-0.916979,-0.521936,10.93432,-0.038504,0.020384,0.146288,-32.909091,27.545455,6.632653
17175,113,20.117301,-1.051055,-0.596156,11.159375,-0.063152,0.003864,0.153882,-32.909091,27.545455,6.632653
17196,112,20.293254,-0.792481,-0.565032,10.970232,-0.040636,0.007061,0.164407,-32.909091,27.545455,6.632653
17218,111,20.469207,-0.931344,-0.718261,11.135433,-0.059688,-0.000533,0.174,-47.090908,32.636363,2.959184
17239,110,20.645162,-1.103727,-0.521936,10.967839,-0.038637,0.013057,0.167738,-47.090908,32.636363,2.959184
17261,109,20.821115,-0.826,-0.703895,11.18571,-0.069547,0.007328,0.177864,-47.090908,32.636363,2.959184
17282,108,20.997068,-0.972046,-0.572214,10.936714,-0.041035,0.01319,0.184525,-39.909091,31.363636,4.387755
17304,107,21.173021,-1.079785,-0.648829,11.137826,-0.065816,0.014389,0.179995,-39.909091,31.363636,4.387755
17325,106,21.348974,-0.830788,-0.562637,10.965444,-0.045565,0.018119,0.175865,-39.909091,31.363636,4.387755
17347,105,21.524927,-0.993594,-0.653617,11.125856,-0.063418,0.006928,0.181594,-25.636363,26.636365,7.551021
17368,104,21.70088,-0.720655,-0.567426,10.783485,-0.037971,0.016121,0.168671,-25.636363,26.636365,7.551021
17390,103,21.876832,-0.830788,-0.739808,11.056424,-0.063818,0.011724,0.156147,-25.636363,26.636365,7.551021
17411,102,22.052785,-0.993594,-0.581791,10.912772,-0.03504,0.011724,0.168271,-33.181819,29,6.836735
17434,101,22.228738,-0.725443,-0.751779,11.05403,-0.064351,0.009193,0.181194,-33.181819,29,6.836735
17455,100,22.404691,-0.90022,-0.591368,10.867282,-0.040369,0.023182,0.164541,-33.181819,29,6.836735
17477,99,22.580644,-1.055843,-0.715866,11.070789,-0.067548,0.009593,0.16041,-41.090908,32.272727,5.612245
17498,98,22.756599,-0.804452,-0.634463,10.821792,-0.03504,0.008127,0.174799,-41.090908,32.272727,5.612245
17520,97,22.932552,-0.924162,-0.677559,11.152192,-0.066749,0.009326,0.179196,-41.090908,32.272727,5.612245
17541,96,23.108505,-0.778116,-0.581791,10.826581,-0.042101,0.023315,0.160677,-41.090908,32.272727,5.612245
17563,95,23.284458,-0.962469,-0.727837,11.125856,-0.065949,0.008394,0.164141,-46.090908,34.363636,3.571429
17584,94,23.460411,-1.108515,-0.4956,10.982204,-0.030643,0.013856,0.171735,-46.090908,34.363636,3.571429
17606,93,23.636363,-0.845153,-0.703895,11.113884,-0.063285,0.013989,0.163208,-46.090908,34.363636,3.571429
17627,92,23.812316,-1.043872,-0.634463,10.943897,-0.039836,0.017853,0.151484,-36.909091,32.272727,4.897959
17649,91,23.988269,-0.802058,-0.715866,11.145009,-0.055824,0.009992,0.167605,-36.909091,32.272727,4.897959
17670,90,24.164222,-1.007959,-0.536301,10.910378,-0.037038,0.021317,0.161077,-36.909091,32.272727,4.897959
17692,89,24.340175,-0.787692,-0.761356,11.063607,-0.061953,0.01692,0.145489,-24.545455,28.363636,7.857143
17713,88,24.516128,-0.936133,-0.617704,10.893618,-0.035972,0.013057,0.145089,-24.545455,28.363636,7.857143
17735,87,24.692081,-1.096544,-0.648829,11.118673,-0.053559,0.006262,0.162276,-24.545455,28.363636,7.857143
17756,86,24.868034,-0.873884,-0.632069,10.78109,-0.033708,0.015721,0.157879,-32.545452,31.090909,6.632653
17778,85,25.043987,-0.991199,-0.687136,11.094731,-0.053559,0.008394,0.14762,-32.545452,31.090909,6.632653
17799,84,25.219942,-0.821211,-0.656011,10.78109,-0.033974,0.012657,0.142424,-32.545452,31.090909,6.632653
17821,83,25.395895,-0.998382,-0.739808,11.106702,-0.056224,0.014123,0.150951,-45.909091,36,3.469388
17842,82,25.571847,-1.120486,-0.612916,10.989386,-0.039436,0.022383,0.150818,-45.909091,36,3.469388
17864,81,25.7478,-0.940921,-0.646434,11.116279,-0.056357,0.019052,0.158279,-45.909091,36,3.469388
17885,80,25.923753,-1.082179,-0.622492,10.943897,-0.046631,0.019585,0.153349,-37.181819,34.181819,4.387755
17907,79,26.099706,-0.957681,-0.718261,11.104308,-0.050228,0.015721,0.162009,-37.181819,34.181819,4.387755
17928,78,26.275661,-1.046266,-0.627281,10.943897,-0.044366,0.020917,0.147487,-37.181819,34.181819,4.387755
17950,77,26.451614,-0.90022,-0.720655,11.080366,-0.053959,0.019851,0.150551,-37.181819,34.181819,4.387755
17971,76,26.627567,-0.998382,-0.667982,10.979809,-0.047564,0.021317,0.154282,-37.181819,34.181819,4.387755
17993,75,26.80352,-1.086968,-0.610521,11.020511,-0.049296,0.016654,0.158412,-37.181819,34.181819,4.387755
18014,74,26.979473,-0.972046,-0.684742,10.876859,-0.045832,0.020384,0.149619,-37.181819,34.181819,4.387755
18036,73,27.155426,-1.024718,-0.665588,10.970232,-0.049429,0.014789,0.151617,-24,30.000001,8.061224
18057,72,27.331378,-0.967257,-0.682347,10.88883,-0.047164,0.024381,0.147887,-24,30.000001,8.061224
18079,71,27.507331,-1.029507,-0.665588,11.027693,-0.050628,0.016787,0.150818,-24,30.000001,8.061224
18100,70,27.683284,-0.940921,-0.73502,10.838552,-0.047164,0.022516,0.150818,-32.090908,32.181816,7.346939
18122,69,27.859237,-0.979228,-0.658405,11.094731,-0.048896,0.017986,0.154948,-32.090908,32.181816,7.346939
18143,68,28.03519,-0.924162,-0.727837,10.862494,-0.045565,0.025447,0.136562,-32.090908,32.181816,7.346939
18165,67,28.211143,-0.957681,-0.70629,11.006146,-0.048896,0.01692,0.142957,-45.090908,37.181819,3.77551
18186,66,28.387096,-1.120486,-0.632069,10.943897,-0.045299,0.019185,0.151884,-45.090908,37.181819,3.77551
18208,65,28.563049,-0.924162,-0.713472,10.955867,-0.053026,0.018386,0.161743,-45.090908,37.181819,3.77551
18229,64,28.739002,-1.103727,-0.651223,10.910378,-0.042767,0.023182,0.130433,-36.454547,35.181816,5
18251,63,28.914955,-0.964863,-0.837971,10.994174,-0.049429,0.019851,0.136828,-36.454547,35.181816,5
18272,62,29.090908,-0.995988,-0.646434,10.907983,-0.041035,0.019052,0.152417,-36.454547,35.181816,5
18294,61,29.266862,-0.859518,-0.792481,10.936714,-0.056757,0.018253,0.156547,-21.90909,30.272727,8.367347
18315,60,29.442815,-0.993594,-0.68953,10.862494,-0.038504,0.024115,0.128168,-21.90909,30.272727,8.367347
18337,59,29.618768,-1.09415,-0.718261,10.977416,-0.053959,0.010658,0.133764,-21.90909,30.272727,8.367347
18358,58,29.794721,-0.94571,-0.670376,10.852917,-0.030243,0.021184,0.137628,-22.545454,30.636363,8.979592
18380,57,29.970674,-1.06542,-0.754173,11.034876,-0.057556,0.014522,0.131366,-22.545454,30.636363,8.979592
18401,56,30.146627,-0.859518,-0.742202,10.788273,-0.043833,0.01732,0.14762,-22.545454,30.636363,8.979592
18423,55,30.322582,-1.036689,-0.653617,11.00854,-0.047963,0.020651,0.159478,-22.545454,30.636363,8.979592
18444,54,30.498535,-1.192312,-0.672771,10.912772,-0.052093,0.024781,0.135363,-26,32,8.061224
18466,53,30.674488,-1.015141,-0.761356,10.975021,-0.046098,0.019185,0.138694,-26,32,8.061224
18487,52,30.85044,-0.916979,-0.806846,10.771513,-0.046231,0.018786,0.154415,-26,32,8.061224
18509,51,31.026393,-1.031901,-0.715866,10.884041,-0.049029,0.02225,0.162675,-44.363636,39,3.877551
18530,50,31.202346,-0.943315,-0.775721,10.737995,-0.049162,0.029444,0.133098,-44.363636,39,3.877551
18552,49,31.378299,-1.010353,-0.799663,10.864888,-0.047697,0.018786,0.136429,-44.363636,39,3.877551
18573,48,31.554252,-1.149217,-0.687136,10.869676,-0.0437,0.018919,0.153083,-36.909091,36.636363,5.408164
18595,47,31.730205,-0.979228,-0.775721,10.886436,-0.056357,0.019851,0.164141,-36.909091,36.636363,5.408164
18616,46,31.906158,-1.084573,-0.720655,10.819398,-0.047697,0.025047,0.133897,-36.909091,36.636363,5.408164
18638,45,32.082111,-1.015141,-0.866701,10.91756,-0.053692,0.020118,0.13856,-20.818181,31.545454,8.469388
18659,44,32.258064,-1.063026,-0.742202,10.907983,-0.0433,0.017853,0.153616,-20.818181,31.545454,8.469388
18681,43,32.434017,-0.972046,-0.85473,10.898406,-0.053825,0.021051,0.157213,-20.818181,31.545454,8.469388
18702,42,32.60997,-1.000776,-0.770933,10.776302,-0.054758,0.024115,0.145355,-28.363636,33.818183,7.857143
18724,41,32.785923,-1.022324,-0.80924,10.848129,-0.051827,0.017453,0.153083,-28.363636,33.818183,7.857143
18745,40,32.961875,-0.986411,-0.802058,10.76912,-0.0433,0.020784,0.142957,-28.363636,33.818183,7.857143
18767,39,33.137828,-1.00317,-0.866701,10.862494,-0.057956,0.014655,0.146554,-38.81818,37.545455,6.428572
18788,38,33.313781,-0.933739,-0.816423,10.788273,-0.045698,0.020917,0.14802,-38.81818,37.545455,6.428572
18810,37,33.489734,-0.995988,-0.861913,10.857706,-0.056757,0.016521,0.153482,-38.81818,37.545455,6.428572
18831,36,33.665687,-1.146823,-0.713472,10.764331,-0.041302,0.024515,0.130433,-38.81818,37.545455,6.428572
18853,35,33.841644,-0.993594,-0.905008,10.876859,-0.060887,0.013723,0.141092,-44.090908,39.727272,4.795918
18874,34,34.017593,-1.031901,-0.739808,10.84334,-0.045299,0.015322,0.156946,-44.090908,39.727272,4.795918
18896,33,34.19355,-0.936133,-0.921768,10.977416,-0.066616,0.014123,0.160677,-44.090908,39.727272,4.795918
18917,32,34.369503,-1.022324,-0.730232,10.821792,-0.040902,0.021051,0.122306,-33.818183,37.636363,5.510204
18939,31,34.545455,-0.981623,-0.984017,10.948685,-0.062485,0.014522,0.127502,-33.818183,37.636363,5.510204
18960,30,34.721408,-1.022324,-0.816423,10.812215,-0.04743,0.01279,0.166672,-33.818183,37.636363,5.510204
18982,29,34.897361,-1.024718,-0.80924,11.001358,-0.067948,0.012657,0.167871,-19.181818,32.818183,8.469388
19003,28,35.073314,-0.876278,-0.912191,10.81461,-0.054358,-0.002265,0.138694,-19.181818,32.818183,8.469388
19025,27,35.249267,-1.017536,-1.01993,10.989386,-0.072877,-0.005596,0.139626,-19.181818,32.818183,8.469388
19046,26,35.42522,-1.235408,-0.823605,10.896013,-0.0429,-0.000666,0.141492,-27.818181,35.181816,7.653061
19068,25,35.601173,-1.070208,-0.967257,11.099519,-0.071678,-0.001732,0.147221,-27.818181,35.181816,7.653061
19089,24,35.777126,-1.237802,-0.816423,10.884041,-0.049695,0.015721,0.158279,-27.818181,35.181816,7.653061
19111,23,35.953079,-1.130063,-0.969652,11.044453,-0.069813,0.023315,0.183326,-43.181819,40.81818,4.897959
19132,22,36.129032,-1.254562,-0.792481,10.836157,-0.045698,0.027979,0.170802,-43.181819,40.81818,4.897959
19154,21,36.304985,-1.355118,-0.914585,11.061212,-0.073943,0.010392,0.166273,-43.181819,40.81818,4.897959
19176,20,36.480937,-1.154005,-0.790087,10.826581,-0.037704,0.015188,0.169204,-33.727272,38.363636,5.612245
19198,19,36.65689,-1.254562,-0.936133,11.113884,-0.074476,0.012124,0.180528,-33.727272,38.363636,5.612245
19220,18,36.832843,-1.060631,-0.749385,10.800245,-0.03504,0.030776,0.158545,-33.727272,38.363636,5.612245
19241,17,37.008796,-1.163582,-1.039083,11.03727,-0.088599,0.017187,0.155614,-28.727272,37,5.918367
19263,16,37.184749,-1.338359,-0.663194,10.900801,-0.031043,0.02145,0.16534,-28.727272,37,5.918367
19284,15,37.360702,-1.161188,-1.000776,10.979809,-0.075142,0.015455,0.167738,-28.727272,37,5.918367
19306,14,37.536655,-1.309628,-0.723049,10.848129,-0.038237,0.023715,0.155481,-28.727272,37,5.918367
19327,13,37.712608,-1.165976,-1.098939,11.03727,-0.079139,0.01772,0.165606,-18.818181,34.181819,8.265307
19349,12,37.888565,-1.280898,-0.730232,10.821792,-0.032908,0.023182,0.158412,-18.818181,34.181819,8.265307
19370,11,38.064517,-1.115698,-1.055843,10.960656,-0.077674,0.016387,0.150951,-18.818181,34.181819,8.265307
19392,10,38.24047,-1.192312,-0.754173,10.817004,-0.037571,0.020384,0.154149,-28,36.818183,7.653061
19413,9,38.416423,-1.302446,-0.933739,10.93432,-0.071145,0.014789,0.166406,-28,36.818183,7.653061
19435,8,38.592376,-1.142034,-0.773327,10.88883,-0.033974,0.023848,0.146288,-28,36.818183,7.653061
19456,7,38.768329,-1.046266,-1.189918,10.979809,-0.081005,0.016654,0.142557,-41.909088,41.909088,5.102041
19478,6,38.944282,-1.156399,-0.799663,10.790668,-0.033574,0.017453,0.153616,-41.909088,41.909088,5.102041
19498,5,39.120235,-1.300052,-0.912191,11.020511,-0.071545,0.01359,0.165606,-41.909088,41.909088,5.102041
19520,4,39.296188,-1.161188,-0.804452,10.879253,-0.036106,0.024515,0.148819,-32.272727,39.454547,5.816327
19541,3,39.472141,-1.300052,-0.998382,11.0253,-0.079539,0.016787,0.157613,-32.272727,39.454547,5.816327
19563,2,39.648094,-1.154005,-0.840365,10.840946,-0.040236,0.019585,0.16947,-32.272727,39.454547,5.816327
19584,1,39.824047,-1.266533,-0.92895,11.001358,-0.076475,0.012391,0.172934,-16,34.81818,9.081633
19606,0,40,-1.130063,-0.754173,10.879253,-0.037971,0.021583,0.148286,-16,34.81818,9.081633
19627,1,39.824047,-1.276109,-1.046266,10.998963,-0.083802,0.012391,0.162009,-16,34.81818,9.081633
19649,2,39.648094,-1.283292,0.069432,10.941502,0.055291,0.057423,-0.051294,-19.181818,36.454547,8.265307
19670,3,39.472141,-1.508347,-0.826,10.196906,-0.000266,0.050894,-0.284982,-19.181818,36.454547,8.265307
19692,4,39.296188,-1.671153,-1.005565,10.43872,0.060887,-0.014922,-0.230757,-19.181818,36.454547,8.265307
19713,5,39.120235,-1.434127,-0.790087,10.836157,0.102588,-0.021317,-0.063018,-19.181818,36.454547,8.265307
19735,6,38.944282,-1.637634,-0.390255,10.788273,0.028245,0.037971,-0.108051,-28.454545,38.727272,6.632653
19756,7,38.768329,-1.331176,-1.182736,10.469844,-0.036372,0.067681,-0.177997,-28.454545,38.727272,6.632653
19778,8,38.592376,-1.750161,-0.641646,10.601526,0.047164,0.048096,-0.109116,-28.454545,38.727272,6.632653
19799,9,38.416423,-1.410185,-0.718261,10.505758,0.06475,0.016387,-0.092729,-41.545452,41.636363,5.714286
19821,10,38.24047,-1.70946,-0.562637,10.709264,0.044366,0.015855,-0.141225,-41.545452,41.636363,5.714286
19842,11,38.064517,-1.369483,-1.029507,10.496181,0.015455,0.036239,-0.138827,-41.545452,41.636363,5.714286
19864,12,37.888565,-1.426944,-0.622492,10.611103,0.035173,0.042501,-0.103521,-28.727272,37,8.061224
19885,13,37.712608,-1.455675,-0.806846,10.338164,0.024248,0.042634,-0.133631,-28.727272,37,8.061224
19907,14,37.536655,-1.496376,-0.648829,10.556035,0.047564,0.026913,-0.138028,-28.727272,37,8.061224
19928,15,37.360702,-1.467646,-0.888249,10.505758,0.033974,0.026779,-0.128168,-17.181818,33.909091,8.67347
19950,16,37.184749,-1.458069,-0.581791,10.66138,0.0437,0.032775,-0.12657,-17.181818,33.909091,8.67347
19971,17,37.008796,-1.398214,-0.859518,10.405201,0.014123,0.041035,-0.145888,-17.181818,33.909091,8.67347
19993,18,36.832843,-1.517924,-0.577003,10.670957,0.050628,0.036505,-0.126969,-31.272727,38.545452,5.816327
20014,19,36.65689,-1.249773,-0.936133,10.500969,0.027845,0.031709,-0.132832,-31.272727,38.545452,5.816327
20036,20,36.480937,-1.604115,-0.548272,10.692505,0.048896,0.031576,-0.138694,-31.272727,38.545452,5.816327
20057,21,36.304985,-1.242591,-1.005565,10.419567,0.016387,0.033441,-0.13896,-39.727272,40,5.306122
20079,22,36.129032,-1.687912,-0.471658,10.726024,0.053692,0.035706,-0.126703,-39.727272,40,5.306122
20100,23,35.953079,-1.268927,-0.876278,10.465056,0.023182,0.038504,-0.157613,-39.727272,40,5.306122
20122,24,35.777126,-1.702277,-0.588974,10.747571,0.047297,0.029311,-0.14842,-39.727272,40,5.306122
20143,25,35.601173,-1.290475,-0.90022,10.412384,0.031576,0.031443,-0.138028,-43.090908,40.454544,5.408164
20165,26,35.42522,-1.702277,-0.481235,10.824187,0.052493,0.034907,-0.139493,-43.090908,40.454544,5.408164
20186,27,35.249267,-1.290475,-0.936133,10.342952,0.02225,0.03917,-0.170403,-43.090908,40.454544,5.408164
20208,28,35.073314,-1.328782,-0.708684,10.544065,0.047297,0.031043,-0.13896,-30.272727,35.636363,7.755102
20229,29,34.897361,-1.438915,-0.756568,10.426749,0.03464,0.034773,-0.124704,-30.272727,35.636363,7.755102
20251,30,34.721408,-1.419762,-0.497994,10.63265,0.048363,0.039703,-0.140959,-30.272727,35.636363,7.755102
20272,31,34.545455,-1.570596,-0.806846,10.400413,0.021184,0.03917,-0.157479,-18.818181,32.454544,8.67347
20294,32,34.369503,-1.666364,-0.490811,10.618285,0.05609,0.03051,-0.116311,-18.818181,32.454544,8.67347
20315,33,34.19355,-1.297657,-0.857124,10.615891,0.030643,0.036239,-0.130034,-18.818181,32.454544,8.67347
20337,34,34.017593,-1.692701,-0.579397,10.714053,0.03877,0.036505,-0.146021,-33.181819,37.363636,5.612245
20358,35,33.841644,-1.407791,-0.94571,10.601526,0.018519,0.031975,-0.113247,-33.181819,37.363636,5.612245
20380,36,33.665687,-1.745373,-0.442927,10.706871,0.051161,0.037838,-0.093262,-33.181819,37.363636,5.612245
20401,37,33.489734,-1.414973,-0.787692,10.556035,0.019052,0.043567,-0.149352,-44.363636,39.272727,4.591837
20423,38,33.313781,-1.455675,-0.713472,10.606314,0.046498,0.037038,-0.15255,-44.363636,39.272727,4.591837
20444,39,33.137828,-1.537077,-0.818817,10.486604,0.034374,0.028378,-0.113247,-44.363636,39.272727,4.591837
20466,40,32.961875,-1.436521,-0.502782,10.699687,0.041302,0.035306,-0.103254,-30.181819,34.363636,7.755102
