Time_ms,step_count,theo_angle,ax,ay,az,gx,gy,gz,mx,my,mz,yaw
4,1,0.175953,-1.151611,-0.562637,10.826581,-0.013723,0.024248,0.014389,-21.454545,34.727272,10.510205,-3.72016822655731
26,2,0.351906,-1.118092,-0.56982,10.864888,-0.012657,0.024381,0.014256,-21.545454,34.909091,10.510205,-3.70231560561828
47,3,0.527858999999999,-1.132457,-0.572214,10.757148,-0.015588,0.024648,0.013856,-21.545454,34.909091,10.510205,-3.68674911875563
69,4,0.703811999999999,-1.125275,-0.600945,10.778697,-0.012923,0.025047,0.013057,-21.545454,34.909091,10.510205,-3.67218988536197
90,5,0.879764999999999,-1.130063,-0.572214,10.783485,-0.013989,0.024914,0.013856,-21.636363,34.81818,10.408164,-3.64824990841256
112,6,1.055718,-1.108515,-0.550666,10.795456,-0.013456,0.023049,0.013856,-21.636363,34.81818,10.408164,-3.6246546890511
133,7,1.231671,-1.118092,-0.572214,10.817004,-0.012923,0.023582,0.015055,-21.636363,34.81818,10.408164,-3.60154278667809
154,8,1.407624,-1.125275,-0.557849,10.800245,-0.011325,0.023582,0.013989,-21.636363,34.909091,10.612245,-3.58474546529895
175,9,1.583577,-1.146823,-0.59855,10.807427,-0.013456,0.023582,0.014123,-21.272727,34.909091,10.612245,-3.59309096275871
197,10,1.75953,-1.017536,-0.677559,10.783485,-0.052093,0.01772,0.16121,-21.272727,34.909091,10.612245,-3.40111909683706
218,11,1.935483,-1.199495,-0.040701,10.704476,-0.01319,0.041435,-0.005063,-21.272727,34.909091,10.612245,-3.44342745984092
240,12,2.111435,-0.952892,-0.648829,10.737995,0.057423,0.022383,-0.255005,-30.272727,36.181819,10.408164,-3.33841276411974
261,13,2.287392,-0.732626,-1.046266,10.709264,0.052493,-0.004663,-0.253672,-30.272727,36.181819,10.408164,-3.2212424397347
283,14,2.463345,-1.055843,-0.402226,10.862494,0.058622,-0.001466,-0.070613,-30.272727,36.181819,10.408164,-2.87782614432841
304,15,2.639298,-1.125275,-0.656011,10.63265,-0.012391,0.028645,-0.115645,-16.909091,32.909091,11.020408,-3.32430968499584
326,16,2.815251,-1.015141,-0.538695,10.891224,0.043433,0.043567,-0.183326,-16.909091,32.909091,11.020408,-3.84716487249991
347,17,2.991204,-0.895431,-0.842759,10.627861,0.006528,0.022383,-0.133631,-16.909091,32.909091,11.020408,-4.26841304699326
369,18,3.167157,-1.007959,-0.323217,10.881648,0.038637,0.020118,-0.091397,-30.454545,37.090908,8.57143,-3.93070622138108
390,19,3.34311,-1.01993,-0.720655,10.682929,0.006662,0.01732,-0.15708,-30.454545,37.090908,8.57143,-3.68910245653826
412,20,3.519063,-0.960075,-0.588974,10.805033,0.026513,0.015322,-0.139626,-30.454545,37.090908,8.57143,-3.44562244520059
432,21,3.695015,-0.940921,-0.670376,10.687717,0.012923,0.019452,-0.110715,-42.454547,39.363636,7.959183,-2.72229971212562
454,22,3.870968,-0.960075,-0.469264,10.833764,0.020251,0.023449,-0.109116,-42.454547,39.363636,7.959183,-2.04659892106439
475,23,4.046921,-0.940921,-0.68953,10.642227,0.011458,0.023315,-0.142557,-42.454547,39.363636,7.959183,-1.44116575052326
497,24,4.222874,-0.926556,-0.497994,10.826581,0.027179,0.017853,-0.125237,-29,34.81818,9.897959,-1.267889160592
518,25,4.398827,-0.92895,-0.670376,10.589554,0.009726,0.015988,-0.136562,-29,34.81818,9.897959,-1.11020135244708
540,26,4.57478,-0.943315,-0.514753,10.998963,0.025181,0.017453,-0.127769,-29,34.81818,9.897959,-0.956899169423136
560,27,4.750733,-0.909797,-0.696713,10.630256,0.013989,0.018119,-0.1303,-29,34.81818,9.897959,-0.798658200167976
582,28,4.926686,-0.988805,-0.462081,10.907983,0.028112,0.018652,-0.129767,-25.90909,33.363636,11.122449,-0.774327642403295
603,29,5.102639,-0.940921,-0.696713,10.556035,0.011724,0.021717,-0.147753,-25.90909,33.363636,11.122449,-0.766463601386864
625,30,5.278592,-0.952892,-0.517148,10.977416,0.026513,0.019319,-0.122573,-25.90909,33.363636,11.122449,-0.734008180629523
646,31,5.454545,-0.952892,-0.648829,10.587161,0.01279,0.020784,-0.134697,-18.818181,31.818181,10.714286,-1.11981634936326
668,32,5.630497,-0.993594,-0.493206,10.939108,0.027312,0.018652,-0.141358,-18.818181,31.818181,10.714286,-1.50363228226326
689,33,5.80645,-0.948104,-0.715866,10.613496,0.010925,0.019718,-0.137894,-18.818181,31.818181,10.714286,-1.85508864267055
711,34,5.982407,-0.960075,-0.438139,10.943897,0.02558,0.020917,-0.122573,-32.818183,36.090911,8.367347,-1.51682518803915
732,35,6.158356,-0.926556,-0.634463,10.623073,0.014389,0.021717,-0.162142,-32.818183,36.090911,8.367347,-1.23904500244814
754,36,6.334313,-0.960075,-0.555455,10.903195,0.029044,0.019985,-0.158945,-32.818183,36.090911,8.367347,-0.980800662565254
775,37,6.510266,-0.876278,-0.670376,10.64941,0.016387,0.016254,-0.135096,-42.454547,38,7.857143,-0.362204341852091
796,38,6.686219,-1.027112,-0.457293,10.881648,0.024381,0.019585,-0.131632,-42.454547,38,7.857143,0.229936429437903
817,39,6.862172,-0.916979,-0.610521,10.627861,0.019585,0.020518,-0.179329,-42.454547,38,7.857143,0.730862455865511
839,40,7.038125,-0.950498,-0.593762,10.852917,0.026247,0.018652,-0.16041,-30.000001,33.363636,10.408164,0.870574813525767
860,41,7.214077,-0.933739,-0.610521,10.75236,0.017587,0.016121,-0.124305,-30.000001,33.363636,10.408164,1.05980282384399
882,42,7.39003,-0.984017,-0.447716,10.793062,0.025714,0.024914,-0.134297,-30.000001,33.363636,10.408164,1.21840308459912
903,43,7.565983,-1.000776,-0.746991,10.764331,0.016387,0.024781,-0.177198,-24.363636,31.545454,11.122449,1.08003349485782
925,44,7.741936,-1.022324,-0.560243,10.828975,0.027446,0.024914,-0.116977,-24.363636,31.545454,11.122449,1.01917177640987
946,45,7.917889,-1.007959,-0.6608,10.852917,0.015588,0.024781,-0.120041,-24.363636,31.545454,11.122449,0.964590442831513
968,46,8.093842,-1.00317,-0.519542,10.884041,0.023715,0.026113,-0.149219,-24.363636,31.545454,11.122449,0.865872472021757
989,47,8.269795,-0.938527,-0.785298,10.907983,0.010658,0.023182,-0.128568,-20.272727,30.454545,11.122449,0.580272121516922
1011,48,8.445748,-1.060631,-0.368707,10.881648,0.02145,0.025314,-0.086734,-20.272727,30.454545,11.122449,0.357651816284443
1032,49,8.621701,-0.988805,-0.656011,10.800245,0.016787,0.02598,-0.156547,-20.272727,30.454545,11.122449,0.0613234958092916
1054,50,8.797654,-1.027112,-0.648829,10.857706,0.026646,0.023982,-0.166672,-32.909091,34.727272,8.061224,0.310723541741313
1075,51,8.973607,-1.034295,-0.768539,10.864888,0.014123,0.022783,-0.105919,-32.909091,34.727272,8.061224,0.636376538122204
1097,52,9.14956,-1.086968,-0.385467,10.886436,0.01732,0.026646,-0.094727,-32.909091,34.727272,8.061224,0.95437662702795
1117,53,9.325512,-0.984017,-0.658405,10.948685,0.020784,0.023182,-0.172135,-43.727272,36.636363,7.142858,1.5448060668911
1139,54,9.501465,-1.01993,-0.64404,10.785879,0.024914,0.022649,-0.147354,-43.727272,36.636363,7.142858,2.11807153302416
1160,55,9.677418,-1.086968,-0.648829,10.896013,0.015322,0.025447,-0.094727,-43.727272,36.636363,7.142858,2.73971255918038
1182,56,9.853373,-1.091756,-0.40462,10.838552,0.014655,0.024648,-0.113247,-30.636363,31.818181,10.408164,2.9532362919618
1203,57,10.029326,-1.024718,-0.694318,10.943897,0.023049,0.022116,-0.179063,-30.636363,31.818181,10.408164,3.07803825788236
1225,58,10.205279,-1.098939,-0.600945,10.809822,0.02185,0.023315,-0.134963,-30.636363,31.818181,10.408164,3.24526060424058
1246,59,10.381232,-1.053449,-0.632069,10.90559,0.010525,0.023182,-0.093395,-21.272727,29.363636,11.020408,3.01444355672501
1268,60,10.557185,-1.06542,-0.373495,10.785879,0.01359,0.023715,-0.122306,-21.272727,29.363636,11.020408,2.75030186594277
1289,61,10.733138,-0.998382,-0.758962,10.943897,0.023582,0.019319,-0.168937,-21.272727,29.363636,11.020408,2.44665912703935
1311,62,10.909092,-1.130063,-0.526724,10.793062,0.017986,0.020384,-0.120441,-31.090909,32.272727,8.877552,2.66597949990363
1332,63,11.085045,-1.070208,-0.632069,10.836157,0.013323,0.022649,-0.110582,-31.090909,32.272727,8.877552,2.89447617280747
1354,64,11.260998,-1.04866,-0.447716,10.718841,0.01279,0.020384,-0.134697,-31.090909,32.272727,8.877552,3.07211512390397
1375,65,11.436951,-1.074997,-0.713472,10.929532,0.02185,0.017187,-0.148286,-31.090909,32.272727,8.877552,3.23160474183258
1397,66,11.612904,-1.070208,-0.45011,10.771513,0.014256,0.022116,-0.119109,-36,33.636363,8.57143,3.58368873982285
1418,67,11.788857,-1.034295,-0.622492,10.986992,0.017187,0.020384,-0.142025,-36,33.636363,8.57143,3.89589518553292
1440,68,11.96481,-1.084573,-0.553061,10.778697,0.014389,0.019851,-0.140426,-36,33.636363,8.57143,4.18591946846553
1461,69,12.140763,-1.142034,-0.723049,10.912772,0.015055,0.021983,-0.123239,-43.909091,34.81818,7.755102,4.75460588580967
1483,70,12.316716,-1.113304,-0.481235,10.759543,0.006262,0.02185,-0.118176,-43.909091,34.81818,7.755102,5.29412893958678
1504,71,12.492669,-1.09415,-0.632069,10.922348,0.02185,0.018652,-0.145489,-43.909091,34.81818,7.755102,5.77866572860353
1526,72,12.668622,-1.156399,-0.624887,10.692505,0.013323,0.020784,-0.109383,-31.454545,30.363637,10.306122,5.96384162790898
1547,73,12.844574,-1.192312,-0.553061,10.845734,0.00453,0.030643,-0.073011,-31.454545,30.363637,10.306122,6.19346635397321
1569,74,13.020527,-1.074997,-0.428562,10.790668,0.0004,0.022916,-0.096459,-31.454545,30.363637,10.306122,6.37539038979583
1590,75,13.19648,-1.036689,-0.636858,10.879253,0.022383,0.016654,-0.144822,-22.818181,28,10.510205,6.10560746461394
1612,76,13.372433,-1.130063,-0.533907,10.721236,0.015855,0.019585,-0.124172,-22.818181,28,10.510205,5.86834875501231
1633,77,13.548386,-1.194707,-0.574608,10.864888,0.007328,0.028911,-0.098858,-22.818181,28,10.510205,5.68328719291382
1655,78,13.724339,-1.096544,-0.442927,10.704476,0.006129,0.024648,-0.114312,-35.181816,31.818181,7.857143,5.97182409434249
1676,79,13.900294,-1.005565,-0.565032,10.891224,0.018519,0.019185,-0.140293,-35.181816,31.818181,7.857143,6.21940684984971
1698,80,14.076247,-1.115698,-0.526724,10.692505,0.012657,0.018519,-0.120974,-35.181816,31.818181,7.857143,6.47212305365382
1719,81,14.2522,-1.122881,-0.617704,10.857706,0.012257,0.026513,-0.118043,-42.545455,33.272727,7.244898,6.95500846060902
1741,82,14.428153,-1.098939,-0.483629,10.757148,0.011591,0.02558,-0.124971,-42.545455,33.272727,7.244898,7.3971144702816
1761,83,14.604105,-1.074997,-0.577003,10.943897,0.015188,0.021317,-0.13856,-42.545455,33.272727,7.244898,7.81577198918293
1783,84,14.780058,-1.149217,-0.481235,10.776302,0.013723,0.025314,-0.12204,-42.545455,33.272727,7.244898,8.2188059180458
1804,85,14.956013,-1.089362,-0.545878,10.838552,0.011058,0.025314,-0.12577,-45.272724,33.454547,7.040816,8.69276878166545
1826,86,15.131966,-1.096544,-0.469264,10.771513,0.01319,0.023182,-0.125904,-45.272724,33.454547,7.040816,9.13511644159291
1847,87,15.307919,-1.106121,-0.545878,10.891224,0.014256,0.021184,-0.130433,-45.272724,33.454547,7.040816,9.55724082718357
1869,88,15.483872,-1.06542,-0.47884,10.764331,0.013856,0.023182,-0.126037,-34.909091,29.818183,9.489796,9.72792026861963
1890,89,15.659825,-1.067814,-0.565032,10.884041,0.015188,0.021184,-0.136695,-34.909091,29.818183,9.489796,9.88405152012903
1912,90,15.835778,-1.077391,-0.471658,10.714053,0.015455,0.024648,-0.129101,-34.909091,29.818183,9.489796,10.0342443617604
1933,91,16.011731,-1.118092,-0.574608,10.857706,0.01279,0.024781,-0.124704,-23.90909,26.727273,10.816328,9.75647617987147
1955,92,16.187684,-1.053449,-0.399832,10.740389,0.014922,0.023182,-0.124172,-23.90909,26.727273,10.816328,9.48564611389527
1976,93,16.363637,-1.029507,-0.512359,10.884041,0.015055,0.019319,-0.138694,-23.90909,26.727273,10.816328,9.21723769719731
1998,94,16.539589,-1.09415,-0.371101,10.682929,0.017453,0.024248,-0.127236,-35.090908,30.272727,7.653061,9.38740118203277
2019,95,16.715542,-1.053449,-0.481235,10.828975,0.013456,0.022916,-0.127636,-35.090908,30.272727,7.653061,9.5563657407729
2041,96,16.891495,-1.041478,-0.342371,10.75236,0.020251,0.022649,-0.129634,-35.090908,30.272727,7.653061,9.70632795911903
2062,97,17.067448,-1.00317,-0.502782,10.867282,0.01692,0.018386,-0.141358,-45.545455,32.545452,6.632653,10.1374370664744
2084,98,17.243401,-1.041478,-0.366313,10.716447,0.018386,0.027179,-0.120841,-45.545455,32.545452,6.632653,10.5660588785596
2105,99,17.419356,-1.115698,-0.474052,10.838552,0.007594,0.026779,-0.107784,-45.545455,32.545452,6.632653,10.9975472099337
2127,100,17.595309,-0.995988,-0.344765,10.706871,0.01772,0.023715,-0.102455,-35,28.90909,9.387756,11.1816285288554
2148,101,17.771262,-0.991199,-0.40462,10.941502,0.021317,0.015455,-0.12124,-35,28.90909,9.387756,11.3385438869828
2170,102,17.947215,-0.940921,-0.294487,10.726024,0.024781,0.020917,-0.123106,-35,28.90909,9.387756,11.4776313800263
2191,103,18.123168,-1.000776,-0.454898,10.931925,0.011724,0.021184,-0.125637,-35,28.90909,9.387756,11.6140672219534
2213,104,18.29912,-1.01993,-0.277727,10.778697,0.014922,0.028378,-0.111781,-31,26.818183,10.510205,11.680837779723
2234,105,18.475073,-1.051055,-0.438139,10.864888,0.01319,0.022783,-0.115645,-31,26.818183,10.510205,11.7461542001546
2256,106,18.651026,-0.993594,-0.272939,10.733206,0.028378,0.020651,-0.120308,-31,26.818183,10.510205,11.7947820612342
2277,107,18.826979,-0.979228,-0.457293,10.994174,0.015055,0.017587,-0.136962,-25,25.181818,10.510205,11.5814073819092
2299,108,19.002932,-1.005565,-0.272939,10.81461,0.017054,0.031309,-0.124305,-25,25.181818,10.510205,11.3874041877263
2320,109,19.178885,-1.074997,-0.383072,10.953474,0.011858,0.024914,-0.124971,-25,25.181818,10.510205,11.2098865461154
2342,110,19.354838,-0.97444,-0.263362,10.812215,0.023848,0.022516,-0.123505,-38.454544,29.454544,7.244898,11.473813229548
2363,111,19.530793,-1.007959,-0.421379,10.998963,0.008394,0.024781,-0.13856,-38.454544,29.454544,7.244898,11.7126942515393
2385,112,19.706746,-0.950498,-0.301669,10.78109,0.022383,0.029044,-0.131499,-38.454544,29.454544,7.244898,11.9406634332292
2406,113,19.882699,-1.010353,-0.395043,11.022905,0.013323,0.022783,-0.135363,-45.909091,31,6.530612,12.3536453072469
2428,114,20.058651,-0.964863,-0.304064,10.761937,0.02558,0.026513,-0.128435,-45.909091,31,6.530612,12.7470269667641
2449,115,20.234604,-0.976834,-0.390255,11.032482,0.008394,0.026779,-0.136029,-45.909091,31,6.530612,13.1188304269331
2471,116,20.410557,-0.967257,-0.227449,10.845734,0.023715,0.026779,-0.1303,-33.818183,26.090908,9.591837,13.2668265705762
2492,117,20.58651,-0.995988,-0.311246,11.010934,0.01319,0.022916,-0.139093,-33.818183,26.090908,9.591837,13.4040798160167
2514,118,20.762463,-0.94571,-0.21069,10.802639,0.017986,0.029711,-0.132565,-33.818183,26.090908,9.591837,13.5347485954336
2535,119,20.938416,-0.986411,-0.301669,11.051635,0.013323,0.026646,-0.130833,-26.181816,24.181818,10.102042,13.3825069537699
2557,120,21.114369,-0.988805,-0.229843,10.793062,0.029711,0.026913,-0.120175,-26.181816,24.181818,10.102042,13.2442521661915
2578,121,21.290322,-0.960075,-0.203507,10.982204,0.019985,0.025847,-0.130833,-26.181816,24.181818,10.102042,13.1065353459899
2600,122,21.466275,-0.950498,-0.241814,10.766725,0.027979,0.026779,-0.136162,-27.636363,24.727272,10,13.0116207779504
2621,123,21.64223,-0.92895,-0.205901,11.022905,0.011058,0.026247,-0.142158,-27.636363,24.727272,10,12.9220821392327
2643,124,21.818182,-0.92895,-0.225055,10.773908,0.035306,0.027446,-0.134697,-27.636363,24.727272,10,12.8383726027634
2664,125,21.994135,-0.888249,-0.246603,11.034876,0.008394,0.025847,-0.142291,-27.636363,24.727272,10,12.7573245837001
2686,126,22.170088,-0.960075,-0.203507,10.790668,0.028778,0.028511,-0.1299,-35.363636,26.636365,7.653061,12.9613870398229
2708,127,22.346041,-0.936133,-0.28491,11.030088,0.009459,0.026247,-0.128701,-35.363636,26.636365,7.653061,13.1568688052948
2729,128,22.521994,-0.873884,-0.308852,10.872071,0.016787,0.025447,-0.11338,-35.363636,26.636365,7.653061,13.3702818272839
2751,129,22.697947,-0.885855,-0.318429,10.862494,0.007194,0.027712,-0.11298,-45.909091,29.090908,6.22449,13.8279954346898
2772,130,22.8739,-0.895431,-0.344765,10.795456,0.009593,0.02638,-0.108184,-45.909091,29.090908,6.22449,14.2759671657232
2794,131,23.049853,-0.871489,-0.294487,10.927137,0.009593,0.027579,-0.109783,-45.909091,29.090908,6.22449,14.6927225409031
2815,132,23.225806,-0.835576,-0.371101,10.860099,0.007727,0.025181,-0.114446,-35.909088,24.818181,8.979592,14.9600446734609
2837,133,23.401759,-0.902614,-0.332794,10.903195,0.009859,0.027579,-0.11338,-35.909088,24.818181,8.979592,15.208403929676
2858,134,23.577714,-0.885855,-0.344765,10.800245,0.00906,0.025847,-0.111914,-35.909088,24.818181,8.979592,15.4532124440257
2880,135,23.753666,-0.924162,-0.287304,10.972627,0.008127,0.025714,-0.110049,-26.909091,22.727273,10,15.3687280831384
2901,136,23.929619,-0.871489,-0.304064,10.881648,0.00906,0.025447,-0.109116,-26.909091,22.727273,10,15.2964418332926
2923,137,24.105571,-0.902614,-0.308852,10.984598,0.006795,0.027446,-0.107784,-26.909091,22.727273,10,15.222860897714
2944,138,24.281524,-0.871489,-0.37589,10.805033,0.007328,0.026913,-0.103387,-37.545455,25.90909,7.244898,15.4802984067458
2966,139,24.457477,-0.861913,-0.320823,10.941502,0.007194,0.027312,-0.096193,-37.545455,25.90909,7.244898,15.7282396070526
2987,140,24.63343,-0.878672,-0.378284,10.852917,0.004397,0.025447,-0.09073,-37.545455,25.90909,7.244898,15.9767565618283
3009,141,24.809383,-0.849942,-0.304064,10.893618,-0.000133,0.025847,-0.083136,-43.181819,26.909091,6.326531,16.368910514058
3030,142,24.985336,-0.950498,-0.318429,10.879253,0.001199,0.02638,-0.073943,-43.181819,26.909091,6.326531,16.7584443308317
3052,143,25.161289,-0.845153,-0.311246,10.979809,-0.001066,0.024115,-0.065417,-43.181819,26.909091,6.326531,17.1354904378636
3073,144,25.337242,-0.871489,-0.344765,10.931925,-0.002531,0.024115,-0.054625,-43.181819,26.909091,6.326531,17.5116473030255
3095,145,25.513195,-0.888249,-0.311246,10.989386,-0.002931,0.027046,-0.045299,-47,27.636363,6.122449,17.9615124749796
3116,146,25.689149,-0.897826,-0.366313,10.922348,-0.004263,0.024914,-0.035173,-47,27.636363,6.122449,18.4047498164312
3138,147,25.865102,-0.914585,-0.268151,11.044453,-0.006129,0.024115,-0.02598,-47,27.636363,6.122449,18.836101453047
3159,148,26.041055,-0.905008,-0.356736,10.855311,-0.00826,0.025847,-0.018253,-36.727272,24,8.877552,19.1044977192328
3181,149,26.217008,-0.885855,-0.280122,10.977416,-0.007194,0.024648,-0.023848,-36.727272,24,8.877552,19.3507805854793
3202,150,26.392961,-0.907402,-0.292093,10.896013,-0.006795,0.022516,-0.074343,-36.727272,24,8.877552,19.5209943920716
3224,151,26.568914,-0.864307,-0.225055,11.145009,0.01279,0.020384,-0.10885,-27.090909,21.545454,9.693878,19.3301693569703
3245,152,26.744867,-0.797269,-0.421379,10.845734,0.008127,0.027579,-0.124305,-27.090909,21.545454,9.693878,19.1356182020245
3267,153,26.92082,-0.852336,-0.294487,11.118673,0.012524,0.027579,-0.12124,-27.090909,21.545454,9.693878,18.9472963931028
3288,154,27.096773,-0.806846,-0.378284,10.840946,0.007861,0.022916,-0.111648,-38.272727,25.090908,6.734694,19.0847026942292
3310,155,27.272726,-0.818817,-0.320823,11.073184,0.005995,0.027712,-0.098058,-38.272727,25.090908,6.734694,19.2267609132401
3331,156,27.448679,-0.845153,-0.342371,10.802639,0.002265,0.027845,-0.089265,-38.272727,25.090908,6.734694,19.3791049322359
3353,157,27.624631,-0.876278,-0.316035,10.972627,0.003331,0.025314,-0.081404,-46.81818,27.000001,5.510204,19.7140789938018
3374,158,27.800586,-0.802058,-0.395043,10.81461,-0.006928,0.026247,-0.087666,-46.81818,27.000001,5.510204,20.0292229736362
3396,159,27.976539,-0.964863,-0.316035,11.164163,0.011991,0.032908,-0.092196,-46.81818,27.000001,5.510204,20.3170878905802
3417,160,28.152492,-0.869095,-0.368707,11.03727,-0.002665,0.026513,-0.102988,-37.181819,23.090909,8.163266,20.4766706409046
3439,161,28.328445,-0.964863,-0.385467,11.228806,0.007328,0.029311,-0.10432,-37.181819,23.090909,8.163266,20.6201373671146
3460,162,28.504398,-0.773327,-0.387861,10.972627,0,0.029044,-0.107917,-37.181819,23.090909,8.163266,20.7582011135508
3482,163,28.680351,-0.885855,-0.397438,10.965444,0.00866,0.027845,-0.104054,-37.181819,23.090909,8.163266,20.8879512552054
3503,164,28.856304,-0.775721,-0.392649,11.003751,-0.000533,0.02638,-0.100323,-33.636363,21.90909,9.693878,20.9525498678732
3525,165,29.032257,-0.936133,-0.292093,11.643003,0.00826,0.027579,-0.098591,-33.636363,21.90909,9.693878,21.0100916446733
3546,166,29.20821,-0.739808,-0.349553,11.068395,0.000133,0.027179,-0.105386,-33.636363,21.90909,9.693878,21.062043627054
3568,167,29.384162,-0.912191,-0.306458,11.619061,0.007994,0.026779,-0.10392,-28.090909,20.545454,9.387756,20.9315712457427
3589,168,29.560115,-0.670376,-0.294487,11.092337,0.002265,0.029977,-0.10885,-28.090909,20.545454,9.387756,20.8076464712344
3611,169,29.73607,-0.861913,-0.335188,11.518505,0.013057,0.023715,-0.107651,-28.090909,20.545454,9.387756,20.6848453285553
3632,170,29.912023,-0.715866,-0.272939,11.152192,-0.000533,0.026113,-0.116844,-40.181819,24,6.22449,20.8641996987042
3654,171,30.087976,-0.912191,-0.287304,11.27669,0.010259,0.032642,-0.111115,-40.181819,24,6.22449,21.0351518458812
3675,172,30.263929,-0.696713,-0.258574,11.08276,-0.002132,0.029444,-0.115911,-40.181819,24,6.22449,21.1981959971931
3697,173,30.439882,-0.94571,-0.35913,11.295845,0.00906,0.03091,-0.117243,-47.272727,25.454544,5.102041,21.4881456817537
3718,174,30.615835,-0.715866,-0.241814,11.089942,0.001332,0.031443,-0.123106,-47.272727,25.454544,5.102041,21.7632362208128
3740,175,30.791788,-0.907402,-0.316035,11.171345,0.006928,0.028778,-0.112847,-47.272727,25.454544,5.102041,22.0308823610437
3761,176,30.967741,-0.723049,-0.299275,11.034876,-0.002398,0.030643,-0.112847,-36.454547,21.272727,8.367347,22.1810891930383
3783,177,31.143693,-0.938527,-0.318429,11.073184,0.004796,0.031443,-0.106052,-36.454547,21.272727,8.367347,22.3260394851416
3804,178,31.319646,-0.701501,-0.251391,11.013328,-0.002398,0.029044,-0.110982,-36.454547,21.272727,8.367347,22.4638973833425
3826,179,31.495599,-0.916979,-0.275333,10.996569,0.004397,0.032642,-0.120041,-27.909091,19.090908,9.285715,22.3436571645146
3847,180,31.671552,-0.699107,-0.268151,11.015723,-0.003464,0.032375,-0.142557,-27.909091,19.090908,9.285715,22.2077295877515
3868,181,31.847507,-0.924162,-0.304064,10.979809,0.010792,0.029044,-0.136296,-27.909091,19.090908,9.285715,22.0866853942322
3889,182,32.02346,-0.591368,-0.301669,11.17374,-0.001599,0.030776,-0.120841,-27.909091,19,9.285715,21.9988500992555
3911,183,32.199413,-0.938527,-0.237026,11.061212,0.006395,0.036239,-0.109116,-28.727272,19,9.285715,21.9671171272141
3932,184,32.375366,-0.653617,-0.301669,11.022905,-0.006262,0.031443,-0.12164,-28.727272,19,9.285715,21.9275056115877
3954,185,32.551319,-0.94571,-0.232238,11.066,0.003864,0.029178,-0.118576,-28.727272,19,9.285715,21.8865390230714
3975,186,32.727272,-0.624887,-0.299275,11.0253,-0.003864,0.03091,-0.12204,-36.363636,21.363636,6.326531,22.0225451124139
3997,187,32.903225,-0.950498,-0.244209,11.075577,0.011325,0.033708,-0.119908,-36.363636,21.363636,6.326531,22.1471295058865
4018,188,33.079178,-0.579397,-0.323217,10.807427,-0.003464,0.028378,-0.128835,-36.363636,21.363636,6.326531,22.2613293269682
4040,189,33.255131,-0.885855,-0.184354,10.924743,0.009726,0.031576,-0.12124,-47.454544,23.636363,4.591837,22.5957460663252
4061,190,33.431084,-0.560243,-0.299275,10.639833,0.005063,0.03424,-0.131233,-47.454544,23.636363,4.591837,22.9079916472125
4083,191,33.607037,-0.80924,-0.232238,10.572795,0.015455,0.035972,-0.13443,-47.454544,23.636363,4.591837,23.1922271636948
4104,192,33.78299,-0.665588,-0.306458,10.76912,0.007194,0.028645,-0.136695,-37.81818,19.636363,7.959183,23.413209413603
4126,193,33.958942,-0.830788,-0.263362,10.417172,0.011458,0.034507,-0.132032,-37.81818,19.636363,7.959183,23.6210446080944
4147,194,34.134895,-0.744597,-0.318429,10.867282,0.011058,0.033175,-0.135496,-37.81818,19.636363,7.959183,23.8221346710218
4169,195,34.310848,-0.799663,-0.277727,10.376471,0.010925,0.031309,-0.133098,-29.090908,17.363636,9.183674,23.8164222240553
4190,196,34.486801,-0.703895,-0.306458,10.91756,0.00866,0.027179,-0.128568,-29.090908,17.363636,9.183674,23.8250330234395
4212,197,34.662754,-0.794875,-0.270545,10.283097,0.009326,0.03464,-0.125504,-29.090908,17.363636,9.183674,23.8294515135538
4233,198,34.838711,-0.778116,-0.260968,10.867282,0.009326,0.031709,-0.130167,-39.181819,20.454545,5.408164,24.0198453029846
4255,199,35.014664,-0.816423,-0.260968,10.280702,0.00906,0.03051,-0.126703,-39.181819,20.454545,5.408164,24.1974005456891
4275,200,35.190617,-0.68953,-0.225055,10.625468,0.009726,0.028245,-0.122706,-39.181819,20.454545,5.408164,24.3865811451164
4297,201,35.36657,-0.794875,-0.280122,10.242395,0.012124,0.034907,-0.11791,-39.181819,20.636363,5.204082,24.5459156314092
4318,202,35.542522,-0.761356,-0.191536,10.66138,0.012657,0.031176,-0.119242,-42.545455,20.636363,5.204082,24.8101430215783
4340,203,35.718475,-0.766144,-0.234632,10.398018,0.007328,0.027979,-0.109649,-42.545455,20.636363,5.204082,25.0668056326395
4361,204,35.894428,-0.787692,-0.234632,10.587161,0.011058,0.032908,-0.113113,-42.545455,20.636363,5.204082,25.3129050296951
4383,205,36.070381,-0.878672,-0.251391,10.376471,0.013723,0.03917,-0.131632,-47.909088,21.545454,4.183673,25.6085400264538
4404,206,36.246334,-0.732626,-0.222661,10.572795,0.01359,0.031576,-0.149752,-47.909088,21.545454,4.183673,25.8740849143532
4426,207,36.422287,-0.694318,-0.275333,10.345346,0.009859,0.026513,-0.132165,-47.909088,21.545454,4.183673,26.1409396855706
4447,208,36.59824,-0.78051,-0.215478,10.584766,0.016254,0.035839,-0.12577,-36,17.272727,7.959183,26.330756959795
4469,209,36.774193,-0.847547,-0.263362,10.383653,0.014123,0.039037,-0.127369,-36,17.272727,7.959183,26.5011839385647
4490,210,36.950146,-0.785298,-0.184354,10.534488,0.014522,0.03091,-0.140293,-36,17.272727,7.959183,26.65423040487
4512,211,37.126099,-0.845153,-0.251391,10.388442,0.015322,0.030243,-0.134031,-29.454544,15.636364,8.57143,26.6677880269885
4533,212,37.302052,-0.804452,-0.198719,10.527305,0.018253,0.037038,-0.13523,-29.454544,15.636364,8.57143,26.6873629300667
4555,213,37.478004,-0.902614,-0.296881,10.402807,0.014655,0.038237,-0.132432,-29.454544,15.636364,8.57143,26.7014276198505
4576,214,37.653957,-0.766144,-0.237026,10.527305,0.015322,0.03051,-0.130567,-40,18.727272,5.102041,26.8877298997318
4598,215,37.82991,-0.919373,-0.31364,10.400413,0.015055,0.034907,-0.123905,-40,18.727272,5.102041,27.0657009934069
4618,216,38.005863,-0.849942,-0.287304,10.424355,0.015455,0.035839,-0.128568,-40,18.727272,5.102041,27.2442794422321
4640,217,38.181816,-0.907402,-0.320823,10.433932,0.014389,0.033708,-0.123772,-47.545452,19.727273,4.183673,27.5488979567986
4661,218,38.357769,-0.794875,-0.282516,10.407595,0.014389,0.028911,-0.128968,-47.545452,19.727273,4.183673,27.8391869925117
4683,219,38.533722,-0.888249,-0.268151,10.419567,0.014655,0.037838,-0.122706,-47.545452,19.727273,4.183673,28.1155025921809
4704,220,38.709675,-0.794875,-0.201113,10.496181,0.013989,0.036239,-0.128968,-47.545452,19.272726,5.102041,28.4039536469096
4726,221,38.885628,-0.866701,-0.275333,10.39323,0.013057,0.032508,-0.113779,-47.636363,19.272726,5.102041,28.6927542217506
4747,222,39.061584,-0.802058,-0.248997,10.42196,0.01319,0.036639,-0.125904,-47.636363,19.272726,5.102041,28.9584517502081
4769,223,39.237537,-0.878672,-0.31364,10.359711,0.014389,0.03917,-0.124838,-47.636363,19.272726,5.102041,29.2045628851007
4790,224,39.41349,-0.804452,-0.248997,10.474633,0.012657,0.03424,-0.119375,-40.454544,16.363636,6.734694,29.4533416807961
4812,225,39.589443,-0.835576,-0.320823,10.204088,0.014389,0.035173,-0.111648,-40.454544,16.363636,6.734694,29.6927949605171
4833,226,39.765396,-0.787692,-0.19393,10.474633,0.011458,0.037704,-0.117776,-40.454544,16.363636,6.734694,29.9192274966429
4855,227,39.941349,-0.826,-0.306458,10.338164,0.010925,0.033041,-0.106851,-29.818183,13.909091,8.163266,29.9732661236768
4876,228,40.117302,-0.785298,-0.217872,10.477027,0.007061,0.029711,-0.092729,-29.818183,13.909091,8.163266,30.0494155505388
4898,229,40.293255,-0.905008,-0.301669,10.259155,0.00826,0.039703,-0.101922,-29.818183,13.909091,8.163266,30.1036144730376
4919,230,40.469208,-0.826,-0.251391,10.287885,0.010925,0.03957,-0.131899,-38.727272,16.636363,4.897959,30.2220960156198
4941,231,40.645161,-0.869095,-0.344765,10.192117,0.016387,0.033041,-0.133098,-38.727272,16.636363,4.897959,30.324918334578
4962,232,40.821114,-0.778116,-0.251391,10.18254,0.01279,0.031443,-0.120175,-38.727272,16.636363,4.897959,30.4474779582647
4984,233,40.997066,-0.931344,-0.306458,9.837776,0.013989,0.044499,-0.120974,-47.636363,18,3.673469,30.6993743022016
5005,234,41.173019,-0.818817,-0.21069,10.204088,0.019052,0.037971,-0.142291,-47.636363,18,3.673469,30.9185825313534
5027,235,41.348972,-0.895431,-0.323217,9.866506,0.017587,0.03051,-0.133764,-47.636363,18,3.673469,31.1296168015432
5048,236,41.524925,-0.799663,-0.186748,10.117897,0.01732,0.033841,-0.135496,-38.181816,14.545454,7.142858,31.3273460042266
5070,237,41.700878,-0.94571,-0.320823,9.935937,0.018253,0.045032,-0.133897,-38.181816,14.545454,7.142858,31.5090184856129
5091,238,41.876831,-0.754173,-0.196325,10.050859,0.016387,0.036239,-0.144289,-38.181816,14.545454,7.142858,31.6764201484566
5113,239,42.052784,-1.007959,-0.320823,11.240777,0.017853,0.032109,-0.124038,-35.181816,13.454546,8.265307,31.849807472409
5134,240,42.228737,-0.823605,-0.23942,10.081984,0.018119,0.036772,-0.133897,-35.181816,13.454546,8.265307,32.0094202860542
5156,241,42.40469,-1.027112,-0.289698,11.063607,0.023182,0.043966,-0.137894,-35.181816,13.454546,8.265307,32.1474082954172
5177,242,42.580643,-0.828394,-0.25618,10.041282,0.017453,0.035573,-0.14802,-35.181816,13.454546,8.265307,32.2738991316049
5199,243,42.756596,-1.015141,-0.325611,10.982204,0.019452,0.037172,-0.129767,-30.181819,12.090909,8.469388,32.3586489924613
5220,244,42.932548,-0.821211,-0.205901,10.031705,0.015855,0.037172,-0.13523,-30.181819,12.090909,8.469388,32.4400866718734
5242,245,43.108505,-1.010353,-0.31364,10.704476,0.020251,0.042368,-0.134164,-30.181819,12.090909,8.469388,32.5105773357107
5263,246,43.284458,-0.804452,-0.234632,10.046071,0.013856,0.030377,-0.130167,-41.727272,15.09091,4.387755,32.7010393915485
5285,247,43.460411,-1.022324,-0.342371,10.64941,0.017587,0.040369,-0.124172,-41.727272,15.09091,4.387755,32.8820843211886
5306,248,43.636364,-0.826,-0.280122,10.175357,0.013323,0.042634,-0.128435,-41.727272,15.09091,4.387755,33.0562081610587
5328,249,43.812317,-0.960075,-0.301669,10.417172,0.016254,0.03917,-0.118842,-47.81818,15.818182,3.571429,33.3159023996583
5349,250,43.98827,-0.821211,-0.275333,10.086772,0.01359,0.036772,-0.123106,-47.81818,15.818182,3.571429,33.5644139589795
5371,251,44.164223,-0.995988,-0.328006,10.278308,0.013323,0.040236,-0.114579,-47.81818,15.818182,3.571429,33.8044664049957
5392,252,44.340176,-0.794875,-0.25618,10.237607,0.011325,0.037704,-0.111115,-37.272727,12.545454,6.836735,34.027181606335
5414,253,44.516129,-0.955286,-0.335188,10.070013,0.010658,0.037305,-0.099257,-37.272727,12.545454,6.836735,34.2479724003259
5435,254,44.692081,-0.770933,-0.158017,10.139445,0.014655,0.034773,-0.123505,-37.272727,12.545454,6.836735,34.4325087905451
5457,255,44.868034,-1.007959,-0.332794,11.228806,0.019585,0.036239,-0.125104,-30.545455,10.545454,8.061224,34.5729641135572
5478,256,45.043987,-0.830788,-0.213084,10.175357,0.013989,0.031709,-0.121107,-30.545455,10.545454,8.061224,34.7192541592418
5500,257,45.21994,-1.01993,-0.277727,10.876859,0.01692,0.043034,-0.120974,-30.545455,10.545454,8.061224,34.8509607415933
5521,258,45.395893,-0.85473,-0.232238,10.072407,0.016121,0.038637,-0.136296,-33.090911,11.454546,6.836735,34.9610840417926
5543,259,45.571846,-1.055843,-0.342371,10.884041,0.022116,0.038237,-0.133631,-33.090911,11.454546,6.836735,35.0609241728204
5564,260,45.747799,-0.837971,-0.251391,10.105926,0.015855,0.030776,-0.128302,-33.090911,11.454546,6.836735,35.1708747308175
5586,261,45.923752,-1.082179,-0.325611,10.603919,0.020251,0.045032,-0.134963,-33.090911,11.454546,6.836735,35.2584229257003
5607,262,46.099705,-0.830788,-0.208296,10.127473,0.02225,0.034507,-0.144556,-39.181819,12.727272,4.897959,35.3995608701726
5629,263,46.275658,-1.058237,-0.311246,10.587161,0.021051,0.035839,-0.129368,-39.181819,12.727272,4.897959,35.5453024181415
5650,264,46.451611,-0.845153,-0.225055,10.151415,0.01732,0.037971,-0.12617,-39.181819,12.727272,4.897959,35.6958446171884
5672,265,46.627563,-1.034295,-0.318429,10.469844,0.019185,0.043833,-0.1307,-47.454544,13.727273,3.673469,35.9301422742297
5693,266,46.803516,-0.861913,-0.253785,10.304645,0.019985,0.03424,-0.132432,-47.454544,13.727273,3.673469,36.1585268825362
5715,267,46.979469,-0.991199,-0.323217,10.402807,0.017587,0.033041,-0.117643,-47.454544,13.727273,3.673469,36.3873585636342
5736,268,47.155426,-0.842759,-0.227449,10.342952,0.017853,0.029977,-0.116977,-38.636363,10.909091,6.734694,36.6335517622572
5758,269,47.331379,-0.902614,-0.306458,10.311827,0.018386,0.031043,-0.115112,-38.636363,10.909091,6.734694,36.8627640273538
5780,270,47.507332,-0.665588,-0.232238,10.467451,0.023049,0.011991,-0.107651,-38.636363,10.909091,6.734694,37.0906115643587
5801,271,47.683285,-0.85473,-0.201113,11.482592,0.019452,0.003997,-0.083802,-30.454545,8.727273,7.755102,37.331871443171
5823,272,47.859238,-0.823605,-0.225055,10.831369,0.054891,-0.013989,-0.060753,-30.454545,8.727273,7.755102,37.587102773147
5844,273,48.035191,-0.586579,0.105345,11.508928,0.06475,-0.082603,-0.028511,-30.454545,8.727273,7.755102,37.8749545682148
5866,274,48.211144,-0.526724,0.076614,11.722012,0.055957,-0.102988,-0.02225,-40.090908,11.545455,4.489796,38.1509016936714
5887,275,48.387097,-0.435745,-0.062249,10.88883,0.025714,-0.079406,-0.015588,-40.090908,11.545455,4.489796,38.4230249490498
5909,276,48.56305,-0.454898,0.079009,11.705252,0.015188,-0.029844,-0.027712,-40.090908,11.545455,4.489796,38.6641776259966
5930,277,48.739003,-0.730232,-0.023942,10.771513,0.00826,0.000533,-0.039303,-45.909091,12.272728,3.673469,38.9420834250912
5952,278,48.914956,-0.596156,-0.047884,11.252748,0.003864,-0.001466,-0.045165,-45.909091,12.272728,3.673469,39.1957443326132
5973,279,49.090909,-0.727837,-0.04549,10.922348,0.001332,-0.001998,-0.032242,-45.909091,12.272728,3.673469,39.4561921187069
5995,280,49.266861,-0.727837,-0.016759,10.93432,0.003597,-0.009326,-0.037571,-45.909091,12.272728,3.673469,39.6944234462498
6016,281,49.442814,-0.694318,-0.033519,10.991781,0.008394,0.000933,-0.050095,-48.090908,12.363636,3.877551,39.9378875214958
6038,282,49.618767,-0.64404,0,11.125856,0.008527,0.007461,-0.075409,-48.090908,12.363636,3.877551,40.131843447739
6059,283,49.79472,-0.687136,-0.107739,10.821792,0.00826,0.019319,-0.092729,-48.090908,12.363636,3.877551,40.2983684274265
6080,284,49.970673,-0.701501,-0.055067,11.066,0.012391,0.019052,-0.113247,-39.636363,9.818182,6.836735,40.4586188369854
6101,285,50.146626,-0.653617,-0.158017,10.64941,0.014655,0.023982,-0.120308,-39.636363,9.818182,6.836735,40.6017364037364
6123,286,50.322579,-0.720655,-0.09098,10.84334,0.013723,0.020251,-0.128701,-39.636363,9.818182,6.836735,40.7189412805841
6144,287,50.498532,-0.68953,-0.124498,10.658987,0.01359,0.024648,-0.128168,-30.818181,8,8.57143,40.8027554911568
6166,288,50.674485,-0.727837,-0.083797,10.764331,0.012524,0.023582,-0.124571,-30.818181,8,8.57143,40.8793630560162
6187,289,50.850438,-0.73502,-0.160412,10.656592,0.012657,0.025181,-0.116444,-30.818181,8,8.57143,40.9702994519988
6209,290,51.026391,-0.682347,-0.093374,10.838552,0.011191,0.020518,-0.116311,-40,10,4.489796,41.0788499791627
6230,291,51.202347,-0.720655,-0.158017,10.723629,0.011191,0.022516,-0.11258,-40,10,4.489796,41.1939460593608
6252,292,51.3783,-0.718261,-0.110133,10.692505,0.010658,0.025447,-0.116311,-40,10,4.489796,41.2913142561566
6273,293,51.554253,-0.756568,-0.02873,11.113884,0.012923,0.026113,-0.111381,-47.545452,11.454546,3.367347,41.4250659022015
6295,294,51.730206,-0.651223,-0.134075,10.647015,0.012391,0.023715,-0.121107,-47.545452,11.454546,3.367347,41.5321184726914
6316,295,51.906159,-0.782904,-0.081403,11.013328,0.013989,0.026113,-0.119908,-47.545452,11.454546,3.367347,41.6428160304831
6338,296,52.082112,-0.742202,-0.088585,10.426749,0.010126,0.025847,-0.116844,-38.363636,8,6.428572,41.8445462784461
6359,297,52.258065,-0.773327,-0.081403,10.891224,0.011858,0.028911,-0.114579,-38.363636,8,6.428572,42.0463023215482
6381,298,52.434018,-0.699107,-0.122104,10.510546,0.009459,0.024381,-0.115511,-38.363636,8,6.428572,42.229662009806
6402,299,52.609971,-0.816423,-0.083797,10.733206,0.010792,0.028911,-0.114712,-38.363636,8,6.428572,42.4119904772352
6424,300,52.785923,-0.725443,-0.033519,10.685322,0.010792,0.028778,-0.115245,-38.363636,8,6.428572,42.5774256967857
6445,301,52.961876,-0.816423,-0.067038,10.759543,0.011058,0.028911,-0.110449,-38.363636,8,6.428572,42.7478722727553
6467,302,53.137829,-0.687136,0.009577,10.680534,0.011458,0.027845,-0.110715,-38.363636,8,6.428572,42.902643192074
6488,303,53.313782,-0.78051,-0.107739,10.63265,0.010259,0.030243,-0.103654,-31,6.272727,8.265307,43.084816230404
6510,304,53.489735,-0.672771,-0.043096,10.668563,0.008394,0.027179,-0.100856,-31,6.272727,8.265307,43.2552912943187
6531,305,53.665688,-0.802058,-0.067038,10.682929,0.011858,0.028112,-0.094194,-31,6.272727,8.265307,43.432050911992
6553,306,53.841641,-0.687136,0.043096,10.747571,0.013057,0.02598,-0.103121,-41.727272,8.454546,4.183673,43.5812648123186
6574,307,54.017594,-0.790087,-0.11971,10.654198,0.011458,0.03091,-0.102855,-41.727272,8.454546,4.183673,43.7297042611766
6596,308,54.193547,-0.612916,-0.079009,10.51294,0.010126,0.038504,-0.106585,-41.727272,8.454546,4.183673,43.8593481671166
6617,309,54.3695,-0.773327,-0.064643,10.527305,0.013057,0.032508,-0.106052,-47.727272,9.181818,3.061224,44.0216379948816
6639,310,54.545453,-0.646434,0.007183,10.500969,0.015988,0.028778,-0.105386,-47.727272,9.181818,3.061224,44.1701915896936
6660,311,54.721405,-0.792481,-0.114922,10.553642,0.012923,0.033574,-0.104986,-47.727272,9.181818,3.061224,44.3183161424639
6682,312,54.897358,-0.687136,0.02873,10.548853,0.015721,0.032642,-0.107917,-38,6.727273,6.938776,44.4966540512822
6703,313,55.073311,-0.785298,-0.105345,10.290279,0.011858,0.033841,-0.10885,-38,6.727273,6.938776,44.6715076106328
6725,314,55.249264,-0.701501,-0.014365,10.369288,0.015188,0.032908,-0.112047,-38,6.727273,6.938776,44.8265974182684
6746,315,55.425221,-0.80924,-0.093374,10.314222,0.01359,0.033974,-0.111515,-31.181818,4.909091,8.367347,45.043230126179
6768,316,55.601174,-0.682347,-0.031125,10.579977,0.01692,0.034507,-0.115511,-31.181818,4.909091,8.367347,45.2367650383546
6789,317,55.777127,-0.665588,-0.093374,11.080366,0.012257,0.033708,-0.111248,-31.181818,4.909091,8.367347,45.4332342351181
6811,318,55.95308,-0.617704,0.035913,10.81461,0.017986,0.03051,-0.118443,-31.545454,5.181818,7.959183,45.5817467589144
6832,319,56.129032,-0.550666,-0.095768,10.826581,0.013323,0.032508,-0.118443,-31.545454,5.181818,7.959183,45.7301187324087
6854,320,56.304985,-0.538695,0.052672,10.896013,0.019185,0.029444,-0.126436,-31.545454,5.181818,7.959183,45.8529712680233
6875,321,56.480937,-0.481235,-0.141258,10.105926,0.008394,0.032109,-0.115511,-31.545454,5.181818,7.959183,45.9915691262549
6897,322,56.65689,-0.591368,0.047884,10.907983,0.018652,0.030377,-0.120841,-37.909091,6.454545,5.408164,46.0900296959412
6918,323,56.832843,-0.4956,-0.126893,10.055647,0.009593,0.034107,-0.120441,-37.909091,6.454545,5.408164,46.1915164658254
6940,324,57.008796,-0.675165,0.033519,10.857706,0.018253,0.029844,-0.12657,-37.909091,6.454545,5.408164,46.2722274468336
6961,325,57.184749,-0.466869,-0.158017,10.077196,0.009992,0.034374,-0.125371,-47.545452,7.636364,2.959184,46.3886491721596
6983,326,57.360702,-0.658405,0.062249,11.0253,0.015588,0.027712,-0.126836,-47.545452,7.636364,2.959184,46.4895562434694
7004,327,57.536655,-0.521936,-0.129287,10.168175,0.009859,0.033441,-0.123372,-47.545452,7.636364,2.959184,46.597693532127
7026,328,57.712608,-0.579397,0.019154,10.577584,0.011458,0.031309,-0.116711,-38.81818,4.818181,6.632653,46.8176170224574
7047,329,57.888561,-0.529119,-0.124498,10.129868,0.007328,0.033441,-0.113779,-38.81818,4.818181,6.632653,47.0375099941945
7069,330,58.064514,-0.509965,0.007183,10.675745,0.015588,0.034773,-0.123639,-38.81818,4.818181,6.632653,47.2260680075667
7090,331,58.240467,-0.553061,-0.158017,10.184934,0.009193,0.033175,-0.121374,-30.909091,3.181818,8.163266,47.4834195325362
7112,332,58.416419,-0.464475,0.026336,10.532094,0.013057,0.032508,-0.120175,-30.909091,3.181818,8.163266,47.722060560451
7133,333,58.592372,-0.43335,-0.100556,10.110714,0.008793,0.031576,-0.118842,-30.909091,3.181818,8.163266,47.9578829090069
7154,334,58.768325,-0.466869,0.043096,10.635045,0.01772,0.033841,-0.126836,-39.545455,5.363636,4.081633,48.0672543942035
7175,335,58.944278,-0.474052,-0.143652,10.077196,0.009193,0.03011,-0.121507,-39.545455,5.363636,4.081633,48.178040494164
7197,336,59.120231,-0.466869,0.026336,10.663775,0.015188,0.033175,-0.12577,-39.545455,5.363636,4.081633,48.2700452584188
7218,337,59.296184,-0.502782,-0.11971,10.06283,0.012124,0.033574,-0.127103,-42.727272,5.272727,3.265306,48.4023946100385
7240,338,59.472141,-0.608127,0.07422,10.711659,0.017986,0.03464,-0.135763,-42.727272,5.272727,3.265306,48.5085904500838
7261,339,59.648094,-0.596156,-0.220267,10.070013,0.008394,0.038104,-0.120441,-42.727272,5.272727,3.265306,48.6376174971354
7283,340,59.824047,-0.521936,0.014365,10.764331,0.016121,0.033974,-0.121374,-42.727272,5.272727,3.265306,48.7515227318438
7304,341,60,-0.54109,-0.169988,9.967062,0.008527,0.041835,-0.115511,-47.181816,5.636363,2.44898,48.8873522294386
7326,342,60.175952,-0.56982,0.040701,10.771513,0.018919,0.037571,-0.12577,-47.181816,5.636363,2.44898,48.9954035036028
7347,343,60.351905,-0.526724,-0.21069,9.962274,0.010925,0.045565,-0.131366,-47.181816,5.636363,2.44898,49.0985598929962
7369,344,60.527858,-0.584185,0.033519,10.740389,0.020518,0.036372,-0.141758,-37.181819,2.727273,7.040816,49.322287603462
7390,345,60.703811,-0.565032,-0.138864,9.998187,0.011991,0.035173,-0.133498,-37.181819,2.727273,7.040816,49.5542170480165
7412,346,60.879764,-0.64404,0.059855,10.855311,0.019052,0.030776,-0.139626,-37.181819,2.727273,7.040816,49.7580468259648
7433,347,61.055717,-0.555455,-0.225055,9.945514,0.011858,0.040103,-0.132299,-30.818181,1.454545,7.959183,50.0540854230162
7455,348,61.23167,-0.560243,0.059855,10.697294,0.018119,0.035306,-0.133098,-30.818181,1.454545,7.959183,50.3261036026823
7476,349,61.407623,-0.574608,-0.158017,9.959879,0.009193,0.038504,-0.11751,-30.818181,1.454545,7.959183,50.612841534377
7498,350,61.583576,-0.584185,0.098162,10.840946,0.016521,0.03424,-0.128168,-39.909091,3.454545,3.77551,50.7367509114399
7519,351,61.759529,-0.596156,-0.160412,9.974245,0.010525,0.040369,-0.122706,-39.909091,3.454545,3.77551,50.8694030294288
7541,352,61.935482,-0.586579,0.062249,10.704476,0.015721,0.032375,-0.123905,-39.909091,3.454545,3.77551,50.9862528290518
7562,353,62.111434,-0.634463,-0.196325,10.012552,0.007194,0.039303,-0.118709,-47.090908,3.909091,2.346939,51.1229986659262
7584,354,62.287387,-0.634463,0.04549,10.745178,0.014922,0.033574,-0.122972,-47.090908,3.909091,2.346939,51.239837276889
7605,355,62.46334,-0.632069,-0.198719,9.974245,0.007861,0.038504,-0.112847,-47.090908,3.909091,2.346939,51.3714755284623
7626,356,62.639293,-0.641646,0.071826,10.637438,0.017054,0.035173,-0.115911,-45.090908,2.818182,3.469388,51.5586226995599
7647,357,62.815246,-0.588974,-0.191536,9.907207,0.011458,0.047963,-0.1307,-45.090908,2.818182,3.469388,51.7173103386234
7669,358,62.991199,-0.61531,0,10.716447,0.018519,0.035173,-0.134963,-45.090908,2.818182,3.469388,51.8542561309975
7690,359,63.167152,-0.639252,-0.1652,10.029312,0.011058,0.03544,-0.120041,-45.090908,2.818182,3.469388,52.0119297681839
7712,360,63.343105,-0.565032,0.067038,10.709264,0.014789,0.031176,-0.116577,-39.545455,1.545454,5.612245,52.2346392743946
7733,361,63.519062,-0.59855,-0.177171,9.979033,0.010126,0.048096,-0.129767,-39.545455,1.545454,5.612245,52.4363467798066
7755,362,63.695014,-0.596156,0.038307,10.680534,0.019319,0.040769,-0.139093,-39.545455,1.545454,5.612245,52.6073678104082
7776,363,63.870967,-0.627281,-0.186748,9.993398,0.010658,0.041701,-0.123106,-30.818181,-0.090909,7.857143,52.9350391339839
7798,364,64.04692,-0.593762,0.050278,10.64941,0.017054,0.030377,-0.132965,-30.818181,-0.090909,7.857143,53.2254142587882
7819,365,64.222869,-0.622492,-0.244209,9.94312,0.013989,0.042234,-0.141358,-30.818181,-0.090909,7.857143,53.4986081115006
7841,366,64.398826,-0.641646,-0.014365,10.67814,0.017853,0.033841,-0.142957,-38.727272,1.818182,3.979592,53.5858645442559
7862,367,64.574775,-0.600945,-0.217872,10.019735,0.009459,0.033308,-0.124571,-38.727272,1.818182,3.979592,53.7012992435292
7884,368,64.750732,-0.620098,0.004788,10.625468,0.014655,0.03504,-0.137495,-38.727272,1.818182,3.979592,53.7858120491511
7905,369,64.926681,-0.6608,-0.174777,9.986216,0.009859,0.044499,-0.137228,-46.545455,2.181818,2.142857,53.8751379741242
7927,370,65.102638,-0.76375,0.050278,10.742783,0.011191,0.036905,-0.131632,-46.545455,2.181818,2.142857,53.9591293697642
7948,371,65.278587,-0.565032,-0.112527,10.132262,0.005596,0.042101,-0.128035,-46.545455,2.181818,2.142857,54.0516635433051
7970,372,65.454544,-0.636858,0.004788,10.565612,0.011458,0.048496,-0.142957,-37.81818,-0.454545,5.918367,54.3020443511341
7991,373,65.6305,-0.667982,-0.110133,10.254366,0.011724,0.044899,-0.152816,-37.81818,-0.454545,5.918367,54.5359646257604
8013,374,65.806449,-0.696713,0.016759,10.603919,0.011058,0.038904,-0.143224,-37.81818,-0.454545,5.918367,54.7617690872352
8034,375,65.982406,-0.665588,-0.050278,10.330981,0.009459,0.039303,-0.138694,-34.636363,-1.090909,7.142858,55.0539626050701
8056,376,66.158355,-0.679953,0.062249,10.625468,0.013989,0.042634,-0.149619,-34.636363,-1.090909,7.142858,55.3082325803869
8077,377,66.334312,-0.691924,-0.086191,10.405201,0.010925,0.039836,-0.141358,-34.636363,-1.090909,7.142858,55.5696619748761
8099,378,66.510261,-0.696713,0.052672,10.690111,0.013057,0.035839,-0.132565,-34.636363,-1.090909,7.142858,55.8212236772624
8120,379,66.686218,-0.708684,-0.043096,10.572795,0.008394,0.03424,-0.124571,-30.363637,-1.909091,7.857143,56.1800303710098
8142,380,66.862167,-0.727837,0.021548,10.697294,0.011991,0.039303,-0.124971,-30.363637,-1.909091,7.857143,56.5126934773977
8163,381,67.038124,-0.727837,-0.057461,10.503363,0.009726,0.037305,-0.115911,-30.363637,-1.909091,7.857143,56.8481123476696
8185,382,67.214073,-0.768539,0.079009,10.714053,0.019851,0.037971,-0.152017,-38.909088,-0.181818,3.163265,56.9226312867381
8206,383,67.390029,-0.718261,-0.167594,10.453085,0.01772,0.037172,-0.152816,-38.909088,-0.181818,3.163265,57.0017423651303
8228,384,67.565979,-0.730232,0.014365,10.635045,0.017986,0.034374,-0.138427,-38.909088,-0.181818,3.163265,57.0869691719583
8249,385,67.741935,-0.711078,-0.148441,10.323799,0.016787,0.038504,-0.136695,-46.181819,0.272727,1.734694,57.1444418219639
8271,386,67.917884,-0.770933,0.014365,10.658987,0.023315,0.0429,-0.157746,-46.181819,0.272727,1.734694,57.1621478836693
8292,387,68.093841,-0.751779,-0.177171,10.290279,0.020251,0.037172,-0.143623,-46.181819,0.272727,1.734694,57.2069130648644
8314,388,68.26979,-0.754173,0.02873,10.656592,0.019985,0.033041,-0.1299,-36.818183,-2.272727,6.020408,57.4778672655564
8335,389,68.445747,-0.718261,-0.148441,10.247183,0.020251,0.042368,-0.148553,-36.818183,-2.272727,6.020408,57.719170418968
8357,390,68.621696,-0.792481,0.007183,10.656592,0.025447,0.039303,-0.159611,-36.818183,-2.272727,6.020408,57.9243081808408
8378,391,68.797653,-0.76375,-0.201113,10.223241,0.016521,0.03424,-0.133231,-30.000001,-3.454545,7.448979,58.3346404085358
8400,392,68.973602,-0.656011,-0.023942,10.505758,0.016254,0.033708,-0.132032,-30.000001,-3.454545,7.448979,58.7178838153121
8421,393,69.149559,-0.720655,-0.222661,10.10832,0.022383,0.043034,-0.151351,-30.000001,-3.454545,7.448979,59.0651326102968
8443,394,69.325508,-0.665588,-0.079009,10.450691,0.021583,0.040769,-0.155081,-35.81818,-2.090909,5.204082,59.1982874986879
8464,395,69.501464,-0.720655,-0.198719,10.278308,0.016121,0.033574,-0.128302,-35.81818,-2.090909,5.204082,59.3689122385912
8485,396,69.677421,-0.675165,-0.047884,10.472239,0.020251,0.042101,-0.144423,-35.81818,-2.090909,5.204082,59.5101830936761
8506,397,69.85337,-0.768539,-0.222661,10.089166,0.023315,0.04743,-0.15628,-35.81818,-2.090909,5.204082,59.6290753427202
8528,398,70.029327,-0.715866,-0.055067,10.539277,0.019985,0.042634,-0.145089,-39.545455,-2.090909,3.061224,59.7297974182299
8549,399,70.205276,-0.744597,-0.181959,10.194511,0.018253,0.038104,-0.128435,-39.545455,-2.090909,3.061224,59.8559184777787
8571,400,70.381233,-0.68953,-0.047884,10.591949,0.019319,0.045698,-0.148686,-39.545455,-2.090909,3.061224,59.9404311000696
8592,401,70.557182,-0.794875,-0.208296,10.242395,0.027046,0.045698,-0.149885,-45,-1.818182,1.530612,59.9880363078852
8614,402,70.733139,-0.727837,0.033519,10.790668,0.015855,0.039303,-0.1311,-45,-1.818182,1.530612,60.0494612815902
8635,403,70.909088,-0.756568,-0.117316,10.266337,0.020784,0.036106,-0.126836,-45,-1.818182,1.530612,60.121386161378
8657,404,71.085044,-0.725443,-0.026336,10.656592,0.015322,0.041968,-0.13936,-36.090911,-4.363636,6.020408,60.4237514222306
8678,405,71.260993,-0.737414,-0.124498,10.350134,0.023582,0.040902,-0.131899,-36.090911,-4.363636,6.020408,60.7292070195432
8700,406,71.43695,-0.699107,0.057461,10.651803,0.012257,0.036239,-0.118576,-36.090911,-4.363636,6.020408,61.0293051990517
8721,407,71.612899,-0.725443,-0.129287,10.30225,0.025314,0.041968,-0.139626,-29.636362,-5.090909,7.551021,61.4557029915035
8743,408,71.788856,-0.756568,-0.009577,10.711659,0.023848,0.0429,-0.156413,-29.636362,-5.090909,7.551021,61.8294775119264
8764,409,71.964805,-0.761356,-0.134075,10.481816,0.023582,0.038371,-0.127502,-29.636362,-5.090909,7.551021,62.2315266218781
8786,410,72.140762,-0.758962,0.004788,10.711659,0.018519,0.039436,-0.133764,-37.81818,-3.636363,3.571429,62.3567632406428
8807,411,72.316711,-0.754173,-0.191536,10.477027,0.025447,0.040769,-0.137495,-37.81818,-3.636363,3.571429,62.4791463169301
8829,412,72.492668,-0.806846,0.067038,10.785879,0.020651,0.040103,-0.132432,-37.81818,-3.636363,3.571429,62.5938043526359
8850,413,72.668617,-0.790087,-0.093374,10.467451,0.017587,0.036239,-0.115778,-43.272727,-3.454545,1.938776,62.6799556842244
8872,414,72.844573,-0.80924,0.112527,10.745178,0.022116,0.044766,-0.142824,-43.272727,-3.454545,1.938776,62.7180808749801
8893,415,73.020523,-0.730232,-0.196325,10.469844,0.029178,0.040369,-0.140692,-43.272727,-3.454545,1.938776,62.7658382769919
8915,416,73.196479,-0.833182,0.110133,10.721236,0.023182,0.041168,-0.131499,-43.272727,-3.454545,1.938776,62.8149938119696
8936,417,73.372428,-0.749385,-0.1652,10.5297,0.02145,0.037305,-0.126969,-44.636363,-3.818182,1.938776,62.8939826731501
8958,418,73.548385,-0.864307,0.100556,10.824187,0.03091,0.041701,-0.148953,-44.636363,-3.818182,1.938776,62.9314648596632
8980,419,73.724342,-0.751779,-0.1652,10.608708,0.028112,0.041035,-0.131499,-44.636363,-3.818182,1.938776,62.9906908941804
9001,420,73.900291,-0.905008,0.138864,10.850522,0.023582,0.043034,-0.124704,-37.090908,-5.818182,5.918367,63.2912761545647
9023,421,74.076248,-0.768539,-0.189142,10.405201,0.026113,0.041968,-0.13976,-37.090908,-5.818182,5.918367,63.548788887575
9044,422,74.252197,-0.931344,0.155623,10.819398,0.034907,0.042501,-0.14389,-37.090908,-5.818182,5.918367,63.7966877011686
9066,423,74.428153,-0.794875,-0.09098,10.51294,0.025181,0.041835,-0.12244,-28.727272,-7.090909,7.857143,64.3320719655968
9087,424,74.604103,-0.749385,0.062249,10.658987,0.022516,0.043567,-0.123505,-28.727272,-7.090909,7.857143,64.8468423317607
9109,425,74.780059,-0.802058,-0.160412,10.366894,0.025847,0.043833,-0.142291,-28.727272,-7.090909,7.857143,65.3028573961733
9130,426,74.956008,-0.811634,0.043096,10.711659,0.036239,0.044366,-0.141891,-37,-5.636363,3.469388,65.4513169172609
9152,427,75.131965,-0.823605,-0.038307,10.510546,0.024781,0.040369,-0.124838,-37,-5.636363,3.469388,65.6067015122231
9172,428,75.307914,-0.804452,0.086191,10.690111,0.025181,0.044899,-0.133098,-37,-5.636363,3.469388,65.7595127444002
9194,429,75.483871,-0.806846,-0.110133,10.412384,0.032242,0.039703,-0.137095,-44.272727,-5.272727,1.632653,65.7772595027715
9215,430,75.65982,-0.873884,0.117316,10.764331,0.028245,0.043966,-0.127236,-44.272727,-5.272727,1.632653,65.8152855798066
9237,431,75.835777,-0.840365,-0.062249,10.417172,0.02145,0.040902,-0.115112,-44.272727,-5.272727,1.632653,65.859990090127
9258,432,76.011726,-0.90022,0.098162,10.625468,0.028245,0.047164,-0.142691,-35.545452,-7.454546,5.612245,66.1593894329359
9280,433,76.187683,-0.859518,-0.153229,10.31901,0.037438,0.045832,-0.150951,-35.545452,-7.454546,5.612245,66.4238652549638
9301,434,76.363632,-0.873884,0.129287,10.776302,0.027712,0.045432,-0.131366,-35.545452,-7.454546,5.612245,66.7096987463976
9323,435,76.539588,-0.804452,-0.023942,10.594343,0.02225,0.042368,-0.122706,-35.545452,-7.454546,5.612245,66.9848789494798
9344,436,76.715538,-0.871489,0.122104,10.740389,0.034507,0.047697,-0.146021,-35.545452,-7.454546,5.612245,67.2237326634609
9366,437,76.891494,-0.799663,-0.067038,10.596737,0.030243,0.044366,-0.140026,-35.545452,-7.454546,5.612245,67.4497745360531
9387,438,77.067443,-0.85473,0.148441,10.761937,0.026779,0.046498,-0.128435,-35.545452,-7.454546,5.612245,67.6880983819778
9409,439,77.2434,-0.816423,-0.007183,10.668563,0.02558,0.043034,-0.137228,-28.454545,-9.090909,7.653061,68.22657542451
9430,440,77.419349,-0.85473,0.181959,10.828975,0.030776,0.045565,-0.143623,-28.454545,-9.090909,7.653061,68.7383090150033
9452,441,77.595306,-0.818817,0,10.54167,0.024381,0.042234,-0.125237,-28.454545,-9.090909,7.653061,69.2405012005916
9473,442,77.771255,-0.871489,0.23942,10.840946,0.024115,0.043833,-0.12577,-37.81818,-7,3.061224,69.3160154638516
9495,443,77.947212,-0.85473,-0.016759,10.548853,0.022116,0.045565,-0.132432,-37.81818,-7,3.061224,69.3710035613525
9516,444,78.123168,-0.622492,0.169988,10.735601,0.027845,0.045832,-0.126037,-37.81818,-7,3.061224,69.4396478367172
9538,445,78.299118,-0.835576,0.07422,10.663775,0.024115,0.043034,-0.118443,-43.272727,-7,1.938776,69.4340630169365
9559,446,78.475074,-0.646434,0.1652,10.740389,0.027312,0.04783,-0.147221,-43.272727,-7,1.938776,69.3988714849985
9581,447,78.651023,-0.845153,-0.043096,10.472239,0.031709,0.044366,-0.141758,-43.272727,-7,1.938776,69.3637766873904
9602,448,78.82698,-0.675165,0.19393,10.850522,0.02558,0.043034,-0.122706,-34.454544,-9.363636,6.020408,69.7036175183818
9624,449,79.002929,-0.818817,0.052672,10.412384,0.021983,0.042634,-0.128835,-34.454544,-9.363636,6.020408,70.0106255440433
9645,450,79.178886,-0.749385,0.174777,10.711659,0.024781,0.044499,-0.138161,-34.454544,-9.363636,6.020408,70.2981615215509
9667,451,79.354835,-0.828394,0.081403,10.536882,0.025181,0.039436,-0.121507,-27.818181,-10.090909,7.551021,70.8528322655042
9688,452,79.530792,-0.737414,0.196325,10.788273,0.014389,0.040103,-0.110715,-27.818181,-10.090909,7.551021,71.4011824644545
9710,453,79.706741,-0.818817,0.095768,10.90559,0.012391,0.041302,-0.112714,-27.818181,-10.090909,7.551021,71.9126004481195
9731,454,79.882698,-0.794875,0.213084,10.675745,0.016654,0.047697,-0.117643,-28.454545,-9.818182,6.632653,72.348101360123
9753,455,80.058647,-0.835576,0.205901,10.809822,0.014922,0.040636,-0.094461,-28.454545,-9.818182,6.632653,72.7859601821288
9774,456,80.234603,-0.931344,0.213084,10.706871,0.008793,0.047031,-0.116311,-28.454545,-9.818182,6.632653,73.1795135817759
9796,455,80.058647,-0.873884,0.055067,10.670957,0.021983,0.051028,-0.141225,-28.454545,-9.818182,6.632653,73.5125228791795
9817,454,79.882698,-1.130063,0.378284,10.508152,-0.032508,-0.002265,0.160544,-30.909091,-10.363636,7.040816,74.1990469095511
9839,453,79.706741,-1.154005,0.991199,10.979809,-0.120441,-0.034907,0.24368,-30.909091,-10.363636,7.040816,74.9736151675686
9860,452,79.530792,-1.084573,0.397438,11.020511,-0.060487,0.001865,0.046498,-30.909091,-10.363636,7.040816,75.4397773635184
9882,451,79.354835,-1.11091,0.605733,10.927137,-0.006795,0.012923,0.142025,-42.727272,-8,1.020408,75.5666490251907
9903,450,79.178886,-1.127669,0.751779,10.668563,-0.079672,0.012657,0.180528,-42.727272,-8,1.020408,75.7281738694145
9925,449,79.002929,-1.237802,0.617704,11.195287,-0.069813,-0.013723,0.125904,-42.727272,-8,1.020408,75.8188115033104
9946,448,78.82698,-1.211466,0.545878,10.941502,-0.037571,-0.00866,0.12657,-38.181816,-7.636364,2.959184,75.9378659902538
9968,447,78.651023,-1.170765,0.804452,11.508928,-0.063152,-0.00373,0.167871,-38.181816,-7.636364,2.959184,76.1146393271808
9989,446,78.475074,-1.163582,0.648829,11.03727,-0.062619,0.011191,0.140692,-38.181816,-7.636364,2.959184,76.2371430675905
10011,445,78.299118,-1.254562,0.749385,11.592725,-0.037038,-0.003331,0.142424,-27.909091,-9.454545,7.959183,76.7828732885638
10032,444,78.123168,-1.170765,0.746991,11.022905,-0.06475,-0.002931,0.157613,-27.909091,-9.454545,7.959183,77.3121757552122
10054,443,77.947212,-1.244985,0.658405,11.207259,-0.071678,-0.012657,0.164807,-27.909091,-9.454545,7.959183,77.8344419972939
10075,442,77.771255,-1.115698,0.723049,11.137826,-0.056623,-0.003997,0.141358,-33.636363,-9,6.22449,78.0791518524528
10097,441,77.595306,-1.194707,0.622492,11.279085,-0.051827,-0.003331,0.144423,-33.636363,-9,6.22449,78.324468142401
10118,440,77.419349,-1.197101,0.667982,10.943897,-0.061286,0.009193,0.155081,-33.636363,-9,6.22449,78.5624019676496
10141,439,77.2434,-1.199495,0.696713,11.394006,-0.05609,-0.003064,0.156813,-40.909091,-7.272727,3.571429,78.533172938432
10162,438,77.067443,-1.115698,0.663194,11.039665,-0.057289,0.001066,0.147221,-40.909091,-7.272727,3.571429,78.4737256783248
10184,437,76.891494,-1.142034,0.562637,10.898406,-0.053692,-0.002798,0.159877,-40.909091,-7.272727,3.571429,78.4434314285122
10205,436,76.715538,-1.118092,0.624887,11.097126,-0.054492,0.007727,0.164141,-40.909091,-7.272727,3.571429,78.4103259180013
10227,435,76.539588,-1.18513,0.579397,11.20247,-0.047164,0.007328,0.154015,-43.909091,-6.454545,1.326531,78.2781952777434
10248,434,76.363632,-1.194707,0.61531,10.881648,-0.054092,0.011724,0.159345,-43.909091,-6.454545,1.326531,78.1500826465909
10270,433,76.187683,-1.201889,0.581791,11.176134,-0.050761,-0.000533,0.167472,-43.909091,-6.454545,1.326531,78.0491735689976
10291,432,76.011726,-1.161188,0.526724,10.884041,-0.049828,0.011191,0.147887,-39,-6.454545,3.061224,77.9761822244907
10313,431,75.835777,-1.170765,0.47884,10.855311,-0.045565,0.009726,0.156547,-39,-6.454545,3.061224,77.9276548530919
10334,430,75.65982,-1.149217,0.593762,10.912772,-0.05689,0.011458,0.177864,-39,-6.454545,3.061224,77.8994591586536
10356,429,75.483871,-1.149217,0.538695,10.93432,-0.04743,0.005862,0.163608,-28.90909,-7.909091,8.061224,78.1978709000728
10378,428,75.307914,-1.158794,0.500388,10.970232,-0.043966,0.011325,0.135763,-28.90909,-7.909091,8.061224,78.4436834694636
10400,427,75.131965,-1.154005,0.418985,10.996569,-0.040902,0.011325,0.148153,-28.90909,-7.909091,8.061224,78.6939709937077
10421,426,74.956008,-1.103727,0.536301,10.817004,-0.052893,0.015988,0.168404,-34.272727,-7.090909,6.530612,78.7447403889792
10443,425,74.780059,-1.173159,0.557849,11.12825,-0.044766,0.007994,0.159877,-34.272727,-7.090909,6.530612,78.7917909947867
10464,424,74.604103,-1.16837,0.497994,11.006146,-0.045698,0.011458,0.150818,-34.272727,-7.090909,6.530612,78.8149544787319
10486,423,74.428153,-1.154005,0.442927,10.879253,-0.044499,0.010392,0.165873,-43.909091,-5.090909,1.734694,78.5798190485643
10507,422,74.252197,-1.137246,0.543484,11.0253,-0.049962,0.012657,0.171602,-43.909091,-5.090909,1.734694,78.3536378840772
10529,421,74.076248,-1.177947,0.469264,11.027693,-0.039436,0.010392,0.145622,-43.909091,-5.090909,1.734694,78.1141655533864
10550,420,73.900291,-1.163582,0.526724,11.068395,-0.0429,0.010126,0.15175,-38.727272,-5.181818,3.367347,77.9425552915302
10572,419,73.724342,-1.158794,0.507571,11.089942,-0.044366,0.00906,0.168538,-38.727272,-5.181818,3.367347,77.8115759894296
10593,418,73.548385,-1.09415,0.577003,10.879253,-0.049695,0.014256,0.165606,-38.727272,-5.181818,3.367347,77.6729922722212
10615,417,73.372428,-1.170765,0.560243,11.44189,-0.039037,0.009726,0.14802,-34.181819,-6.090909,5.408164,77.6679884895959
10636,416,73.196479,-1.146823,0.47884,11.020511,-0.044366,0.010259,0.154015,-34.181819,-6.090909,5.408164,77.6618740532997
10658,415,73.020523,-1.103727,0.464475,11.05403,-0.045299,0.008394,0.172135,-34.181819,-6.090909,5.408164,77.6900575005736
10680,414,72.844573,-1.103727,0.538695,11.046847,-0.045965,0.014389,0.162675,-34.181819,-6.090909,5.408164,77.7040309346255
10702,413,72.668617,-1.189918,0.402226,11.200076,-0.036239,0.00866,0.148819,-29.272726,-6.181818,7.857143,77.8014400879135
10723,412,72.492668,-1.086968,0.536301,11.077972,-0.045565,0.00906,0.167072,-29.272726,-6.181818,7.857143,77.9084018105226
10745,411,72.316711,-1.175553,0.509965,11.367671,-0.0441,0.006795,0.168271,-29.272726,-6.181818,7.857143,78.0219139798863
10766,410,72.140762,-1.106121,0.512359,11.228806,-0.040769,0.014123,0.14389,-35.727272,-5.545454,6.122449,77.9126635126634
10788,409,71.964805,-1.118092,0.344765,11.137826,-0.035706,0.007861,0.145089,-35.727272,-5.545454,6.122449,77.8193482459651
10809,408,71.788856,-1.09415,0.529119,11.348517,-0.046764,0.008127,0.174266,-35.727272,-5.545454,6.122449,77.7594611470263
10831,407,71.612899,-1.175553,0.476446,11.319787,-0.041568,0.010792,0.165074,-44.81818,-3,1.836735,77.4187255640574
10852,406,71.43695,-1.041478,0.517148,11.106702,-0.0429,0.013323,0.154015,-44.81818,-3,1.836735,77.0705892218749
10874,405,71.260993,-1.132457,0.416591,11.42992,-0.041435,0.007594,0.166139,-44.81818,-3,1.836735,76.765738344626
10895,404,71.085044,-1.036689,0.545878,11.195287,-0.044366,0.010658,0.175732,-39.363636,-3,3.673469,76.5081750905626
10918,403,70.909088,-1.125275,0.445322,11.200076,-0.037438,0.01359,0.133364,-39.363636,-3,3.673469,76.225171126174
10939,402,70.733139,-1.082179,0.466869,11.161768,-0.035573,0.011991,0.135096,-39.363636,-3,3.673469,75.9421488490652
10961,401,70.557182,-1.046266,0.390255,11.355699,-0.040103,0.006395,0.166939,-30.272727,-4.727272,7.959183,75.9798962670862
10982,400,70.381233,-1.067814,0.562637,11.245566,-0.045299,0.015721,0.16494,-30.272727,-4.727272,7.959183,76.0029063907465
11004,399,70.205276,-1.130063,0.354342,11.29345,-0.037438,0.014922,0.144689,-30.272727,-4.727272,7.959183,76.0075082457326
11025,398,70.029327,-1.007959,0.476446,11.24796,-0.042234,0.006262,0.168804,-35.81818,-4.272727,6.530612,75.917016685925
11047,397,69.85337,-1.115698,0.397438,11.427525,-0.0429,0.009859,0.1736,-35.81818,-4.272727,6.530612,75.847922063616
11068,396,69.677421,-1.082179,0.505177,11.331757,-0.0429,0.016387,0.16121,-35.81818,-4.272727,6.530612,75.7556010425172
11090,395,69.501464,-1.024718,0.320823,11.346122,-0.038504,0.010525,0.154282,-39.818183,-2.454545,4.489796,75.4833902634834
11111,394,69.325508,-1.031901,0.54109,11.401189,-0.044233,0.005862,0.182394,-39.818183,-2.454545,4.489796,75.2516113893106
11133,393,69.149559,-1.125275,0.462081,11.520899,-0.044366,0.012524,0.170802,-39.818183,-2.454545,4.489796,75.0269542040342
11156,392,68.973602,-1.06542,0.481235,11.326969,-0.040103,0.015055,0.155348,-39.818183,-2.454545,4.489796,74.8021732219767
11177,391,68.797653,-1.118092,0.292093,11.355699,-0.038104,0.007727,0.159345,-45.181816,-1.454545,2.55102,74.4795621741603
11199,390,68.621696,-1.015141,0.521936,11.513716,-0.043833,0.008127,0.183459,-45.181816,-1.454545,2.55102,74.2155124805248
11220,389,68.445747,-1.142034,0.459687,11.585542,-0.042634,0.01279,0.16041,-45.181816,-1.454545,2.55102,73.9236100742678
11242,388,68.26979,-1.04866,0.426168,11.365276,-0.039703,0.014123,0.150551,-39,-1.545454,4.387755,73.6668623037145
11263,387,68.093841,-1.00317,0.294487,11.415555,-0.040502,0.006662,0.16574,-39,-1.545454,4.387755,73.4333108108666
11285,386,67.917884,-0.995988,0.47884,11.468227,-0.045432,0.009193,0.186923,-39,-1.545454,4.387755,73.2502949362209
11306,385,67.741935,-1.163582,0.426168,11.645398,-0.0429,0.017853,0.157213,-30.636363,-3.181818,7.857143,73.2333517910422
11328,384,67.565979,-1.015141,0.385467,11.353305,-0.038504,0.012257,0.147887,-30.636363,-3.181818,7.857143,73.2143059879834
11349,383,67.390029,-1.010353,0.320823,11.44189,-0.039436,0.002931,0.168804,-30.636363,-3.181818,7.857143,73.2141337752932
11371,382,67.214073,-0.998382,0.488417,11.422737,-0.043167,0.015988,0.182926,-36.545455,-2.181818,6.734694,73.1014914272237
11392,381,67.038124,-1.101333,0.349553,11.580754,-0.041835,0.01772,0.154015,-36.545455,-2.181818,6.734694,72.9458871454049
11415,380,66.862167,-0.97444,0.383072,11.367671,-0.03957,0.007861,0.155348,-36.545455,-2.181818,6.734694,72.8188948285392
11436,379,66.686218,-0.967257,0.241814,11.401189,-0.041435,0.004663,0.167605,-46,0.272727,2.55102,72.4827439407674
11458,378,66.510261,-0.972046,0.469264,11.496957,-0.041168,0.015455,0.165074,-46,0.272727,2.55102,72.170284647506
11479,377,66.334312,-0.988805,0.246603,11.300633,-0.040769,0.021717,0.138161,-46,0.272727,2.55102,71.8285330025796
11501,376,66.158355,-0.948104,0.342371,11.314998,-0.037704,0.008926,0.145622,-40.090908,0.181818,4.081633,71.5269742895405
11522,375,65.982406,-0.952892,0.213084,11.358094,-0.039969,0.005196,0.160943,-40.090908,0.181818,4.081633,71.2513260668867
11544,374,65.806449,-0.986411,0.37589,11.427525,-0.043167,0.019718,0.174666,-40.090908,0.181818,4.081633,71.017928717745
11565,373,65.6305,-1.012747,0.253785,11.300633,-0.0441,0.019052,0.168804,-37.454544,-0.545455,5.306122,70.8397080966149
11587,372,65.454544,-0.955286,0.356736,11.257536,-0.040636,0.010658,0.172002,-37.454544,-0.545455,5.306122,70.6851085252788
11608,371,65.278587,-0.960075,0.217872,11.324575,-0.041701,0.007861,0.163208,-37.454544,-0.545455,5.306122,70.5163008548911
11630,370,65.102638,-0.948104,0.306458,11.370064,-0.042767,0.01692,0.173334,-37.454544,-0.545455,5.306122,70.3796740473351
11651,369,64.926681,-0.938527,0.237026,11.183317,-0.044632,0.017853,0.177331,-31.90909,-1.090909,7.959183,70.3078702747138
11673,368,64.750732,-0.897826,0.325611,11.240777,-0.044366,0.013323,0.182926,-31.90909,-1.090909,7.959183,70.2581346909709
11694,367,64.574775,-0.960075,0.215478,11.432313,-0.044899,0.009859,0.16907,-31.90909,-1.090909,7.959183,70.1817375869514
11716,366,64.398826,-0.936133,0.292093,11.456255,-0.041168,0.01359,0.179862,-38.363636,-0.363636,6.938776,70.0542152890546
11737,365,64.222869,-0.967257,0.28491,11.623849,-0.040902,0.013856,0.179063,-38.363636,-0.363636,6.938776,69.920974304269
11760,364,64.04692,-0.878672,0.447716,11.41316,-0.03917,0.013989,0.164407,-38.363636,-0.363636,6.938776,69.7956893533949
11781,363,63.870967,-1.000776,0.227449,11.420343,-0.03464,0.013456,0.148686,-46.272727,2.272727,2.857143,69.4465838575697
11803,362,63.695014,-0.907402,0.380678,12.023681,-0.040502,0.006928,0.180528,-46.272727,2.272727,2.857143,69.1671660124017
11824,361,63.519062,-0.921768,0.361524,11.920731,-0.036905,0.011191,0.168804,-46.272727,2.272727,2.857143,68.875472046129
11846,360,63.343105,-0.943315,0.351948,11.899183,-0.035306,0.018386,0.149219,-40.181819,2.363636,4.591837,68.5509097995062
11867,359,63.167152,-1.055843,0.248997,11.745954,-0.033974,0.009326,0.139227,-40.181819,2.363636,4.591837,68.2204915084252
11889,358,62.991199,-0.919373,0.23942,11.693282,-0.036905,0.00826,0.166139,-40.181819,2.363636,4.591837,67.9515736615545
11910,357,62.815246,-0.988805,0.342371,12.059595,-0.032908,0.022116,0.155747,-31.363636,0.181818,8.877552,67.8438989719774
11932,356,62.639293,-1.051055,0.316035,11.779473,-0.032508,0.023982,0.144822,-31.363636,0.181818,8.877552,67.7364043385248
11953,355,62.46334,-0.984017,0.201113,11.523293,-0.033175,0.007594,0.13896,-31.363636,0.181818,8.877552,67.6178052301038
11975,354,62.287387,-0.864307,0.260968,11.985374,-0.034507,0.007994,0.164008,-35.545452,1.181818,8.061224,67.4587516874662
11996,353,62.111434,-0.988805,0.325611,11.913548,-0.029577,0.025047,0.15668,-35.545452,1.181818,8.061224,67.2880979865508
12018,352,61.935482,-0.94571,0.332794,11.774684,-0.031842,0.022916,0.130567,-35.545452,1.181818,8.061224,67.1002789689725
12039,351,61.759529,-0.952892,0.138864,11.018116,-0.030643,0.00866,0.116711,-35.545452,1.181818,8.061224,66.8959230488332
12061,350,61.583576,-0.871489,0.217872,11.619061,-0.033308,0.003464,0.148819,-37.181819,1.636363,7.551021,66.7176249496211
12082,349,61.407623,-0.907402,0.126893,11.051635,-0.033441,0.027845,0.15708,-37.181819,1.636363,7.551021,66.5497586414798
12104,348,61.23167,-0.933739,0.325611,11.767501,-0.03091,0.027046,0.155614,-37.181819,1.636363,7.551021,66.3979634469517
12125,347,61.055717,-1.060631,0.316035,11.492169,-0.034507,0.00866,0.140159,-46.454544,4.363636,3.469388,66.0634084574324
12147,346,60.879764,-0.852336,0.217872,11.712435,-0.033708,0.005729,0.150018,-46.454544,4.363636,3.469388,65.767542729182
12168,345,60.703811,-1.130063,0.268151,11.137826,-0.032775,0.02225,0.149086,-46.454544,4.363636,3.469388,65.4760393119397
12190,344,60.527858,-0.981623,0.153229,11.468227,-0.031176,0.02225,0.17027,-40.363636,4.181818,5.102041,65.205944491981
12211,343,60.351905,-1.031901,0.186748,11.362882,-0.039303,0.009992,0.167072,-40.363636,4.181818,5.102041,64.9347509244403
12233,342,60.175952,-0.895431,0.251391,11.860876,-0.034107,0.009593,0.164541,-40.363636,4.181818,5.102041,64.6839683021572
12254,341,60,-1.074997,0.11971,10.951079,-0.038237,0.016787,0.152017,-31.454545,2.181818,9.591837,64.5294348912811
12276,340,59.824047,-0.912191,0.191536,11.745954,-0.034507,0.010126,0.166139,-31.454545,2.181818,9.591837,64.4110875102893
12297,339,59.648094,-0.943315,0.002394,10.833764,-0.041835,0.015855,0.160943,-31.454545,2.181818,9.591837,64.2817273837477
12319,338,59.472141,-0.938527,0.225055,11.741166,-0.030243,0.017853,0.15668,-37.363636,3,7.959183,64.1277875573315
12340,337,59.296184,-0.919373,0.021548,10.637438,-0.037838,0.016121,0.137761,-37.363636,3,7.959183,63.9474711251874
12362,336,59.120231,-0.902614,0.098162,11.465832,-0.033041,0.00826,0.148686,-37.363636,3,7.959183,63.7994269952278
12383,335,58.944278,-0.768539,-0.177171,10.520123,-0.040103,0.01732,0.148153,-47.181816,5.818182,3.877551,63.5111285012527
12405,334,58.768325,-0.964863,0.105345,11.274296,-0.031576,0.020784,0.164141,-47.181816,5.818182,3.877551,63.2679916143509
12426,333,58.592372,-1.120486,0.155623,11.049242,-0.039969,0.016254,0.162276,-47.181816,5.818182,3.877551,63.0245068257269
12448,332,58.416419,-0.938527,0.143652,11.525688,-0.031709,0.017187,0.160011,-47.454544,6.363636,3.367347,62.7657666909476
12469,331,58.240467,-1.077391,-0.026336,10.742783,-0.040636,0.01732,0.136828,-47.454544,6.363636,3.367347,62.4801775014403
12491,330,58.064514,-0.864307,-0.167594,10.965444,-0.035706,0.01359,0.152283,-47.454544,6.363636,3.367347,62.2381966554808
12512,329,57.888561,-1.039083,-0.153229,10.747571,-0.04823,0.018253,0.156813,-47.454544,6.363636,3.367347,62.0047995411448
12534,328,57.712608,-0.80924,-0.098162,10.989386,-0.024914,0.026247,0.164141,-43.727272,6.363636,5.204082,61.7663400981792
12555,327,57.536655,-0.878672,-0.076614,10.795456,-0.03957,0.024115,0.147753,-43.727272,6.363636,5.204082,61.5085402860252
12577,326,57.360702,-0.78051,-0.071826,10.737995,-0.027712,0.023049,0.134297,-43.727272,6.363636,5.204082,61.254510265163
12598,325,57.184749,-0.952892,-0.251391,10.426749,-0.047564,0.018119,0.114446,-31.272727,3.818182,9.897959,61.0538141979455
12620,324,57.008796,-0.902614,-0.09098,11.068395,-0.041568,0.01359,0.12124,-31.272727,3.818182,9.897959,60.8793854975823
12641,323,56.832843,-0.76375,0.011971,10.431537,-0.039703,0.017853,0.129767,-31.272727,3.818182,9.897959,60.7172349986428
12663,322,56.65689,-0.76375,-0.055067,10.76912,-0.031043,0.019718,0.146554,-36.454547,4.636363,8.367347,60.5776669014307
12684,321,56.480937,-0.723049,-0.007183,10.579977,-0.039303,0.016521,0.15175,-36.454547,4.636363,8.367347,60.4427745092905
12706,320,56.304985,-0.806846,-0.069432,10.766725,-0.03544,0.019585,0.158012,-36.454547,4.636363,8.367347,60.3324338799449
12727,319,56.129032,-0.852336,-0.143652,10.654198,-0.046098,0.019585,0.152683,-47.454544,8.090909,4.183673,60.073843230456
12749,318,55.95308,-0.78051,-0.064643,10.771513,-0.035972,0.018519,0.14762,-47.454544,8.090909,4.183673,59.830722168818
12770,317,55.777127,-0.806846,-0.117316,10.627861,-0.042368,0.018119,0.136162,-47.454544,8.090909,4.183673,59.5758777981
12792,316,55.601174,-0.725443,0.04549,10.778697,-0.032508,0.020251,0.134297,-41.545452,7.272727,6.122449,59.3253037772671
12813,315,55.425221,-0.713472,-0.016759,10.673352,-0.033308,0.019851,0.124704,-41.545452,7.272727,6.122449,59.0666074757435
12835,314,55.249264,-0.749385,0.040701,10.900801,-0.031576,0.020251,0.118176,-41.545452,7.272727,6.122449,58.8196827685469
12856,313,55.073311,-0.761356,0.043096,10.773908,-0.034507,0.019452,0.114046,-36,5.818182,7.857143,58.6148052135826
12878,312,54.897358,-0.758962,0.071826,10.88883,-0.030377,0.019985,0.110182,-36,5.818182,7.857143,58.4219575771932
12899,311,54.721405,-0.732626,0.031125,10.759543,-0.034773,0.019851,0.105386,-36,5.818182,7.857143,58.2257806152653
12921,310,54.545453,-0.701501,0.055067,10.867282,-0.031576,0.020917,0.100456,-36,5.818182,7.857143,58.0392234288565
12942,309,54.3695,-0.725443,0.052672,10.881648,-0.027046,0.020784,0.094861,-31.636363,5.454545,9.591837,57.8145832589114
12964,308,54.193547,-0.742202,0.062249,10.91756,-0.028511,0.02145,0.088998,-31.636363,5.454545,9.591837,57.5990761704296
12985,307,54.017594,-0.739808,0.107739,10.876859,-0.024781,0.021983,0.081804,-31.636363,5.454545,9.591837,57.3795783232328
13007,306,53.841641,-0.749385,0.047884,10.90559,-0.023848,0.021583,0.072478,-38.81818,6.363636,8.367347,57.1901617189076
13028,305,53.665688,-0.749385,0.043096,10.912772,-0.021184,0.020251,0.065417,-38.81818,6.363636,8.367347,56.9966377167234
13050,304,53.489735,-0.749385,0.02873,10.891224,-0.019052,0.022383,0.056623,-38.81818,6.363636,8.367347,56.8049138793191
13071,303,53.313782,-0.758962,0.07422,10.924743,-0.015322,0.021717,0.050095,-47.363636,9.090909,4.897959,56.5229933455358
13093,302,53.137829,-0.696713,0.067038,10.915166,-0.015988,0.022783,0.041302,-47.363636,9.090909,4.897959,56.2463517457169
13114,301,52.961876,-0.708684,0.026336,10.663775,-0.014123,0.022516,0.033974,-47.363636,9.090909,4.897959,55.9715366707904
13136,300,52.785923,-0.687136,0.079009,10.915166,-0.010792,0.023182,0.03011,-41.181816,8.272728,6.428572,55.6794439874534
13157,299,52.609971,-0.718261,0.021548,10.654198,-0.009726,0.023449,0.025314,-41.181816,8.272728,6.428572,55.3939092209753
13179,298,52.434018,-0.696713,0.031125,10.910378,-0.010658,0.021717,0.022116,-41.181816,8.272728,6.428572,55.1198807936575
13200,297,52.258065,-0.679953,-0.02873,10.690111,-0.017853,0.021184,0.032508,-31.727272,5.636363,9.693878,54.9442215227743
13222,296,52.082112,-0.68953,0.035913,10.903195,-0.052227,0.017587,0.0874,-31.727272,5.636363,9.693878,54.8536220383029
13243,295,51.906159,-0.715866,-0.186748,10.517728,-0.085801,0.018919,0.171469,-31.727272,5.636363,9.693878,54.8707643202965
13265,294,51.730206,-0.751779,0.019154,10.639833,-0.040369,0.023848,0.206775,-36,6.636363,9.387756,54.9243911876968
13286,293,51.554253,-0.715866,-0.004788,10.819398,-0.062086,0.013057,0.201446,-36,6.636363,9.387756,54.9557354087862
13308,292,51.3783,-0.725443,0.019154,10.836157,-0.045165,0.021051,0.177597,-36,6.636363,9.387756,54.9656313819563
13329,291,51.202347,-0.76375,0.035913,10.975021,-0.041035,0.024248,0.148553,-36,6.636363,9.387756,54.9265944871161
13351,290,51.026391,-0.742202,0.057461,10.90559,-0.031576,0.020384,0.114179,-37.181819,7.363636,8.77551,54.8093461423485
13372,289,50.850438,-0.720655,-0.035913,10.749966,-0.031975,0.018919,0.09566,-37.181819,7.363636,8.77551,54.6670173865602
13394,288,50.674485,-0.672771,-0.047884,10.726024,-0.03504,0.025047,0.092063,-37.181819,7.363636,8.77551,54.5328215335623
13415,287,50.498532,-0.677559,-0.153229,10.773908,-0.043833,0.023582,0.116844,-47.363636,10.454545,5.102041,54.3613308171494
13437,286,50.322579,-0.696713,-0.014365,10.697294,-0.023449,0.020251,0.122706,-47.363636,10.454545,5.102041,54.2135335539589
13458,285,50.146626,-0.68953,-0.153229,10.51294,-0.048363,0.01772,0.127636,-47.363636,10.454545,5.102041,54.0719466953257
13480,284,49.970673,-0.742202,-0.011971,10.66138,-0.027979,0.025314,0.126436,-41.090908,9.636363,6.428572,53.9012430146615
13501,283,49.79472,-0.679953,-0.112527,10.637438,-0.045432,0.021051,0.128168,-41.090908,9.636363,6.428572,53.7335349498436
13523,282,49.618767,-0.684742,-0.014365,10.745178,-0.03051,0.022116,0.126703,-41.090908,9.636363,6.428572,53.580113148685
13544,281,49.442814,-0.658405,-0.105345,10.599131,-0.0433,0.020518,0.134031,-31.272727,7.181818,10,53.4509697064146
13566,280,49.266861,-0.68953,-0.014365,10.666169,-0.031043,0.023182,0.132165,-31.272727,7.181818,10,53.3340022974059
13588,279,49.090909,-0.636858,-0.11971,10.635045,-0.045299,0.017986,0.138161,-31.272727,7.181818,10,53.2309967727786
13609,278,48.914956,-0.667982,-0.050278,10.601526,-0.032908,0.022649,0.138294,-37.636363,8.454546,9.081633,53.1402487690674
13631,277,48.739003,-0.677559,-0.117316,10.749966,-0.048096,0.022383,0.145089,-37.636363,8.454546,9.081633,53.0717389015862
13652,276,48.56305,-0.701501,-0.021548,10.692505,-0.033175,0.023848,0.138294,-37.636363,8.454546,9.081633,52.9889537914346
13674,275,48.387097,-0.624887,-0.148441,10.601526,-0.049429,0.022649,0.1311,-48,11.727273,5.204082,52.8486911740686
13695,274,48.211144,-0.684742,-0.069432,10.766725,-0.033175,0.024914,0.130433,-48,11.727273,5.204082,52.7065165885202
13717,273,48.035191,-0.658405,-0.148441,10.639833,-0.050495,0.024515,0.133364,-48,11.727273,5.204082,52.5834393729176
13738,272,47.859238,-0.730232,0.007183,10.697294,-0.03011,0.025047,0.124172,-47.909088,12.272728,4.897959,52.4103439462855
13760,271,47.683285,-0.658405,-0.225055,10.551247,-0.057822,0.022916,0.136162,-47.909088,12.272728,4.897959,52.2697650621393
13781,270,47.507332,-0.744597,-0.064643,10.826581,-0.039037,0.029844,0.155881,-47.909088,12.272728,4.897959,52.1533101986257
13803,269,47.331379,-0.591368,-0.174777,10.599131,-0.058355,0.022916,0.162942,-47.909088,12.272728,4.897959,52.0618204773575
13825,268,47.155426,-0.696713,-0.031125,10.735601,-0.028778,0.018786,0.140825,-44.363636,11.909091,6.122449,51.9077972588999
13847,267,46.979469,-0.653617,-0.158017,10.754755,-0.056224,0.020917,0.13483,-44.363636,11.909091,6.122449,51.7533630405888
13868,266,46.803516,-0.656011,-0.067038,10.766725,-0.037571,0.033974,0.13936,-44.363636,11.909091,6.122449,51.6042087045267
13890,265,46.627563,-0.651223,-0.158017,10.67814,-0.055957,0.027179,0.144289,-31.363636,8.727273,10.408164,51.4481795966864
13911,264,46.451611,-0.68953,-0.076614,10.754755,-0.038371,0.022916,0.141492,-31.363636,8.727273,10.408164,51.2874644201363
13933,263,46.275658,-0.600945,-0.208296,10.601526,-0.053959,0.024381,0.15175,-31.363636,8.727273,10.408164,51.1573684116786
13954,262,46.099705,-0.653617,-0.033519,10.826581,-0.036106,0.028112,0.149086,-36.454547,10.272727,9.387756,51.0103923033102
13976,261,45.923752,-0.59855,-0.095768,10.651803,-0.050761,0.023848,0.145089,-36.454547,10.272727,9.387756,50.874526277605
13997,260,45.747799,-0.653617,-0.023942,10.759543,-0.037838,0.026113,0.135496,-36.454547,10.272727,9.387756,50.7241387877001
14019,259,45.571846,-0.620098,-0.146046,10.560824,-0.056224,0.032642,0.147087,-47.909088,14,5.306122,50.5741107378248
14040,258,45.395893,-0.677559,-0.026336,10.867282,-0.039303,0.029711,0.146155,-47.909088,14,5.306122,50.4213333921124
14062,257,45.21994,-0.617704,-0.146046,10.623073,-0.051161,0.024115,0.139626,-47.909088,14,5.306122,50.2763497268533
14083,256,45.043987,-0.667982,-0.069432,10.833764,-0.039436,0.024781,0.136429,-42,12.818182,6.836735,50.0873370859088
14105,255,44.868034,-0.641646,-0.141258,10.726024,-0.052893,0.031176,0.148819,-42,12.818182,6.836735,49.9329320014713
14126,254,44.692081,-0.672771,-0.007183,10.943897,-0.038904,0.030643,0.144156,-42,12.818182,6.836735,49.7710708062978
14149,253,44.516129,-0.593762,-0.148441,10.723629,-0.052893,0.023449,0.148553,-32.818183,10.909091,9.489796,49.5612858341018
14170,252,44.340176,-0.639252,-0.047884,10.91756,-0.041302,0.025181,0.146688,-32.818183,10.909091,9.489796,49.341307083626
14192,251,44.164223,-0.64404,-0.095768,10.970232,-0.049695,0.026113,0.146021,-32.818183,10.909091,9.489796,49.1404470583209
14213,250,43.98827,-0.672771,-0.047884,10.876859,-0.037838,0.027446,0.141891,-32.818183,10.909091,9.489796,48.9353142140302
14235,249,43.812317,-0.632069,-0.114922,10.78109,-0.04783,0.025847,0.146155,-30.454545,10.272727,10.918368,48.7406620883906
14256,248,43.636364,-0.64404,-0.002394,10.907983,-0.036505,0.025847,0.141225,-30.454545,10.272727,10.918368,48.5403851889172
14278,247,43.460411,-0.603339,-0.083797,10.67814,-0.044233,0.024381,0.130167,-30.454545,10.272727,10.918368,48.3438452815901
14299,246,43.284458,-0.627281,-0.023942,10.939108,-0.037971,0.027446,0.133764,-35.545452,11.727273,9.489796,48.1752995602554
14321,245,43.108505,-0.651223,-0.114922,10.833764,-0.048763,0.031842,0.15708,-35.545452,11.727273,9.489796,48.0549586984857
14342,244,42.932548,-0.691924,0.011971,10.663775,-0.033974,0.029577,0.154681,-35.545452,11.727273,9.489796,47.9278746950861
14364,243,42.756596,-0.634463,-0.153229,10.532094,-0.048096,0.020917,0.150818,-48.090908,15.818182,6.020408,47.8143542570948
14385,242,42.580643,-0.639252,-0.071826,10.852917,-0.042501,0.025314,0.153749,-48.090908,15.818182,6.020408,47.7010192939104
14407,241,42.40469,-0.624887,-0.122104,10.635045,-0.056357,0.033841,0.161343,-48.090908,15.818182,6.020408,47.6130835762985
14428,240,42.228737,-0.653617,-0.026336,10.836157,-0.041168,0.025447,0.147487,-42.181816,15.09091,6.938776,47.4182219050399
14450,239,42.052784,-0.59855,-0.153229,10.584766,-0.053692,0.024914,0.147087,-42.181816,15.09091,6.938776,47.2416335413308
14471,238,41.876831,-0.641646,-0.02873,10.991781,-0.04823,0.032775,0.15708,-42.181816,15.09091,6.938776,47.077735145381
14494,237,41.700878,-0.622492,-0.141258,10.711659,-0.059288,0.031709,0.16947,-30.818181,12.090909,10.714286,46.8607714436361
14515,236,41.524925,-0.596156,0.014365,10.929532,-0.047164,0.023715,0.14802,-30.818181,12.090909,10.714286,46.6061029010075
14537,235,41.348972,-0.514753,-0.13647,10.64941,-0.058089,0.027446,0.150951,-30.818181,12.090909,10.714286,46.3772381501271
14558,234,41.173019,-0.639252,-0.107739,10.965444,-0.049562,0.03504,0.162142,-36.636363,13.727273,9.591837,46.2147703364637
14580,233,40.997066,-0.565032,-0.13647,10.623073,-0.060887,0.033441,0.164407,-36.636363,13.727273,9.591837,46.0734636793801
14601,232,40.821114,-0.632069,-0.067038,10.910378,-0.048096,0.02145,0.155614,-36.636363,13.727273,9.591837,45.9177527149913
14623,231,40.645161,-0.579397,-0.13647,10.599131,-0.057956,0.024781,0.161743,-43.81818,16.272726,8.469388,45.7971284156932
14644,230,40.469208,-0.596156,-0.031125,10.93432,-0.05156,0.031309,0.162542,-43.81818,16.272726,8.469388,45.6736190278132
14666,229,40.293255,-0.632069,-0.134075,10.627861,-0.054492,0.027446,0.160144,-43.81818,16.272726,8.469388,45.5630377189488
14687,228,40.117302,-0.61531,-0.059855,10.893618,-0.046897,0.024115,0.149885,-43.81818,16.272726,8.469388,45.4348844846951
14709,227,39.941349,-0.521936,-0.122104,10.670957,-0.053026,0.031443,0.157746,-48.363636,18,6.428572,45.3306879747102
14730,226,39.765396,-0.670376,-0.021548,10.936714,-0.043833,0.027845,0.15175,-48.363636,18,6.428572,45.2142540861138
14752,225,39.589443,-0.612916,-0.117316,10.694899,-0.046631,0.027712,0.147221,-48.363636,18,6.428572,45.1068471457374
14773,224,39.41349,-0.634463,-0.047884,10.939108,-0.039969,0.023182,0.144023,-40.81818,16.909091,7.755102,44.8736702157228
14795,223,39.237537,-0.557849,-0.088585,10.699687,-0.041701,0.030377,0.157479,-40.81818,16.909091,7.755102,44.6792186035903
14816,222,39.061584,-0.696713,-0.004788,10.96305,-0.037172,0.024781,0.145755,-40.81818,16.909091,7.755102,44.4696602339894
14838,221,38.885628,-0.622492,-0.146046,10.807427,-0.045565,0.026779,0.146554,-31,13.636364,10.714286,44.21045909866
14859,220,38.709675,-0.574608,-0.057461,11.027693,-0.041968,0.029577,0.145222,-31,13.636364,10.714286,43.9534834460456
14881,219,38.533722,-0.682347,-0.134075,10.876859,-0.045032,0.032642,0.158012,-31,13.636364,10.714286,43.7355955935124
14902,218,38.357769,-0.620098,-0.035913,11.073184,-0.041835,0.026247,0.148686,-37.545455,16,9.489796,43.5442731503508
14924,217,38.181816,-0.751779,-0.172383,11.00854,-0.047297,0.02638,0.159078,-37.545455,16,9.489796,43.3857240428022
14945,216,38.005863,-0.64404,-0.007183,10.984598,-0.042501,0.026646,0.155348,-37.545455,16,9.489796,43.2205001321914
14967,215,37.82991,-0.80924,-0.112527,11.142615,-0.046098,0.024115,0.152417,-47.636363,19.545455,6.22449,43.1127826519795
14988,214,37.653957,-0.64404,0.004788,11.123461,-0.043833,0.025181,0.14349,-47.636363,19.545455,6.22449,42.989545794028
15010,213,37.478004,-0.47884,-0.026336,11.08276,-0.047164,0.029044,0.148553,-47.636363,19.545455,6.22449,42.888147442027
15031,212,37.302052,-0.70629,0.011971,11.252748,-0.041302,0.029311,0.141758,-41.181816,18.727272,6.938776,42.6527195916929
15053,211,37.126099,-0.610521,-0.038307,11.334152,-0.041568,0.032242,0.140559,-41.181816,18.727272,6.938776,42.4361598137632
15074,210,36.950146,-0.715866,-0.009577,11.197682,-0.037438,0.034773,0.141625,-41.181816,18.727272,6.938776,42.2231595557374
15096,209,36.774193,-0.711078,-0.007183,11.288661,-0.044632,0.033441,0.15708,-41.181816,18.727272,6.938776,42.0504332438569
15117,208,36.59824,-0.620098,0.011971,11.087549,-0.033708,0.030643,0.145888,-41.181816,18.727272,6.938776,41.8622256072159
15139,207,36.422287,-0.749385,-0.079009,11.180922,-0.042767,0.024914,0.163741,-41.181816,18.727272,6.938776,41.7165593543848
15160,206,36.246334,-0.720655,-0.004788,10.994174,-0.03957,0.029444,0.167205,-41.181816,18.727272,6.938776,41.5725794599594
15182,205,36.070381,-0.773327,-0.083797,11.075577,-0.042101,0.029178,0.186124,-30.909091,16.181818,10.204082,41.2920190433779
15204,204,35.894428,-0.804452,-0.011971,11.123461,-0.038371,0.03051,0.166806,-30.909091,16.181818,10.204082,40.999346410448
15226,203,35.718475,-0.711078,-0.098162,11.073184,-0.037172,0.026113,0.168937,-30.909091,16.181818,10.204082,40.7241909812438
15247,202,35.542522,-0.742202,-0.023942,10.924743,-0.043034,0.022383,0.179462,-38.636363,18,9.081633,40.6159141200688
15269,201,35.36657,-0.792481,-0.04549,11.0253,-0.037438,0.026113,0.176265,-38.636363,18,9.081633,40.5197632399556
15290,200,35.190617,-0.761356,0.023942,10.828975,-0.036505,0.025181,0.156547,-38.636363,18,9.081633,40.3921096655491
15312,199,35.014664,-0.720655,-0.076614,10.922348,-0.038637,0.023449,0.161343,-47.636363,21.636363,6.122449,40.3181737868923
15333,198,34.838711,-0.770933,-0.023942,10.896013,-0.039037,0.024381,0.166939,-47.636363,21.636363,6.122449,40.2452390340331
15355,197,34.662754,-0.770933,-0.069432,10.984598,-0.037305,0.024914,0.154282,-47.636363,21.636363,6.122449,40.1690920635588
15376,196,34.486801,-0.718261,-0.055067,10.94629,-0.033041,0.02145,0.136695,-40.727272,20.636363,6.938776,39.9264781160265
15398,195,34.310848,-0.744597,-0.146046,10.864888,-0.03917,0.020651,0.147887,-40.727272,20.636363,6.938776,39.7195470721969
15419,194,34.134895,-0.746991,-0.031125,10.941502,-0.035972,0.023449,0.157213,-40.727272,20.636363,6.938776,39.5259123956978
15441,193,33.958942,-0.773327,-0.186748,10.783485,-0.041435,0.024648,0.157613,-30.000001,17.090909,10.408164,39.1940346474952
15462,192,33.78299,-0.746991,-0.059855,10.824187,-0.036372,0.023315,0.150551,-30.000001,17.090909,10.408164,38.8599348668913
15484,191,33.607037,-0.768539,-0.169988,10.790668,-0.047564,0.023449,0.152283,-30.000001,17.090909,10.408164,38.5541436820451
15505,190,33.431084,-0.754173,-0.059855,10.850522,-0.032375,0.023982,0.144423,-31.454545,17.363636,10.612245,38.287646317754
15527,189,33.255131,-0.746991,-0.222661,10.737995,-0.050095,0.023315,0.146155,-31.454545,17.363636,10.612245,38.0457005133907
15548,188,33.079178,-0.723049,-0.062249,10.737995,-0.035839,0.026113,0.15175,-31.454545,17.363636,10.612245,37.8140892080721
15570,187,32.903225,-0.758962,-0.258574,10.821792,-0.052227,0.023582,0.159078,-31.454545,17.363636,10.612245,37.613308073824
15591,186,32.727272,-0.725443,-0.04549,10.81461,-0.033841,0.024515,0.148153,-34.454544,19,9.693878,37.400089657691
15613,185,32.551319,-0.725443,-0.354342,10.836157,-0.048496,0.023182,0.148553,-34.454544,19,9.693878,37.2071858735659
15634,184,32.375366,-0.718261,-0.081403,10.874464,-0.035306,0.024914,0.15215,-34.454544,19,9.693878,37.0194362821254
15656,183,32.199413,-0.708684,-0.222661,10.826581,-0.051161,0.026646,0.155614,-47.454544,23.363636,5.612245,37.0055145684278
15677,182,32.02346,-0.720655,-0.102951,10.836157,-0.035306,0.023982,0.153349,-47.454544,23.363636,5.612245,36.9797920057393
15699,181,31.847507,-0.749385,-0.227449,10.776302,-0.051694,0.024914,0.152949,-47.454544,23.363636,5.612245,36.964246349319
15720,180,31.671552,-0.770933,-0.052672,10.828975,-0.033708,0.024648,0.146688,-41,22.454544,6.938776,36.7909855050636
15742,179,31.495599,-0.794875,-0.347159,10.757148,-0.047164,0.026913,0.145355,-41,22.454544,6.938776,36.633606289821
15764,178,31.319646,-0.785298,-0.155623,10.898406,-0.038104,0.024248,0.155214,-41,22.454544,6.938776,36.4974367848141
15785,177,31.143693,-0.816423,-0.253785,10.78109,-0.049429,0.027712,0.160144,-29.181818,18.727272,10.714286,36.1399240792966
15807,176,30.967741,-0.751779,-0.148441,10.735601,-0.033441,0.027179,0.135363,-29.181818,18.727272,10.714286,35.7766044693549
15829,175,30.791788,-0.818817,-0.368707,10.84334,-0.046098,0.023582,0.13856,-29.181818,18.727272,10.714286,35.4357768746063
15851,174,30.615835,-0.761356,-0.11971,10.761937,-0.03544,0.028112,0.155214,-35.636363,20.727272,9.795919,35.2761386088696
15872,173,30.439882,-0.811634,-0.301669,10.687717,-0.052227,0.028911,0.158412,-35.636363,20.727272,9.795919,35.1190661943276
15894,172,30.263929,-0.751779,-0.112527,10.766725,-0.030377,0.023715,0.123106,-35.636363,20.727272,9.795919,34.9318163803347
15915,171,30.087976,-0.835576,-0.397438,10.654198,-0.048763,0.025047,0.122573,-47.181816,25,6.632653,34.873704665171
15937,170,29.912023,-0.837971,-0.208296,10.903195,-0.039037,0.031043,0.160544,-47.181816,25,6.632653,34.8774182623057
15958,169,29.73607,-0.85473,-0.339977,10.862494,-0.048896,0.032775,0.170136,-47.181816,25,6.632653,34.8834610785891
15980,168,29.560115,-0.742202,-0.237026,10.690111,-0.041435,0.026913,0.137894,-47.181816,25.727272,6.632653,34.8173259529175
16001,167,29.384162,-0.924162,-0.411803,10.876859,-0.045432,0.023449,0.139893,-47.81818,25.727272,6.122449,34.7667605889816
16023,166,29.20821,-0.773327,-0.248997,10.690111,-0.041568,0.03051,0.150152,-47.81818,25.727272,6.122449,34.7412099059381
16044,165,29.032257,-0.926556,-0.344765,11.013328,-0.045032,0.03011,0.15175,-47.81818,25.727272,6.122449,34.7097654076377
16066,164,28.856304,-0.821211,-0.260968,10.78109,-0.037571,0.027046,0.133498,-42.727272,24.727272,6.836735,34.5640886997819
16087,163,28.680351,-0.871489,-0.397438,10.682929,-0.051294,0.029178,0.134697,-42.727272,24.727272,6.836735,34.4190334484946
16109,162,28.504398,-0.826,-0.263362,10.84334,-0.035573,0.029444,0.136828,-42.727272,24.727272,6.836735,34.2923993428304
16131,161,28.328445,-0.979228,-0.438139,10.855311,-0.04783,0.031576,0.137894,-28.636363,19.727273,10.918368,33.9190885547588
16153,160,28.152492,-0.804452,-0.275333,10.608708,-0.039037,0.033974,0.137628,-28.636363,19.727273,10.918368,33.5640833670137
16174,159,27.976539,-0.90022,-0.395043,10.503363,-0.055824,0.033175,0.144556,-28.636363,19.727273,10.918368,33.2273118838277
16196,158,27.800586,-0.859518,-0.275333,10.828975,-0.034507,0.029311,0.130567,-34.454544,22.090908,9.897959,33.0044716106261
16217,157,27.624631,-0.916979,-0.447716,10.697294,-0.055025,0.03091,0.138694,-34.454544,22.090908,9.897959,32.7952397825588
16239,156,27.448679,-0.804452,-0.344765,10.548853,-0.044499,0.035706,0.149752,-34.454544,22.090908,9.897959,32.6199633820597
16260,155,27.272726,-1.029507,-0.454898,10.996569,-0.051161,0.030377,0.164008,-46.909091,26.727273,5.816327,32.631776569788
16282,154,27.096773,-0.845153,-0.296881,10.668563,-0.041835,0.030243,0.145355,-46.909091,26.727273,5.816327,32.6278463518673
16303,153,26.92082,-0.857124,-0.466869,10.448297,-0.05689,0.032375,0.143357,-46.909091,26.727273,5.816327,32.6125915805352
16326,152,26.744867,-0.876278,-0.351948,10.833764,-0.039703,0.029444,0.150818,-40.454544,25.727272,7.653061,32.4691376327602
16347,151,26.568914,-0.969652,-0.440533,10.625468,-0.052626,0.030377,0.150685,-40.454544,25.727272,7.653061,32.3141318619933
16369,150,26.392961,-0.948104,-0.344765,10.93432,-0.037704,0.027312,0.149485,-40.454544,25.727272,7.653061,32.1745207796594
16390,149,26.217008,-1.053449,-0.464475,10.936714,-0.05609,0.027446,0.152417,-28.90909,21.727272,10.204082,31.7837594358575
16412,148,26.041055,-0.85473,-0.344765,10.556035,-0.035972,0.030776,0.136962,-28.90909,21.727272,10.204082,31.4009978729727
16433,147,25.865102,-0.897826,-0.521936,10.453085,-0.052626,0.030377,0.135096,-28.90909,21.727272,10.204082,31.0265400497953
16455,146,25.689149,-0.88346,-0.411803,10.79785,-0.034907,0.029044,0.143357,-28.90909,21.727272,10.204082,30.6902928787599
16476,145,25.513195,-1.012747,-0.493206,10.64941,-0.054358,0.031576,0.149219,-28.90909,21.727272,10.204082,30.3696122416003
16498,144,25.337242,-0.869095,-0.402226,10.431537,-0.042634,0.034107,0.13856,-28.90909,21.727272,10.204082,30.0597203791992
16520,143,25.161289,-0.993594,-0.567426,10.697294,-0.050894,0.028511,0.146954,-28.90909,21.727272,10.204082,29.7766814881595
16542,142,24.985336,-0.797269,-0.378284,10.472239,-0.044632,0.027179,0.15215,-31.727272,23.181818,10.102042,29.5585249338843
16563,141,24.809383,-0.677559,-0.399832,10.390836,-0.05609,0.026779,0.163342,-31.727272,23.181818,10.102042,29.3563740320971
16585,140,24.63343,-0.754173,-0.368707,10.477027,-0.037838,0.023049,0.140692,-31.727272,23.181818,10.102042,29.1437284072261
16606,139,24.457477,-0.665588,-0.457293,10.457874,-0.054358,0.020917,0.141625,-46.363636,28.636363,6.22449,29.1858407951462
16628,138,24.281524,-0.675165,-0.337582,10.359711,-0.041568,0.029444,0.162142,-46.363636,28.636363,6.22449,29.2623211646125
16649,137,24.105571,-0.732626,-0.442927,10.591949,-0.054358,0.025047,0.164008,-46.363636,28.636363,6.22449,29.3274148585395
16671,136,23.929619,-0.653617,-0.320823,10.457874,-0.035573,0.027579,0.144289,-40.181819,27.090909,7.448979,29.2434578546929
16692,135,23.753666,-0.560243,-0.378284,10.314222,-0.053026,0.024781,0.147487,-40.181819,27.090909,7.448979,29.1589546031326
16715,134,23.577714,-0.682347,-0.351948,10.402807,-0.038637,0.024914,0.155881,-40.181819,27.090909,7.448979,29.1086941538249
16736,133,23.401759,-0.636858,-0.380678,10.374076,-0.045832,0.025447,0.154681,-26.909091,22.818181,11.020408,28.6837698472771
16758,132,23.225806,-0.656011,-0.308852,10.28549,-0.037571,0.026247,0.143357,-26.909091,22.818181,11.020408,28.2742826026043
16779,131,23.049853,-0.723049,-0.445322,10.462662,-0.046764,0.019452,0.146021,-26.909091,22.818181,11.020408,27.8798932070864
16801,130,22.8739,-0.713472,-0.339977,10.383653,-0.033175,0.022649,0.140825,-33.636363,25,10,27.7148514858783
16822,129,22.697947,-0.560243,-0.368707,10.359711,-0.044499,0.026646,0.13896,-33.636363,25,10,27.5469912023254
16844,128,22.521994,-0.715866,-0.371101,10.448297,-0.037704,0.026247,0.144289,-33.636363,25,10,27.4032819082827
16865,127,22.346041,-0.720655,-0.366313,10.450691,-0.0433,0.029711,0.151351,-44.636363,29.272726,7.653061,27.4570871091594
16887,126,22.170088,-0.802058,-0.356736,10.544065,-0.032242,0.030776,0.126703,-44.636363,29.272726,7.653061,27.4841586486099
16908,125,21.994135,-0.804452,-0.464475,10.690111,-0.043833,0.027579,0.136828,-44.636363,29.272726,7.653061,27.5151614172008
16930,124,21.818182,-0.823605,-0.395043,10.618285,-0.037571,0.031309,0.149885,-44.636363,29.272726,7.653061,27.570698067124
16951,123,21.64223,-0.792481,-0.402226,10.754755,-0.046764,0.030377,0.167205,-44.636363,29.272726,7.653061,27.6366102380247
16974,122,21.466275,-0.849942,-0.378284,10.692505,-0.03917,0.028645,0.155214,-44.636363,29.272726,7.653061,27.702832157331
16995,121,21.290322,-0.842759,-0.43335,10.955867,-0.047164,0.024248,0.168937,-44.636363,29.272726,7.653061,27.7643747570276
17017,120,21.114369,-0.881066,-0.349553,10.90559,-0.03877,0.02558,0.183992,-40.545455,28.636363,7.857143,27.7419769094829
17038,119,20.938416,-0.847547,-0.383072,10.757148,-0.048496,0.025047,0.183726,-40.545455,28.636363,7.857143,27.7090385766092
17060,118,20.762463,-0.794875,-0.311246,10.824187,-0.038371,0.026113,0.171735,-40.545455,28.636363,7.857143,27.6728219243011
17081,117,20.58651,-0.799663,-0.411803,10.740389,-0.045299,0.025047,0.175732,-25.81818,24.363636,11.122449,27.1749704741114
17103,116,20.410557,-0.902614,-0.383072,10.745178,-0.024115,0.028911,0.169337,-25.81818,24.363636,11.122449,26.7041669254018
17124,115,20.234604,-0.785298,-0.423774,10.845734,-0.051694,0.021583,0.163608,-25.81818,24.363636,11.122449,26.2390882920134
17147,114,20.058651,-0.847547,-0.347159,10.886436,-0.033441,0.023715,0.165606,-32,26.363636,10.102042,26.0380717349672
17168,113,19.882699,-0.852336,-0.428562,10.79785,-0.04823,0.028378,0.169603,-32,26.363636,10.102042,25.8318968575741
17190,112,19.706746,-0.897826,-0.35913,10.776302,-0.033974,0.027179,0.148286,-32,26.363636,10.102042,25.6176173061736
17211,111,19.530793,-0.785298,-0.471658,10.850522,-0.039037,0.027312,0.14802,-45.636363,31.545454,7.040816,25.677498399679
17233,110,19.354838,-0.845153,-0.409408,10.714053,-0.040769,0.023449,0.163208,-45.636363,31.545454,7.040816,25.7640414169102
17254,109,19.178885,-0.857124,-0.385467,10.893618,-0.042501,0.027979,0.16987,-45.636363,31.545454,7.040816,25.8448238006879
17276,108,19.002932,-0.924162,-0.37589,10.869676,-0.037305,0.028778,0.138827,-38,30.000001,8.061224,25.6845427071376
17297,107,18.826979,-0.794875,-0.438139,10.900801,-0.041968,0.025181,0.140293,-38,30.000001,8.061224,25.5256303883918
17319,106,18.651026,-0.873884,-0.399832,10.826581,-0.039969,0.024381,0.159211,-38,30.000001,8.061224,25.4088916652506
17340,105,18.475073,-0.88346,-0.402226,10.96305,-0.042634,0.025314,0.164008,-27.909091,26.545452,9.897959,24.9963362088116
17362,104,18.29912,-0.909797,-0.447716,10.824187,-0.037971,0.025714,0.140159,-27.909091,26.545452,9.897959,24.582224788541
17383,103,18.123168,-0.739808,-0.454898,10.903195,-0.041435,0.022516,0.147354,-27.909091,26.545452,9.897959,24.189491580047
17405,102,17.947215,-0.88346,-0.390255,10.805033,-0.035972,0.022116,0.153482,-27.909091,26.545452,9.897959,23.8337504676157
17426,101,17.771262,-0.826,-0.43335,10.898406,-0.0433,0.023182,0.155081,-23.636363,25.272727,11.632654,23.2991050824214
17449,100,17.595309,-0.866701,-0.373495,10.879253,-0.032642,0.023182,0.140559,-23.636363,25.272727,11.632654,22.7897253931186
17471,99,17.419356,-0.826,-0.459687,10.864888,-0.0429,0.020118,0.151884,-23.636363,25.272727,11.632654,22.3124937970145
17492,98,17.243401,-0.90022,-0.402226,10.907983,-0.032109,0.022516,0.151484,-30.727273,27.727273,10.306122,22.1235273229082
17514,97,17.067448,-0.893037,-0.47884,10.955867,-0.042634,0.020784,0.150018,-30.727273,27.727273,10.306122,21.9513427774332
17535,96,16.891495,-0.902614,-0.426168,10.84334,-0.030776,0.022516,0.142824,-30.727273,27.727273,10.306122,21.7692481877748
17557,95,16.715542,-0.888249,-0.462081,10.929532,-0.043433,0.023182,0.151884,-44.909088,33.090911,6.938776,21.9380922181088
17578,94,16.539589,-0.871489,-0.387861,10.860099,-0.036905,0.022783,0.151884,-44.909088,33.090911,6.938776,22.0891521148057
17600,93,16.363637,-0.852336,-0.502782,10.965444,-0.043034,0.023315,0.167605,-44.909088,33.090911,6.938776,22.2632738894998
17621,92,16.187684,-0.909797,-0.368707,10.929532,-0.037172,0.023182,0.159611,-37.545455,31.363636,7.959183,22.2109055294111
17643,91,16.011731,-0.857124,-0.442927,10.862494,-0.050228,0.024515,0.173467,-37.545455,31.363636,7.959183,22.189722091895
17664,90,15.835778,-0.907402,-0.351948,10.936714,-0.031576,0.026113,0.156946,-37.545455,31.363636,7.959183,22.137589081351
